[[[0.013589471578598022, -0.0328405536711216, 0.07858719676733017, 0.023786380887031555, -0.07264918088912964, 0.0171649232506752, -0.0384989008307457, -0.009899988770484924, 0.026153564453125, -0.011877931654453278, 0.0015176907181739807, 0.03360311686992645, -0.07986311614513397, 0.02566300332546234, 0.021601594984531403, -0.00722619891166687, 0.018013760447502136, -0.07325359433889389, -0.01090993732213974, 0.06737200170755386, 0.07162361592054367, -0.05471625179052353, -0.07771890610456467, 0.011249206960201263, -0.07778003811836243, 0.012374691665172577, 0.050374023616313934, 0.0031529515981674194, -0.012553147971630096, -0.015846438705921173, -0.012668736279010773, -0.02573763206601143, -0.05121510848402977, 0.034912265837192535, -0.014526546001434326, -0.06190640479326248, 0.012154988944530487, 0.05877550691366196, -0.06699320673942566, -0.0031727179884910583, -0.040520988404750824, 0.04491247981786728, 0.009684912860393524, -0.04643460363149643, 0.013442806899547577, 0.01025417447090149, 0.048883356153964996, -0.011423423886299133, -0.05755002796649933, -0.006039753556251526, 0.050988830626010895, -0.07736921310424805, 0.01174938678741455, 0.0623093917965889, -0.05630446597933769, 0.00021622329950332642, -0.04635345935821533, 0.06628686934709549, -0.04370807856321335, 0.03444160521030426, -0.0009382590651512146, -0.07625894248485565, 0.027896732091903687, -0.045222461223602295, 0.06005368381738663, 0.0324387401342392, 0.00632428377866745, -0.05009068548679352, 0.08077103644609451, 0.07334410399198532, -0.02278134971857071, -0.046652235090732574, -0.00926905870437622, 0.06228303164243698, 0.03918316960334778, -0.00821869820356369, 0.06368624418973923, 0.03014051914215088, 0.017932869493961334, 0.008617110550403595, -0.038924865424633026, 0.0729314461350441, 0.017175987362861633, -0.0030295997858047485, -0.06647159904241562, 0.03741570562124252, 0.0733916386961937, -0.0266956128180027, -0.03660707175731659, 0.023329317569732666, -0.05138310045003891, -0.009886302053928375, 0.019371971487998962, 0.03279096633195877, -0.039959948509931564, 0.015554726123809814, 0.02831508219242096, -0.01585819572210312, 0.07964097708463669, -0.04318395256996155, 0.06478380411863327, 0.020863957703113556, -0.03585471585392952, 0.007098279893398285, 0.033382102847099304, -0.018612686544656754, 0.004314586520195007, 0.05362603813409805, -0.06626496464014053, 0.07045679539442062, 0.07039683312177658, -0.029868118464946747, -0.07694121450185776, 0.05394890159368515, -0.050602953881025314, 0.0265737846493721, 0.010751225054264069, -0.07685486972332001, -0.010842904448509216, -0.07245815545320511, -0.0587894544005394, -0.04631199687719345, -0.04006489738821983, -0.06078770011663437, 0.021841660141944885, -0.011647939682006836, 0.07591644674539566, -0.0656733289361], [-0.05594399943947792, 0.04914533346891403, 0.023966088891029358, 0.07214150577783585, 0.06710278242826462, -0.05261634290218353, 0.0615992471575737, -0.02763504907488823, -0.023378130048513412, 0.06554654985666275, -0.04264228418469429, 0.0673358216881752, 0.006072789430618286, -0.018725335597991943, 0.03971700370311737, 0.06418285518884659, -0.023044060915708542, 0.024625137448310852, 0.011144526302814484, -0.04591989517211914, -0.04469999670982361, -0.0032946839928627014, -0.05552706867456436, -0.05370580404996872, 0.011486619710922241, 0.019470922648906708, 0.055629052221775055, 0.007621534168720245, -0.035814397037029266, 0.05422820895910263, -0.060918547213077545, -0.02537241205573082, -0.03167824447154999, -0.015744313597679138, -0.036747660487890244, 0.053898029029369354, -0.029552828520536423, 0.0033751502633094788, 0.020104363560676575, -0.014211311936378479, 0.026188604533672333, -0.033454157412052155, 0.017163686454296112, -0.0067896768450737, -0.015221834182739258, 0.045674778521060944, 0.07525704056024551, -0.025082141160964966, 0.046916089951992035, -0.05829762667417526, 0.02011623978614807, 0.04275566339492798, -0.022460274398326874, -0.062609001994133, -0.01776004582643509, 0.0035550370812416077, -0.044797442853450775, -0.05856209620833397, -0.008586607873439789, -0.0327114500105381, 0.013499215245246887, 0.007611609995365143, -0.013458624482154846, -0.068321593105793, -0.03065488114953041, 0.026558488607406616, 0.047890059649944305, -0.07712336629629135, 0.04090367257595062, -0.0555989071726799, -0.061166442930698395, -0.008008398115634918, 0.012861169874668121, -0.014823444187641144, 0.05089374631643295, -0.018346458673477173, -0.07084858417510986, 0.06886322051286697, 0.028235964477062225, -0.03323037549853325, -0.01878304034471512, 0.05744745582342148, 0.057076938450336456, -0.025687120854854584, 0.04201974719762802, 0.0608360692858696, 0.010342955589294434, -0.021091550588607788, -0.07853624224662781, -0.02426229417324066, 0.032870762050151825, 0.07264650613069534, 0.022156141698360443, 0.006310746073722839, -0.029472652822732925, 0.007086984813213348, -0.01185578852891922, 0.03796900808811188, -0.04280136153101921, -0.0695250928401947, -0.07129762321710587, 0.06782735139131546, -0.006466589868068695, -0.024522144347429276, 0.06535638123750687, 0.07334861904382706, 0.06057865172624588, -0.03087044507265091, 0.07738224416971207, -0.05962541326880455, 0.0804893895983696, -0.06667118519544601, -0.0037710294127464294, 0.07621779292821884, 0.008943095803260803, -0.018955420702695847, -0.02240777015686035, 0.030484259128570557, -0.022638440132141113, 0.003617033362388611, 0.01830151677131653, -0.018808741122484207, -0.034382741898298264, -0.03173726424574852, -0.015893936157226562, 0.0036701783537864685, 0.03121238201856613, -0.07053712755441666], [0.07369662076234818, 0.0655636414885521, -0.07908720523118973, -0.0248333178460598, -0.06988600641489029, -0.00316784530878067, -0.03225191310048103, -0.06265908479690552, 0.03726501762866974, -0.07699781656265259, 0.04997945576906204, -0.06691043823957443, -0.07951290160417557, -0.06098764017224312, -0.03256194666028023, -0.05315534025430679, -0.05769028514623642, 0.07124916464090347, -0.07899608463048935, -0.018219679594039917, -0.03454158827662468, -0.06107928603887558, 0.05969337373971939, 0.07568260282278061, -0.0408664308488369, -0.028685543686151505, -0.07264743745326996, 0.02463521808385849, 0.023749910295009613, -0.06803202629089355, -0.0419563353061676, 0.043113499879837036, -0.0748114287853241, 0.02335401624441147, 0.05895764380693436, 0.04709761589765549, -0.0031863898038864136, 0.056948475539684296, -0.0623127780854702, -0.029763907194137573, 0.025420114398002625, 0.028260834515094757, 0.007573649287223816, 0.027389995753765106, 0.0622953400015831, 0.0019067972898483276, 0.031128786504268646, -0.03999580070376396, -0.07618542015552521, 0.05223957449197769, -0.04082290083169937, 0.07228300720453262, -0.06913571804761887, -0.05419258773326874, -0.05883339047431946, 4.53069806098938e-05, -0.05252649635076523, -0.021352965384721756, -0.028000466525554657, 0.07188046723604202, 0.0010612830519676208, -0.00045259296894073486, -0.0123368501663208, -0.02974862977862358, 0.06009615212678909, 0.01570146530866623, 0.010936178267002106, 0.07394056767225266, 0.006206996738910675, 0.048477865755558014, 0.07954303175210953, -0.018374867737293243, -0.01514115184545517, 0.04953991621732712, -0.04866825416684151, 0.04734870046377182, -0.06669365614652634, 0.056506432592868805, 0.01998268812894821, 0.04158983379602432, -0.047564055770635605, -0.009591430425643921, 0.04434617608785629, -0.04516807943582535, -0.045445818454027176, -0.07136344909667969, 0.05586712807416916, -0.0741211324930191, 0.03519458323717117, 0.06023482233285904, 0.0189543217420578, 0.055617474019527435, 0.04959332197904587, -0.05429401993751526, 0.023656830191612244, 0.04684849828481674, -0.0042370036244392395, 0.024129055440425873, 0.06655768305063248, 0.017355836927890778, 0.05468956381082535, 0.027821026742458344, -0.07682447135448456, 0.038420289754867554, -0.07580603659152985, 0.047581590712070465, 0.03968238830566406, 0.07133152335882187, -0.06585729867219925, 0.020534992218017578, -0.0004549548029899597, 0.030205748975276947, -0.03139277175068855, -0.055163174867630005, -0.07458001375198364, -0.03612373024225235, -0.034989133477211, 0.04538863152265549, 0.0466451570391655, -0.045175060629844666, 0.01441211998462677, -0.042859744280576706, 0.06122080236673355, -0.018492072820663452, -0.001600705087184906, -0.009562984108924866, 0.05540478974580765, 0.03756695240736008], [0.031550437211990356, -0.02889513224363327, -0.08066780120134354, 0.01759226620197296, 0.020947881042957306, 0.028922416269779205, -0.0655476525425911, 0.07526633888483047, -0.07994113117456436, -0.021158922463655472, -0.033629246056079865, 0.037001147866249084, 0.03475545346736908, 0.05620116740465164, -0.03798332065343857, -0.019641641527414322, 0.053933821618556976, 0.010123424232006073, 0.03665626794099808, 0.014345057308673859, -0.022202283143997192, 0.022016309201717377, 0.07090603560209274, 0.05760469287633896, -0.03947072848677635, 0.05197928100824356, -0.02698035165667534, 0.05436506122350693, 0.032361969351768494, -0.046765170991420746, 0.07384323328733444, 0.014591731131076813, 0.027417264878749847, 0.05348380655050278, 0.019049175083637238, 0.05346589535474777, 0.04871664196252823, -0.03843696042895317, 0.05674297362565994, -0.013740211725234985, 0.012577980756759644, 0.035673923790454865, 0.01568521559238434, -0.0775737315416336, 0.051445044577121735, -0.013685055077075958, 0.07340946048498154, -0.05721769481897354, 0.07508627325296402, -0.035838354378938675, -0.023925267159938812, -0.028734877705574036, -0.041395969688892365, -0.03797866031527519, -0.0727611854672432, 0.06253654509782791, 0.036678582429885864, -0.0041003599762916565, 0.0254184752702713, 0.015064902603626251, 0.02402317523956299, 0.05330406874418259, 0.057452090084552765, 0.03881687670946121, 0.04327275604009628, -0.051530420780181885, 0.0725768581032753, 0.01903635263442993, 0.07844320684671402, -0.03294093906879425, 0.0735914334654808, 0.07932793349027634, -0.03207726776599884, -0.07747075706720352, 0.005337581038475037, -0.012434855103492737, 0.08054932206869125, -0.06966796517372131, -0.07795168459415436, 0.022675223648548126, -0.027796581387519836, 0.0657808855175972, -0.033595383167266846, -0.008696779608726501, -0.03296331316232681, -0.002419978380203247, 0.007707320153713226, -0.006519287824630737, 0.007211968302726746, 0.00662810355424881, 0.021568022668361664, -0.07315877825021744, 0.014930866658687592, 0.03868634253740311, -0.07884550094604492, 0.06986360996961594, 0.038348451256752014, -0.018080979585647583, -0.046359241008758545, -0.060277342796325684, 0.023383140563964844, -0.05281881242990494, -0.05053941160440445, -0.07956694811582565, 0.07900012284517288, 0.007148034870624542, -0.045909006148576736, -0.009893089532852173, -0.06821826845407486, 0.018029287457466125, 0.021180681884288788, 0.03253817558288574, -0.08085951954126358, 0.027179203927516937, -0.0016773641109466553, 0.056258268654346466, -0.04974551498889923, -0.03757240250706673, -0.07846760749816895, -0.012887544929981232, -0.03701451048254967, 0.04857826977968216, -0.021065227687358856, -0.009085945785045624, 0.05217877775430679, -0.04036976397037506, 0.07484228163957596, -0.06821047514677048], [-0.04985326528549194, -0.03847666084766388, -0.07005811482667923, -0.011615626513957977, 0.0425412654876709, 0.032630555331707, 0.00630507618188858, 0.01611657440662384, 0.04615069180727005, -0.07913067936897278, -0.037947796285152435, -0.07160583883523941, -0.0051795318722724915, 0.018681183457374573, 0.017423346638679504, 0.013950839638710022, -0.0017027929425239563, 0.05106339603662491, 0.01633474975824356, 0.07996011525392532, 0.04314829409122467, -0.01814679056406021, -0.05888798460364342, 0.08035009354352951, -0.019386935979127884, 0.04636730998754501, 0.04137560725212097, 0.06320119649171829, 0.02491113543510437, 0.004583604633808136, 0.04559779912233353, 0.06984897702932358, 0.052077166736125946, -0.018766000866889954, -0.06694874912500381, -0.0016918480396270752, 0.045308105647563934, -0.06358131766319275, 0.06309721618890762, -0.03524934872984886, -0.016681626439094543, 0.05721244961023331, 0.050043098628520966, -0.023630879819393158, -0.058669134974479675, 0.0240764319896698, -0.006394326686859131, 0.0006142407655715942, 0.06089199334383011, 0.08042793720960617, -0.0538916252553463, -0.04595911502838135, 0.05332506448030472, 0.02560938149690628, 0.07709848135709763, 0.028698556125164032, -0.045343052595853806, -0.021039877086877823, 0.02146036922931671, 0.06743843108415604, -0.07792773842811584, 0.05826573818922043, 0.04033530503511429, -0.03495271876454353, -0.026896733790636063, 0.07186465710401535, -0.05437210574746132, -0.06789939850568771, 0.035085998475551605, 0.033526405692100525, -0.06928673386573792, 0.012864917516708374, 0.0753743126988411, 0.0024230480194091797, -0.056291162967681885, 0.07376962155103683, 0.05310467630624771, 0.07723743468523026, 0.041567616164684296, 0.01662786304950714, 0.06077852100133896, -0.06075022369623184, 0.05856975167989731, -0.05128294974565506, 0.07846080511808395, 0.08065014332532883, -0.07821512967348099, -0.07598046958446503, 0.05409849435091019, -0.018633630126714706, 0.007413975894451141, 0.014032840728759766, 0.014915496110916138, 0.05868799239397049, -0.07381931692361832, -0.060189276933670044, -0.0639868974685669, 0.05458693951368332, -0.06770060211420059, -0.05706724524497986, 0.014147646725177765, 0.04517208784818649, 0.040801919996738434, -0.06145529821515083, 0.07374236732721329, -0.04460667073726654, -0.06120304763317108, 0.004545390605926514, 0.0738026425242424, -0.016012616455554962, -0.07550159841775894, -0.045413773506879807, -0.021199069917201996, -0.025189083069562912, -0.023281648755073547, -0.03680173307657242, 0.07598356157541275, -0.02328544110059738, 0.07486774772405624, -0.04658936709165573, 0.05816064029932022, 0.01670173555612564, 0.03151516616344452, -0.04215523228049278, -0.03489828109741211, -0.06994836777448654, 0.053769759833812714, 0.029749907553195953], [0.03244522213935852, 0.07306208461523056, 0.017608895897865295, -0.05508178472518921, -0.006005682051181793, 0.0661541149020195, 0.011834032833576202, -0.04862866923213005, 0.0462406650185585, -0.07953744381666183, -0.0520174540579319, 0.007508575916290283, 0.03596198558807373, 0.03110693395137787, -0.05515845865011215, -0.07825643569231033, -0.03526986762881279, -0.04602387547492981, -0.07124751806259155, -0.07043900340795517, -0.007847733795642853, 0.013195626437664032, 0.041087642312049866, 0.04532330483198166, 0.04199361801147461, 0.020181991159915924, -0.07270972430706024, 0.054154254496097565, 0.010365210473537445, -0.025180090218782425, 0.05422372370958328, 0.020100921392440796, -0.0684644877910614, 0.024978995323181152, 0.008913174271583557, -0.05914442986249924, 0.06926929205656052, -0.02139810100197792, -0.07525800913572311, -0.009323962032794952, -0.07661989331245422, 0.02731894701719284, 0.024936333298683167, -0.01817614585161209, -0.029737897217273712, -0.073368139564991, -0.03171442449092865, -0.02782837301492691, 0.06038633733987808, 0.033612288534641266, 0.040490031242370605, -0.08013114333152771, 0.04585594683885574, -0.04038827121257782, 0.06774454563856125, -0.07927604764699936, 0.04619046300649643, 0.008039876818656921, -0.03871649503707886, 0.03510868549346924, 0.025020860135555267, -0.017180413007736206, 0.0036575868725776672, 0.06990350037813187, -0.02174876257777214, 0.02685680240392685, 0.06955195218324661, 0.07824652642011642, 0.045242153108119965, 0.08024812489748001, -0.013562977313995361, 0.059852711856365204, 0.04060710221529007, -0.026056058704853058, 0.07602199167013168, 0.02315639704465866, 0.0641326829791069, -0.019464753568172455, -0.05702207237482071, 0.07253511995077133, -0.05083595961332321, 0.028888709843158722, -0.0480528324842453, -0.03988168388605118, 0.0073040202260017395, -0.0508195236325264, -0.020020999014377594, -0.0783991888165474, 0.02571307122707367, 0.027327552437782288, 0.026472292840480804, -0.04206979274749756, -0.02843863144516945, -0.0770450085401535, 0.07914669066667557, -0.07146284729242325, 0.07457336038351059, 0.023233965039253235, 0.0336780771613121, -0.043337225914001465, -0.02802015095949173, -0.006916709244251251, -0.03276699036359787, -0.029388125985860825, -0.08071139454841614, -0.05826523154973984, -0.0638963133096695, -0.05320865660905838, 0.07180263847112656, -0.04845576360821724, 0.04115745425224304, -0.030756965279579163, 0.0022618472576141357, 0.012246496975421906, 0.0298314169049263, -0.03597944974899292, -0.01571279764175415, -0.02166372910141945, 0.03342919051647186, 0.04974386841058731, -0.07166539877653122, -0.0041420310735702515, -0.03512481227517128, -0.010670408606529236, 0.08028983324766159, 0.050496093928813934, -0.031164463609457016, 0.04957050830125809], [0.011003218591213226, -0.06231766939163208, -0.0809180960059166, -0.030278924852609634, -0.025337040424346924, -0.07503167539834976, 0.04758001118898392, 0.028398141264915466, -0.010298646986484528, -0.0052171796560287476, -0.049090661108493805, 0.01990487426519394, -0.07955219596624374, -0.038210973143577576, 0.01970186084508896, -0.025761380791664124, -0.08078660070896149, -0.043774329125881195, 0.029758818447589874, -0.055722206830978394, 0.0076577141880989075, -0.02314276248216629, 0.06584180146455765, 0.0505618080496788, 0.029705524444580078, 0.0353836715221405, 0.03362209349870682, -0.026427526026964188, -0.0022858455777168274, -0.07542764395475388, 0.047705553472042084, 0.035990796983242035, 0.02267342060804367, -0.03992440178990364, -0.017314240336418152, -0.0426480658352375, -0.07280071079730988, -0.05708068609237671, 0.07363416999578476, -0.014640681445598602, -0.0029169321060180664, 0.003265969455242157, 0.06021919101476669, -0.07390148937702179, -0.01191633939743042, 0.06066837161779404, 0.05976501852273941, 0.05098714679479599, 0.005779176950454712, -0.043860308825969696, -0.064826600253582, -0.0660344734787941, -0.07579944282770157, 0.0015478357672691345, 0.04782562702894211, 0.06127060204744339, -0.02202926203608513, 0.07110213488340378, -0.06395573914051056, 0.03761941194534302, 0.06309143453836441, 0.0707683190703392, -0.07273080199956894, -0.04979714751243591, 0.011460937559604645, 0.050310082733631134, 0.017112135887145996, 0.030684620141983032, 0.07514271885156631, -0.028843943029642105, -0.0038093551993370056, -0.043418195098638535, 0.023545056581497192, 0.054321400821208954, -0.02963605895638466, -0.03751632198691368, 0.017487935721874237, 0.002024933695793152, -0.032355837523937225, 0.01624801754951477, 0.038209542632102966, 0.06889741867780685, 0.04263176769018173, 0.056844182312488556, 0.05372399836778641, -0.00958019495010376, -0.07275288552045822, -0.06437737494707108, -0.01911892741918564, 0.08091583102941513, -0.04970138520002365, -0.0714387372136116, -0.07814875990152359, -0.04047732427716255, -0.06893906742334366, 0.01333262026309967, 0.006351567804813385, -0.040716152638196945, -0.07587382197380066, -0.010807245969772339, -0.02623625099658966, -0.004086785018444061, 0.022348828613758087, -0.04141693189740181, 0.05206098407506943, -0.010396309196949005, -0.06562782824039459, 0.04271143674850464, 0.036196865141391754, -0.04085821285843849, 0.02971983700990677, 0.030612297356128693, 0.07153113931417465, -0.04424513876438141, -0.03845946863293648, -0.07266004383563995, 0.003024972975254059, -0.06150275468826294, -0.0533597469329834, -0.027426891028881073, -0.06359314918518066, 0.04870089143514633, -0.04224824905395508, 0.013615943491458893, -0.023207757622003555, -0.06890887767076492, -0.08107320964336395, -0.004443749785423279], [-0.04844106733798981, 0.0028349384665489197, -0.027026202529668808, 0.008843556046485901, -0.06526058912277222, 0.03291881084442139, 0.0760517343878746, 0.07938499003648758, -0.02297186851501465, -0.017719954252243042, 0.07726683467626572, 0.07494879513978958, -0.010576076805591583, 0.021513991057872772, 0.04138508439064026, -0.007848255336284637, -0.07847961783409119, 0.06568519026041031, 0.07890216261148453, -0.05615691468119621, -0.06681624054908752, -0.07040967047214508, -0.05541200190782547, -0.006816305220127106, -0.0341109037399292, -0.026034321635961533, -0.07744654268026352, 0.021853767335414886, -0.01598859578371048, 0.07179693132638931, 0.04136829823255539, -0.02494872733950615, 0.0699571743607521, -0.061710622161626816, 0.035256288945674896, -0.07424499094486237, 0.07644284516572952, 0.0759250596165657, 0.044416628777980804, -0.020620930939912796, 0.04078652709722519, 0.0801863893866539, 0.07669401913881302, 0.03254711627960205, -0.0014022812247276306, -0.08080744743347168, -0.01773732155561447, -0.0443757139146328, -0.08063583821058273, 0.018187671899795532, -0.0577227920293808, -0.06750401109457016, 0.0800001248717308, 0.06787063926458359, 0.045518167316913605, -0.0006838589906692505, -0.0588432177901268, -0.010066263377666473, -0.044824495911598206, 0.036901578307151794, 0.07402382045984268, 0.01888081431388855, 0.009129807353019714, -0.04869053140282631, -0.042973026633262634, -0.019849564880132675, -0.07805165648460388, 0.05143284052610397, 0.02677718549966812, -0.06079603731632233, 0.037522003054618835, 0.04296158254146576, -0.04683239385485649, -0.04765887185931206, 0.04630497843027115, 0.05732391029596329, 0.027843765914440155, 0.04546608775854111, 0.057419054210186005, -0.02893388643860817, -0.024801969528198242, -0.03348809480667114, 0.023191556334495544, 0.03529868274927139, -0.019229426980018616, 0.07078040391206741, 0.04893108457326889, -0.01848861575126648, -0.015127405524253845, 0.04701746255159378, -0.0025063976645469666, -0.05504855886101723, -0.012963779270648956, 0.07213915139436722, -0.00233672559261322, -0.011625625193119049, -0.004339359700679779, -0.041170910000801086, 0.05043705552816391, 0.011580236256122589, 0.07343661040067673, -0.04717423394322395, -0.02710086852312088, 0.006645604968070984, 0.028026089072227478, -0.05671525001525879, -0.005087755620479584, -0.0712207704782486, 0.020311251282691956, 0.037137098610401154, -0.0333116315305233, -0.0005489960312843323, 0.04802616685628891, 0.05700855702161789, 0.03570809215307236, 0.058274708688259125, 0.0005252659320831299, 0.07221700996160507, -0.03155967965722084, 0.01487993448972702, 0.05027847737073898, -0.008659616112709045, 0.013313725590705872, -0.020331475883722305, -0.06750025600194931, -0.04927537962794304, -0.03134757652878761, -0.07366491854190826], [0.07314129918813705, -0.01448676735162735, -0.01604107767343521, -0.01278793066740036, -0.0733606368303299, -0.020090289413928986, -0.03840901702642441, -0.049458473920822144, -0.07772482186555862, 0.02312638610601425, 0.07699281722307205, 0.05051953345537186, 0.011420637369155884, 0.011805996298789978, -0.04122138395905495, -0.02108713984489441, 0.030899740755558014, 0.047145165503025055, -0.011290624737739563, 0.003229670226573944, 0.014711320400238037, -0.04549826309084892, -0.040515750646591187, 0.0019256696105003357, 0.0076574236154556274, -0.003990247845649719, 0.029416456818580627, -0.07795894891023636, -0.035215139389038086, 0.03430566191673279, -0.0341152548789978, -0.04170534387230873, -0.07041875272989273, 0.06903626769781113, -0.05212263762950897, 0.02685600519180298, -0.02670988440513611, 0.03215806186199188, 0.028362147510051727, 0.01111428439617157, -0.027692176401615143, 0.07831647247076035, 0.057118020951747894, -0.07371120154857635, -0.07688393443822861, 0.0248822420835495, 0.03150493651628494, -0.011893637478351593, 0.005041822791099548, -0.029094122350215912, 0.016013309359550476, -0.06876794248819351, 0.06913121789693832, -0.058246128261089325, 0.0013761892914772034, -0.056975774466991425, -0.04844773933291435, -0.010560683906078339, -0.03088243305683136, -0.049997471272945404, -0.035782139748334885, -0.04999256134033203, 0.00018750131130218506, -0.020290575921535492, 0.0024455636739730835, 0.01087699830532074, -0.06219340115785599, -0.05428363382816315, 0.034521184861660004, 0.011921174824237823, -0.05621523782610893, -0.01999438926577568, 0.04192820191383362, -0.020746998488903046, 0.003949403762817383, -0.06078590452671051, 0.0336795449256897, -0.03174157440662384, -0.01582740992307663, -0.06225480139255524, 0.07955104857683182, 0.06748449057340622, 0.07183665782213211, 0.04153551906347275, 0.06980951875448227, -0.019174274057149887, -0.018892589956521988, 0.0081930011510849, 0.012709148228168488, 0.014893583953380585, 0.010580122470855713, 0.04600859433412552, -0.01346365362405777, 0.020423606038093567, 0.018990829586982727, -0.06513727456331253, -0.0737205371260643, -0.002722211182117462, 0.053315214812755585, 0.006824657320976257, 0.017249010503292084, -0.0682641789317131, 0.08080010861158371, 0.06237009912729263, 0.022961482405662537, 0.0028153881430625916, -0.06506885588169098, -0.009410038590431213, -0.012250423431396484, -0.03525348752737045, 0.01252957433462143, 0.06262607127428055, -0.03563648462295532, 0.07513291388750076, 0.02858678251504898, 0.08074488490819931, 0.0435866117477417, 0.030015848577022552, -0.07227739691734314, 0.08076142519712448, -0.05179144814610481, 0.044656239449977875, 0.02416672557592392, 0.039526380598545074, 0.04645770043134689, -0.05487915500998497, 0.035102479159832, -0.026934325695037842], [-0.02452728897333145, -0.05192852020263672, -0.06774155795574188, -0.023567024618387222, -0.036047790199518204, 0.0745435431599617, 0.06897301226854324, 0.0070984140038490295, 0.0711953267455101, -0.06809763610363007, -0.039903633296489716, -0.06982694566249847, 0.031079240143299103, 0.0030214712023735046, 0.06945738941431046, -0.018316425383090973, -0.05594810098409653, -0.06780645996332169, 0.056666888296604156, -0.0008919015526771545, -0.08050943911075592, -0.03236943110823631, 0.05705960839986801, 0.005758173763751984, 0.05006813257932663, 0.0739765539765358, 0.010649658739566803, -0.020106609910726547, -0.030293039977550507, 0.06371372193098068, 0.02909739315509796, 0.07009974867105484, 0.014462187886238098, -0.05544176697731018, -0.0552394837141037, 0.06237151473760605, -0.0010855719447135925, 0.040345437824726105, -0.06472815573215485, 0.06674178689718246, 0.07097668200731277, 0.015799738466739655, 0.07469511777162552, -0.01368308812379837, 0.04154253751039505, -0.028004121035337448, 0.027652978897094727, -0.07115238904953003, -0.07694773375988007, 0.03266020119190216, -0.07434065639972687, -0.008077666163444519, -0.044476911425590515, -0.04815905913710594, -0.05771505832672119, -0.004828363656997681, -0.04966359585523605, 0.07471386343240738, 0.023779071867465973, 0.07895607501268387, -0.003918655216693878, -0.03372013568878174, 0.016952089965343475, 0.04303488880395889, 0.03396683186292648, -0.016051098704338074, -0.06936182081699371, 0.002385340631008148, -0.0638047307729721, 0.0491378977894783, 0.01922120898962021, 0.03309599310159683, -0.03427663445472717, 0.012667261064052582, -0.014736093580722809, -0.03716161847114563, -0.03653061017394066, -0.021093424409627914, -0.0635555163025856, 0.06028345972299576, 0.0721181109547615, 0.06888283044099808, 0.05191827565431595, -0.020970840007066727, -0.0667831152677536, -0.0748610720038414, -0.03006763383746147, 0.017999857664108276, 0.047656141221523285, 0.01277778297662735, -0.06345969438552856, -0.039264462888240814, 0.0670161172747612, -0.03608602285385132, 0.03567653149366379, -0.05892867222428322, 0.038472190499305725, -0.01564069837331772, -0.06836023181676865, 0.0286567285656929, -0.02759167179465294, 0.04788253456354141, 0.04290321469306946, 0.04314933717250824, 0.05373085290193558, -0.03804439306259155, -0.02741217613220215, -0.05413426458835602, -0.05974765121936798, -0.03925558924674988, 0.05749497562646866, 0.010885432362556458, 0.06779191642999649, 0.02320031076669693, -0.06279143691062927, -0.07580941915512085, -0.02654077112674713, 0.002661779522895813, 0.01668744534254074, -0.04310839623212814, -0.007771678268909454, 0.039536938071250916, -0.016218796372413635, -0.07181312143802643, 0.06357669085264206, -0.06028635799884796, 0.004803113639354706, 0.0674673393368721], [-0.060781147330999374, 0.041586488485336304, -0.017942287027835846, -0.07073410600423813, -0.0692710429430008, 0.07016261667013168, -0.025739353150129318, 0.012164391577243805, 0.06332755833864212, 0.005632452666759491, 0.06590913981199265, -0.01958530768752098, -0.06933259963989258, -0.06738318502902985, 0.020224325358867645, -0.039730846881866455, 0.045041389763355255, 0.01540818065404892, -0.0554468110203743, -0.052333734929561615, 0.006777860224246979, -0.0033960938453674316, 0.05958013981580734, 0.022318504750728607, -0.003968454897403717, 0.016968101263046265, -0.016694441437721252, -0.03680981695652008, -0.05649983882904053, -0.06232675909996033, -0.042488276958465576, 0.0006948858499526978, -0.009593114256858826, 0.05985512584447861, 0.015397563576698303, 0.0638410672545433, -0.07710304111242294, -0.01805219054222107, 0.03426288068294525, -0.029560059309005737, -0.006200090050697327, -0.06176823377609253, -0.07941185683012009, -0.04855232313275337, 0.05825214833021164, -0.06775469332933426, 0.021459557116031647, -0.047114498913288116, 0.04150364547967911, -0.03605034202337265, -0.03955649212002754, -0.015320204198360443, 0.026704370975494385, -0.04653266817331314, -0.006260447204113007, 0.023732930421829224, -0.02303435280919075, 0.04616168886423111, 0.03268548101186752, 0.0014801174402236938, -0.01423424482345581, -0.0062087178230285645, -0.06492714583873749, -0.04165297746658325, -0.060174815356731415, 0.07441406697034836, -0.03328581526875496, 0.013735666871070862, -0.058323346078395844, -0.005431607365608215, 0.03826487064361572, -0.04338522255420685, 0.02038630098104477, -0.03259267285466194, -0.017273202538490295, -0.07716824859380722, 0.03249942511320114, 0.06418509036302567, -0.025535471737384796, -0.004287786781787872, -0.0012233182787895203, 0.008311502635478973, 0.008765548467636108, -0.06503141671419144, -0.047371312975883484, 0.05820729583501816, -0.039639994502067566, -0.021109648048877716, 0.02676163613796234, 0.005162626504898071, 0.04617132991552353, -0.007658123970031738, -0.0720156580209732, -0.06900659203529358, -0.05743858218193054, -0.05530167743563652, 0.08078936487436295, 0.008042663335800171, 0.0015995502471923828, -0.06542651355266571, -0.07440897822380066, 0.054405577480793, -0.04942780360579491, 0.0226481631398201, 0.03155437856912613, -0.0022484436631202698, -0.012863487005233765, 0.047765083611011505, -0.022661354392766953, -0.0432833693921566, 0.004401318728923798, -0.04577578604221344, -0.029661547392606735, 0.04860492795705795, -0.019741620868444443, -0.03924185782670975, 0.07357942312955856, 0.035041578114032745, 0.07205910235643387, 0.022724956274032593, 0.02298232913017273, 0.05881423503160477, 0.005891919136047363, 0.06633450835943222, -0.05055967718362808, -0.04483988881111145, 0.06837626546621323, -0.02894473448395729], [-0.02439603954553604, -0.020424939692020416, -0.07661172747612, 0.025120705366134644, 0.03643805533647537, -0.0023675858974456787, 0.04812709242105484, -0.03779660910367966, 0.010578066110610962, -0.06570558995008469, 0.08047472685575485, 0.041800178587436676, 0.010699942708015442, 0.022519215941429138, 0.055450014770030975, -0.03501353785395622, 0.0754641517996788, -0.046247079968452454, 0.00982627272605896, 0.06301369518041611, -0.005240179598331451, 0.05915915220975876, 0.056796200573444366, 0.0068915486335754395, 0.0731453076004982, 0.030024878680706024, 0.059332676231861115, -0.04651675373315811, -0.07832525670528412, 0.026258006691932678, 0.004143908619880676, 0.009324058890342712, -0.06119256839156151, -0.011744692921638489, 0.004150189459323883, 0.020979344844818115, 0.07416167110204697, 0.008122973144054413, 0.016435950994491577, -0.004337042570114136, 0.0035782456398010254, -0.07760925590991974, -0.04252142086625099, 0.002832077443599701, 0.005424953997135162, -0.07731227576732635, 0.06098756939172745, 0.07787377387285233, -0.03364156559109688, 0.033310435712337494, -0.0021569356322288513, 0.04932384938001633, 0.06506330519914627, -0.038301996886730194, -0.010916292667388916, -0.06597212702035904, 0.0012799054384231567, -0.05666179955005646, -0.02075444534420967, 0.03701414167881012, -0.01967981457710266, 0.009626448154449463, -0.06498856097459793, -0.03974958509206772, -0.027512326836586, 0.06624249368906021, -0.06836561113595963, -0.04443639516830444, -0.03302767127752304, 0.06705891340970993, 0.018954820930957794, 0.04028898477554321, 0.0503154918551445, -0.03683485835790634, -0.05577343702316284, -0.028386205434799194, 0.03721601516008377, -0.03470849618315697, 0.019060581922531128, -0.013049736618995667, 0.005955636501312256, 0.06690093129873276, -0.023939557373523712, 0.08020596951246262, 0.08092246204614639, -0.06823499500751495, -0.05215483158826828, 0.0010742396116256714, -0.07133597135543823, -0.05825359374284744, -0.05433238297700882, -0.04530760645866394, -0.005355067551136017, 0.0014577582478523254, 0.01113748550415039, -0.012481071054935455, -0.06120805814862251, 0.06971066445112228, -0.07070136815309525, -0.07012435048818588, -0.042949553579092026, 0.011143095791339874, -0.06274893879890442, 0.008678548038005829, -0.06129629909992218, 0.06802838295698166, 0.01854829490184784, 0.037983186542987823, -0.016991421580314636, -0.018947027623653412, 0.018043793737888336, 0.02928321063518524, 0.029851704835891724, -0.08006133139133453, 0.06505832821130753, -0.03363350033760071, -0.01225154846906662, -0.036011144518852234, 0.02707187831401825, -0.000518113374710083, -0.0336080901324749, 0.038652755320072174, 0.06360053271055222, -0.014648333191871643, 0.046674780547618866, -0.04977945238351822, 0.046138398349285126, 0.018619708716869354], [-0.018560007214546204, -0.045588940382003784, 0.0368938222527504, 0.008192844688892365, 0.06531120091676712, -0.06361256539821625, 0.05705375224351883, -0.03324700519442558, 0.012078292667865753, 0.05038886517286301, -0.033098217099905014, -0.06903830915689468, 0.06865116208791733, 0.013216353952884674, -0.06266620755195618, 0.05874400585889816, -0.045529842376708984, 0.03396745026111603, -0.0702325701713562, 0.04640451818704605, -0.010256744921207428, 0.06241252273321152, -0.047506388276815414, -0.004005350172519684, 0.06430917233228683, 0.04934779554605484, -0.017182059586048126, 0.07957055419683456, 0.07669814676046371, -0.011570088565349579, -0.07298249006271362, 0.010570526123046875, 0.045895226299762726, 0.06516703218221664, -0.061636053025722504, -0.03731879964470863, -0.024544887244701385, -0.04818156734108925, -0.06751381605863571, -0.02133919671177864, -0.054242171347141266, -0.026210647076368332, -0.013249851763248444, 0.05762120336294174, -0.037152279168367386, -0.04799802601337433, -0.03810349106788635, -0.05630906671285629, 0.006545610725879669, 0.006168432533740997, 0.08023775368928909, -0.06291050463914871, -0.0626487210392952, -0.06320415437221527, -0.07136256247758865, -0.02524644136428833, -0.05381568521261215, -0.06052831560373306, -0.05201607942581177, 0.06965208798646927, 0.05015473812818527, 0.04659057408571243, -0.03977039456367493, -0.04408107325434685, -0.02431311458349228, 0.018844828009605408, -0.06607116013765335, -0.026498906314373016, 0.0664941594004631, -0.040945157408714294, 0.035786569118499756, 0.026160329580307007, 0.028641045093536377, 0.009255774319171906, 0.049762509763240814, 0.03931833803653717, -0.07631989568471909, -0.06349228322505951, 0.05947432667016983, -0.028414923697710037, -0.028317246586084366, 0.07263676077127457, -0.00868777185678482, 0.020521976053714752, 0.061225526034832, -0.07292351126670837, -0.04935722053050995, -0.03679564222693443, 0.03180297464132309, -0.03814356029033661, 0.03178445249795914, -0.04716816172003746, 0.062358684837818146, -0.010204821825027466, -0.079081691801548, 0.04312551021575928, 0.026287883520126343, -0.014390289783477783, 0.011940784752368927, -0.06581059098243713, 0.044520460069179535, -0.02960478886961937, 0.05044766515493393, -0.02564900740981102, -0.07868334650993347, 0.0007209330797195435, -0.04622863233089447, -0.07201579213142395, -0.03463272750377655, -0.041950881481170654, -0.004403814673423767, 0.07103746384382248, -0.03335846960544586, 0.07061298936605453, -0.007916323840618134, 0.03295721858739853, 0.04286349564790726, -0.022789549082517624, 0.018700674176216125, 0.07002966850996017, -0.07452793419361115, -0.07866617292165756, -0.04554196819663048, -0.01039598137140274, 0.042975232005119324, -0.0646829754114151, 0.058526478707790375, 0.07603009790182114], [-0.012427665293216705, 0.005557365715503693, -0.007004387676715851, 0.022008031606674194, 0.03224458545446396, -0.07213340699672699, -0.06835934519767761, 0.04036995768547058, 0.06420012563467026, 0.0717632845044136, 0.006930924952030182, -0.06824412941932678, -0.012989982962608337, -0.029188107699155807, 0.03307170420885086, -0.019330505281686783, -0.02958434820175171, -0.05765294283628464, 0.018816761672496796, 0.07486174255609512, -0.0006542503833770752, -0.06935470551252365, 0.07489735633134842, 0.06045166403055191, -0.008427493274211884, -0.03360849618911743, 0.05587560683488846, 0.0023587867617607117, 0.06391043215990067, -0.057706184685230255, -0.010053209960460663, -0.07279986143112183, 0.013337202370166779, -0.014530427753925323, 0.002181537449359894, 0.0177222341299057, 0.0035241171717643738, 0.031285904347896576, 0.05543484538793564, 0.033395133912563324, -0.07253920286893845, 0.053912900388240814, -0.017291031777858734, 0.06548317521810532, -0.003284767270088196, 0.062289752066135406, -0.0732458233833313, 0.033481694757938385, 0.0620679035782814, -0.07539301365613937, -0.062072038650512695, -0.028655685484409332, 0.057866282761096954, 0.01858549565076828, -0.06591825187206268, -0.003956906497478485, 0.040609210729599, -0.011898159980773926, -0.07686533033847809, -0.04257160425186157, -0.07010284811258316, 0.0353013351559639, 0.04477808624505997, 0.08049985021352768, 0.01303786039352417, 0.05545545369386673, -0.00397135317325592, -0.04962934926152229, -0.011936567723751068, -0.0025527551770210266, -0.0026596561074256897, 0.04786951094865799, 0.07038258761167526, -0.023122206330299377, 0.020465262234210968, -0.07144887000322342, 0.005861535668373108, -0.023823413997888565, -0.010545559227466583, 0.006925314664840698, 0.05585401505231857, -0.06383996456861496, 0.043062858283519745, 0.07213190943002701, 0.01715419441461563, -0.060368139296770096, -0.052594855427742004, 0.016680538654327393, 0.039237700402736664, 0.03796098381280899, 0.06111917644739151, 0.04506709426641464, -0.07672758400440216, -0.005574479699134827, 0.06815307587385178, 0.075462706387043, -0.013088725507259369, -0.07616598159074783, -0.06890679150819778, -0.051575303077697754, 0.06645212322473526, -0.0024167299270629883, 0.01302451640367508, -0.045113254338502884, 0.06211579591035843, -0.0592527836561203, -0.0429452583193779, 0.037871040403842926, -0.058283254504203796, -0.06606674939393997, -0.030232936143875122, 0.018998682498931885, -0.01401924341917038, -0.012284345924854279, -0.07271989434957504, 0.06209728866815567, -0.06544877588748932, 0.04068966209888458, 0.04846828430891037, 0.0489828959107399, -0.0376492515206337, 0.058196403086185455, -0.07330693304538727, -0.059003859758377075, -0.048150740563869476, -0.03010427951812744, -0.03717732056975365, 0.04579382389783859], [-0.05978052318096161, -0.018214784562587738, 0.05929171293973923, 0.03224475681781769, 0.0476343110203743, -0.06143936514854431, 0.0013441666960716248, -0.07117734104394913, 0.003988504409790039, 0.02923378348350525, -0.05331438034772873, 0.00879233330488205, -0.06993082910776138, 0.022920794785022736, -0.04986891150474548, -0.06777960062026978, -0.0074163153767585754, -0.05601050332188606, 0.040118053555488586, 0.023830026388168335, 0.005847319960594177, 0.017161332070827484, 0.03725147992372513, 0.06629128009080887, 0.017248831689357758, 0.005673468112945557, 0.06595795601606369, -0.021415427327156067, 0.07552050799131393, 0.0073922425508499146, -0.08045299351215363, -0.014808803796768188, 0.06435362249612808, 0.009891599416732788, -0.008946068584918976, 0.07648412138223648, -0.04608100280165672, -0.05873730033636093, 0.05530308932065964, -0.05757860839366913, 0.005179278552532196, -0.018649045377969742, -0.06077706813812256, -0.06038672477006912, 0.0038380324840545654, 0.07958432286977768, -0.019070889800786972, -0.03295433893799782, 0.037387505173683167, -0.07984665781259537, -0.000997796654701233, -0.03252183645963669, -0.016075558960437775, 0.007599972188472748, 0.06503938883543015, -0.031052589416503906, 0.03454042971134186, 0.06474892050027847, -0.0394536517560482, -0.07061997056007385, -0.046312812715768814, -0.008941099047660828, 0.06517598778009415, 0.05122710019350052, 0.008136823773384094, 0.0476132407784462, -0.0262836292386055, -0.032963912934064865, -0.003953039646148682, -0.008177123963832855, 0.03971061855554581, -0.016597911715507507, -0.05539208650588989, 0.013430006802082062, 0.061695389449596405, 0.06708160787820816, 0.02277829498052597, -0.07775398343801498, -0.0769602432847023, 0.003127776086330414, -0.04565057158470154, 0.06549107283353806, 0.012232676148414612, 0.07665292173624039, 0.07248658686876297, 0.04264793545007706, -0.007107406854629517, -0.0011385977268218994, 0.057309575378894806, -0.008173428475856781, -0.03797862306237221, 0.011907421052455902, 0.002487272024154663, 0.053801603615283966, 0.017179064452648163, -0.07658226042985916, 0.07973369210958481, -0.07980943471193314, 0.003285348415374756, -0.03790877386927605, 0.033276356756687164, -0.07641415297985077, 0.0004303380846977234, 0.0361851304769516, 0.03230656683444977, 0.01353398710489273, -0.028510436415672302, -0.0030993521213531494, -0.04335952550172806, 0.008804745972156525, -0.04465492069721222, -0.029136106371879578, 0.01641504466533661, 0.08016292005777359, 0.07543743401765823, 0.015885449945926666, 0.0786445364356041, -0.006746433675289154, 0.032749585807323456, -0.05518706142902374, 0.06647218018770218, -0.01230710744857788, 0.07293041795492172, 0.025210663676261902, -0.05057010054588318, 0.023910418152809143, 0.03854047507047653, -0.05424375832080841], [0.020258300006389618, -0.0006628036499023438, -0.025825217366218567, -0.06982895731925964, 0.007117517292499542, -0.0031342580914497375, -0.029301874339580536, -0.0036294683814048767, -0.025255471467971802, 0.07099314779043198, 0.000878944993019104, 0.06977247446775436, 0.007464177906513214, 0.048361264169216156, 0.05295123904943466, -0.00753398984670639, -0.018136270344257355, 0.004736185073852539, -0.008400656282901764, -0.04239218309521675, -0.07770217955112457, 0.055224038660526276, 0.022044949233531952, 0.041919149458408356, 0.06312935799360275, -0.02201038971543312, -0.008497923612594604, 0.050055600702762604, -0.06914215534925461, -0.06701447814702988, 0.046928904950618744, -0.03324421867728233, 0.07355815917253494, 0.038180455565452576, 0.018549837172031403, -0.0308552049100399, 0.06236473470926285, 0.029645822942256927, 0.008111663162708282, 0.030044719576835632, 0.0554402694106102, 0.03181564062833786, -0.049484968185424805, -0.05299448221921921, -0.017627671360969543, -0.07141949236392975, -0.030321892350912094, -0.005791455507278442, 0.06799399107694626, 0.05862165242433548, -0.038847919553518295, 0.0609586164355278, 0.030864626169204712, 0.006816402077674866, -0.08066942542791367, -0.05528431385755539, 0.012062706053256989, -0.02183259278535843, 0.05196572095155716, -0.005483545362949371, -0.022913508117198944, -0.011476665735244751, -0.051744282245635986, -0.023756135255098343, -0.033126506954431534, -0.016756750643253326, 0.03160858899354935, 0.026344142854213715, -0.02420279011130333, -0.057879529893398285, -0.01759464293718338, 0.0551929846405983, 0.012871146202087402, 0.0040151700377464294, -0.06229253113269806, -0.01920260116457939, 0.08060883730649948, -0.08009827136993408, -0.037076644599437714, -0.014452748000621796, 0.030463218688964844, -0.04006209224462509, -0.039805106818675995, 0.05662717670202255, 0.004492364823818207, 0.006093114614486694, -0.002525642514228821, 0.0500020757317543, -0.020167041569948196, -0.060709189623594284, 0.06025164574384689, -0.03467801958322525, -0.0162695050239563, 0.029228679835796356, -0.07902514934539795, -0.04618815705180168, 0.05325926095247269, -0.005118653178215027, -0.07781940698623657, 0.023237034678459167, -0.0291270948946476, 0.05892132967710495, 0.019862815737724304, 0.07775358110666275, -0.023369118571281433, -0.018575482070446014, 0.022975198924541473, -0.07301629334688187, -0.03608258068561554, -0.06062794849276543, -0.01725194603204727, 0.00865928828716278, 0.04211835563182831, -0.03546514734625816, -0.038316190242767334, 0.008338503539562225, 0.02564312517642975, 0.021120421588420868, 0.023898735642433167, 0.06320259720087051, -0.015110328793525696, 0.03441571444272995, -0.04328203573822975, 0.03588304668664932, 0.06985572725534439, 0.031976863741874695, 0.08044739812612534, 0.028704963624477386], [0.06997113674879074, 0.012196339666843414, 0.07404681295156479, -0.053154122084379196, 0.07200870662927628, -0.0013926103711128235, -0.07233551144599915, 0.01467759907245636, 0.01567218452692032, -0.014937445521354675, 0.05670013278722763, -0.00908571481704712, 0.07566840201616287, -0.050438135862350464, 0.05034675449132919, 0.04980546981096268, 0.018700234591960907, 0.03106558322906494, 0.06646063178777695, 0.05466192215681076, 0.04963723570108414, 0.028407596051692963, -0.044881004840135574, 0.0033643990755081177, -0.054801277816295624, -0.06130827218294144, -0.07911253720521927, -0.028528805822134018, 0.05370717495679855, 0.07431571930646896, 0.033916667103767395, -0.05777096748352051, 0.006650462746620178, 0.016026653349399567, -0.041643232107162476, 0.041775211691856384, 0.045750536024570465, -0.06644342094659805, 0.0785537138581276, 0.027508445084095, -0.06898359954357147, -0.025021150708198547, -0.0109177827835083, 1.6823410987854004e-05, -0.06422863900661469, -0.05587490648031235, -0.03132297843694687, 0.06855761259794235, 0.07634776085615158, 0.012266919016838074, -0.06226348504424095, 0.0006457269191741943, 0.04613009840250015, 0.05389029532670975, -0.04430760443210602, 0.015217363834381104, -0.042086463421583176, 0.08055492490530014, -0.04997910186648369, -0.018705707043409348, 0.05059545487165451, 0.052703745663166046, 0.0030289366841316223, 0.001619972288608551, 0.01861800253391266, 0.073817677795887, 0.06836042553186417, 0.07448668032884598, 0.014337979257106781, 0.013832338154315948, 0.05064386874437332, -0.0515865758061409, -0.06827688217163086, -0.04428153485059738, -0.05583885684609413, 0.0003875419497489929, -0.06943878531455994, 0.018107011914253235, 0.07088381797075272, 0.04219093173742294, 0.03839472681283951, 0.04377315193414688, -0.06055585294961929, -0.011392131447792053, 0.0311262309551239, -0.04613199830055237, 0.06218021363019943, -0.028361879289150238, 0.045572005212306976, -0.007456928491592407, -0.0020203515887260437, 0.04194078594446182, 0.024684973061084747, 0.028851933777332306, -0.032388944178819656, 0.07547887414693832, -1.2822449207305908e-05, -0.03928312659263611, 0.03002309799194336, 0.05186336487531662, -0.05162426829338074, 0.05049959570169449, 0.07167606800794601, 0.05683683604001999, -0.034988515079021454, 0.010568961501121521, -0.003807865083217621, -0.06906132400035858, -0.027656320482492447, 0.020200073719024658, -0.04241950809955597, -0.060237932950258255, -0.07610651850700378, 0.029792949557304382, -0.044391416013240814, 0.02023261785507202, -0.03260675072669983, -0.050065524876117706, -0.010157808661460876, -0.0614800900220871, -0.008731335401535034, -0.0021437257528305054, 0.048406489193439484, -0.01688419282436371, 0.0685882493853569, -0.07565786689519882, -0.035522621124982834, -0.0718858391046524], [-0.0699625089764595, -0.030349217355251312, 0.07908009737730026, 0.05020640045404434, -0.0014692693948745728, 0.017047271132469177, 0.0012880489230155945, 0.06074673682451248, 0.04960962384939194, -0.013267777860164642, -0.01122700423002243, 0.02923399955034256, -0.08096186071634293, -0.046297281980514526, 0.05082031339406967, 0.03527487814426422, 0.0015453249216079712, -0.04798509180545807, 0.049581460654735565, 0.07783157378435135, 0.06592022627592087, 0.02198861539363861, -0.008182421326637268, 0.07232784479856491, -0.008997663855552673, 0.07007754594087601, 0.061611004173755646, 0.0013160482048988342, -0.06093813478946686, 0.0375562384724617, -0.039345260709524155, -0.009840331971645355, 0.0013708174228668213, -0.03436632454395294, 0.018609903752803802, 0.05887175351381302, 0.043850868940353394, -0.05801331251859665, 0.012284845113754272, -0.06899543851613998, 0.06163185089826584, 0.06892155855894089, 0.04596441239118576, -0.07878949493169785, -0.03393794223666191, -0.07076054066419601, -0.033302389085292816, 0.03481268882751465, -0.010638773441314697, -0.04185144603252411, 0.020773008465766907, -0.028137553483247757, 0.001829303801059723, -0.07233305275440216, 0.07308422774076462, 0.055792875587940216, 0.04330222308635712, -0.045833006501197815, -0.05197359621524811, -0.03203296661376953, 0.031241200864315033, 0.03792770206928253, -0.04202987998723984, 0.03381048142910004, 0.017018556594848633, -0.021893605589866638, -0.0791180282831192, -0.0041910335421562195, -0.01800265908241272, -0.02787712588906288, -0.07406686991453171, 0.029977843165397644, 0.026352010667324066, 0.03550523519515991, -0.02010844647884369, -0.06664861738681793, -0.020676221698522568, 0.019737713038921356, -0.03568689897656441, -0.047011155635118484, -0.024766385555267334, 0.011599265038967133, 0.022373966872692108, -0.023543838411569595, 0.039073869585990906, 0.006390705704689026, 0.0567728653550148, 0.04835037142038345, 0.050821222364902496, 0.020829573273658752, 0.06641658395528793, 0.04650963097810745, 0.07395856827497482, 0.005654148757457733, 0.018828384578227997, 0.03023870289325714, -0.0782502070069313, 0.03534340858459473, 0.00592871755361557, 0.057055674493312836, 0.061168767511844635, -0.08055391907691956, -0.058491647243499756, 0.06686075776815414, 0.014671564102172852, 0.013507843017578125, -0.07359259575605392, 0.047033749520778656, 0.0141197070479393, 0.02702964097261429, 0.042313821613788605, 0.04882542043924332, 0.04124990850687027, 0.04142250120639801, -0.06570900976657867, -0.05484999343752861, -0.022329412400722504, 0.04427962750196457, 0.007865063846111298, 0.006104946136474609, 0.015538707375526428, -0.034294288605451584, 0.07427344471216202, -0.04391965642571449, 0.05916202813386917, -0.07376781851053238, 0.014420300722122192, -0.0407487191259861], [-0.07212913036346436, 0.009480081498622894, -0.02541719749569893, -0.019285235553979874, 0.04331760108470917, -0.015936128795146942, -0.06533701717853546, 0.07338494807481766, 0.026637576520442963, 0.05193617194890976, 0.022221773862838745, -0.0024941563606262207, -0.054434314370155334, -0.04044178128242493, -0.06680344045162201, -0.05321443825960159, 0.01094081997871399, -0.07366353273391724, -0.008081942796707153, -0.009401969611644745, 0.010282658040523529, -0.06597544997930527, -0.009178809821605682, -0.013496913015842438, 0.05261268466711044, -0.0011117011308670044, 0.04690108448266983, 0.022143587470054626, -0.0059676989912986755, -0.013128697872161865, -0.012725919485092163, 0.0650431290268898, 0.03820215165615082, 0.06056749075651169, 0.026479817926883698, -0.005327045917510986, 0.018118247389793396, -0.012977100908756256, -0.0694875419139862, -0.03121572732925415, 0.04859619587659836, 0.008608520030975342, -0.00506804883480072, -0.02337857335805893, -0.017268404364585876, 0.014010637998580933, -0.023625176399946213, 0.045494548976421356, -0.0427083820104599, 0.04467754811048508, -0.022509008646011353, -0.07150936126708984, -0.0289267897605896, 0.05431770533323288, 0.07542743533849716, 0.053718797862529755, -0.07042968273162842, 0.004729703068733215, 0.066811703145504, -0.058318957686424255, 0.020170271396636963, -0.020973894745111465, -0.012787200510501862, 0.07714921981096268, 0.01774592697620392, 0.039587028324604034, -0.06267198920249939, 0.011525861918926239, 0.057367824018001556, -0.015277296304702759, 0.02317988872528076, -0.05772677809000015, -0.02197384089231491, -0.04470384493470192, -0.0422208271920681, 0.01510920375585556, 0.002214759588241577, 0.07844328135251999, 0.06561612337827682, -0.0717199295759201, -0.05521411448717117, -0.033631276339292526, -0.04168074578046799, -0.06777852028608322, 0.05429632216691971, -0.049249254167079926, 0.0016952306032180786, 0.0024146586656570435, -0.03223220631480217, -0.04186823219060898, -0.005997598171234131, -0.04989265650510788, 0.008453406393527985, 0.0803816094994545, 0.07408864051103592, -0.03650407865643501, 0.038312964141368866, -0.019102275371551514, -0.016158461570739746, 0.047997526824474335, -0.06670758128166199, 0.06815344840288162, -0.04682457819581032, 0.019077487289905548, -0.053395599126815796, -0.017690151929855347, -0.041233353316783905, 0.004033252596855164, -0.03816728666424751, 0.028342872858047485, -0.03001793473958969, 0.06903285533189774, 0.07516830414533615, -0.06036177650094032, -0.0038905367255210876, -0.0667797103524208, -0.03779491037130356, 0.004708334803581238, 0.07738899439573288, 0.013787433505058289, 0.042529501020908356, -0.01896754652261734, -0.05444914847612381, 0.04198582470417023, 0.0011891350150108337, -0.005387745797634125, 0.07451880723237991, -0.024160072207450867], [0.035100869834423065, 0.022643156349658966, -0.06248077005147934, 0.04617717117071152, -0.07471715658903122, -0.02397177740931511, -0.06445946544408798, -0.01802915334701538, 0.003237292170524597, 0.01552281528711319, 0.0011934861540794373, -0.014233916997909546, 0.07634764164686203, 0.03136320412158966, 0.052471376955509186, -0.020292025059461594, 0.016338855028152466, 0.02105441689491272, 0.028780266642570496, -0.07369253784418106, 0.009849108755588531, -0.06678224354982376, 0.008302107453346252, 0.011984661221504211, -0.025808334350585938, -0.02017897367477417, 0.008061714470386505, -0.029546622186899185, -0.04755094647407532, 0.009684659540653229, 0.03755728155374527, 0.05691906064748764, 0.013246022164821625, -0.0646246150135994, 0.030733510851860046, 0.014836013317108154, -0.04654138907790184, 0.04388686269521713, -0.07587791979312897, -0.00816372036933899, 0.05562148243188858, 0.041181355714797974, 0.056085504591464996, -0.018709920346736908, 0.014301680028438568, 0.03699757158756256, 0.061725325882434845, 0.039184458553791046, 0.021612755954265594, -0.02691349759697914, -0.04114668071269989, 0.012713290750980377, -0.07990363240242004, -0.0126776322722435, 0.06560028344392776, 0.06550038605928421, -0.034552473574876785, -0.0260343998670578, 0.05278582125902176, 0.04205407202243805, -0.038807209581136703, -0.02734505385160446, -0.01643107831478119, 0.044272132217884064, 0.04050476849079132, -0.037233248353004456, 0.06348439306020737, 0.06464318186044693, 0.03678686171770096, -0.019563261419534683, 0.02365630865097046, 0.027690373361110687, 0.006914913654327393, 0.04835743457078934, 0.035220690071582794, -0.03117745742201805, 0.06647519022226334, -0.08108922094106674, -0.023395609110593796, -0.024286042898893356, 0.045750297605991364, 0.01880858838558197, 0.0727635994553566, -0.0282231867313385, 0.06086315959692001, 0.06654173880815506, -0.04576226696372032, -0.04029422998428345, -0.02682647481560707, 0.06556690484285355, -0.013241127133369446, 0.04579692333936691, -0.055915456265211105, -0.05833011120557785, 0.04517970234155655, 0.060268647968769073, -0.02082369476556778, 0.009333305060863495, 0.014423377811908722, -0.05623689666390419, 0.014287248253822327, -0.004265330731868744, 0.013461872935295105, 0.018756911158561707, -0.03514325991272926, 0.06335469335317612, 0.03177390992641449, 0.029706738889217377, -0.04889393225312233, -0.01798214018344879, -0.041704900562763214, -0.010555580258369446, 0.015207290649414062, -0.050433263182640076, 0.016783185303211212, 0.03941580653190613, 0.056889601051807404, -0.03602626547217369, -0.014469921588897705, -0.015927620232105255, -0.03675848990678787, 0.027572043240070343, 0.054635606706142426, 0.0013486146926879883, 0.04317151755094528, 0.028254978358745575, 0.00910787284374237, -0.028933480381965637], [0.004382714629173279, 0.039993926882743835, -0.07438016682863235, 0.02408555895090103, 0.03842849284410477, -0.06482440233230591, 0.016055196523666382, 0.05913429707288742, 0.05993341654539108, 0.06171666830778122, -0.04426956549286842, 0.027775757014751434, 0.04791126400232315, 0.07062619179487228, 0.06645957380533218, 0.02391478419303894, 0.006382472813129425, -0.038618236780166626, 0.06660700589418411, -0.04670344293117523, -0.018822547048330307, -0.038732949644327164, -0.01747414469718933, -0.051161520183086395, -0.007584884762763977, -0.057489652186632156, -0.05070450156927109, 0.07810903340578079, 0.029019981622695923, 0.032727017998695374, 0.029385916888713837, -0.05876128003001213, 0.03508712351322174, 0.0779566690325737, 0.019053392112255096, 0.0543842539191246, -0.04927864670753479, 0.007212042808532715, -0.03758108615875244, 0.06596409529447556, -0.07665707916021347, -0.06607446074485779, -0.04155659303069115, -0.03733833134174347, 0.060817621648311615, 0.05088125914335251, -0.06048683822154999, -0.013916149735450745, 0.0070744529366493225, 0.036021627485752106, -0.05812036991119385, -0.06293638050556183, 0.023777790367603302, 0.0366881787776947, -0.062068864703178406, -0.03226400166749954, -0.037655383348464966, 0.03543281555175781, -0.046199411153793335, 0.018227621912956238, 0.06845275312662125, 0.0034751296043395996, -0.05733753740787506, 0.006278008222579956, -0.05721887946128845, 0.060787640511989594, -0.07716664671897888, -0.03512709215283394, -0.05339544266462326, -0.0657246932387352, -0.04743717983365059, 0.07693804055452347, 0.01604711264371872, -0.05303269624710083, -0.006332129240036011, -0.01200009137392044, -0.07183843851089478, -0.0694025307893753, -0.02587168663740158, 0.04456884413957596, 0.06638335436582565, 0.033192217350006104, 0.0349690243601799, -0.029340669512748718, 0.04157836735248566, 0.015567392110824585, 0.051014743745326996, -0.009323090314865112, -0.051702938973903656, -0.07944013178348541, -0.04330050200223923, -0.07355548441410065, 0.07157174497842789, 0.023386523127555847, -0.03666218742728233, -0.03534141927957535, -0.03299529850482941, -0.01720443367958069, 0.050259850919246674, 0.07671067863702774, -0.07214494794607162, -0.025155935436487198, -0.011116541922092438, 0.04185193032026291, -0.06072908639907837, 0.0009981468319892883, 0.04761486500501633, 0.058684490621089935, -0.009994089603424072, -0.06465569138526917, 0.013233527541160583, -0.047940902411937714, 0.02246072143316269, 0.005880758166313171, 0.02051161229610443, 0.0062394216656684875, 0.018174290657043457, -0.06269132345914841, -0.014195896685123444, -0.0708114355802536, -0.06487413495779037, -0.007810078561306, 0.07468502968549728, 0.07646084576845169, -0.006935968995094299, -0.059383124113082886, -0.0010802969336509705, 0.06899074465036392], [-0.06374350190162659, -0.0626336932182312, 0.06606072932481766, 0.0020362436771392822, 0.03040408343076706, -0.03501344099640846, -0.005757629871368408, 0.006767861545085907, -0.042065367102622986, 0.07706207782030106, 0.08055403083562851, 0.010771006345748901, 0.0362815335392952, 0.012982301414012909, -0.004854843020439148, -0.02837543562054634, -0.03252723440527916, 0.007898323237895966, 0.032153502106666565, 0.02346710115671158, 0.009440533816814423, 0.005674980580806732, 0.0030970871448516846, -0.07499761879444122, -0.062117964029312134, -0.06680930405855179, -0.021081648766994476, 0.04533875733613968, 0.05321883410215378, -0.02578752487897873, -0.06698531657457352, 0.07056049257516861, -0.06458017230033875, -0.062117964029312134, -0.020667944103479385, 0.04670160263776779, 0.007926054298877716, -0.03395308554172516, -0.003560297191143036, 0.017617538571357727, -0.03696639835834503, -0.049147844314575195, -0.002433992922306061, -0.02370564267039299, 0.07891956716775894, 0.0035000592470169067, -0.005795493721961975, -0.008615754544734955, -0.04866838827729225, 0.01463325321674347, 0.007710099220275879, -0.05364295467734337, -0.05297333002090454, -0.00548766553401947, -0.07257942110300064, 0.04057270288467407, 0.08069240301847458, 0.062080852687358856, 0.022634513676166534, -0.07076605409383774, -0.06401774287223816, 0.03925684839487076, 0.03437226265668869, 0.036288127303123474, 0.024392947554588318, -0.017821773886680603, 0.014808692038059235, -0.038741886615753174, -0.07167351990938187, 0.0394897386431694, 0.07833779603242874, -0.029121972620487213, 0.05117536336183548, -0.07001350075006485, -0.022898558527231216, 0.043087296187877655, -0.05023512244224548, -0.0018916130065917969, -0.013720795512199402, -0.07088569551706314, -0.07940510660409927, 0.03400121629238129, -0.03164296969771385, -0.05980464071035385, -0.027911122888326645, -0.014100350439548492, -0.0168316513299942, 0.008956842124462128, -0.06629253923892975, 0.00870116800069809, -0.02971706911921501, -0.0666346400976181, 0.04207669943571091, 0.06034476310014725, -0.02979428693652153, 0.03791859745979309, -0.021491117775440216, -0.021724257618188858, 0.008290834724903107, 0.03167533874511719, 0.04537583142518997, -0.0013747960329055786, 0.028999075293540955, -0.037656061351299286, -0.046307820826768875, 0.02984178066253662, -0.029021006077528, -0.0060912370681762695, 0.03990073502063751, 0.08080527931451797, -0.013853862881660461, -0.005414977669715881, -0.0019253045320510864, -0.02548505738377571, 0.023660100996494293, -0.04583939164876938, 0.04717443138360977, 0.05710618942975998, -0.03694114089012146, -0.07806840538978577, 0.07073136419057846, 0.049264512956142426, 0.014864116907119751, -0.020888689905405045, 0.07658851891756058, 0.02266182005405426, 0.03480406850576401, -0.06124669685959816], [0.008734703063964844, 0.0770280584692955, -0.059592075645923615, -0.01400696486234665, -0.020426854491233826, -0.05775253474712372, 0.06297961622476578, 0.07315755635499954, -0.05658044293522835, 0.02242989093065262, -0.07816071063280106, 0.06605023890733719, 0.05149083584547043, -0.03773996978998184, 0.01681167632341385, 0.07345566898584366, -0.06272564828395844, -0.05669834837317467, 0.07782293111085892, -0.04890561103820801, -0.06700272113084793, -0.00854625552892685, 0.06654319912195206, 0.05397623032331467, 0.04060894250869751, 0.03575591742992401, -0.07450010627508163, -0.022068113088607788, -0.00786948949098587, 0.0577080175280571, -0.026935815811157227, 0.07579215615987778, 0.019525498151779175, 0.018315382301807404, -0.05480822175741196, -0.054637931287288666, -0.04206644743680954, -0.037324659526348114, 0.0689006820321083, -0.016514115035533905, 0.06261610239744186, 0.006200551986694336, 0.034880973398685455, 0.02063392847776413, -0.03158961609005928, -0.020426176488399506, -0.06610946357250214, 0.052465833723545074, -0.04825466498732567, -0.015774615108966827, 0.08084812015295029, -0.07702930271625519, -0.07682126015424728, -0.02190764620900154, -0.04798595979809761, 0.044140078127384186, 0.029341287910938263, -0.03065582737326622, 0.017725467681884766, 0.04167359322309494, -0.05495714768767357, -0.06784142553806305, 0.061558566987514496, -0.052547477185726166, 0.07235778123140335, 0.035562723875045776, 0.03585444390773773, 0.0064996033906936646, 0.06079276651144028, -0.020644426345825195, 0.03184329718351364, 0.0810040608048439, -0.046311669051647186, 0.05047465115785599, -0.04274781420826912, -0.0008374452590942383, -0.02486918866634369, 0.017193511128425598, 0.02104628086090088, -0.0002397969365119934, -0.0228889100253582, -0.019896306097507477, -0.013408832252025604, 0.06156051903963089, -0.044139862060546875, -0.031433090567588806, 0.04303053766489029, -0.022876475006341934, -0.05966610088944435, 0.06830693036317825, 0.061138980090618134, -0.003727048635482788, -0.009755395352840424, -0.02386709675192833, -0.004543706774711609, 0.003240227699279785, -0.042083658277988434, -0.01568473130464554, -0.05494772642850876, -0.032527483999729156, 0.02885083109140396, -0.03651297092437744, -0.004470393061637878, -0.0732998326420784, 0.0758376196026802, -0.06154031306505203, -0.040115658193826675, -0.02846686542034149, -0.03543149679899216, -0.05468287318944931, 0.07996764034032822, 0.07859212905168533, -0.041263483464717865, -0.07610628753900528, 0.014599278569221497, 0.013442941009998322, 0.005821637809276581, -0.06528886407613754, -0.042098648846149445, -0.023257341235876083, -0.05870556831359863, -0.00249461829662323, 0.02252693474292755, -0.041735414415597916, -0.04377726837992668, 0.07586055248975754, 0.05226060003042221, -0.0407375805079937], [0.009379498660564423, -0.01070338487625122, 0.07312484830617905, 0.020521938800811768, -0.07533492147922516, -0.03241824358701706, 0.06653717905282974, -0.055783532559871674, -0.03172830864787102, -0.002157554030418396, 0.014000020921230316, 0.03345533460378647, -0.006570532917976379, -0.0038044825196266174, -0.03258923068642616, 0.036619625985622406, 0.05952172726392746, -0.0430399589240551, -0.015948355197906494, 0.059840358793735504, 0.04649700969457626, 0.02431638538837433, -0.03564108535647392, -0.01429632306098938, -0.07029491662979126, 0.03266099840402603, 0.033307671546936035, 0.06012532860040665, 0.043877191841602325, -0.012810230255126953, 0.06524866074323654, 0.013919472694396973, 0.01747424155473709, 0.04087648540735245, -0.03303064778447151, -0.040209103375673294, 0.06425643712282181, 0.024954333901405334, 0.06260871142148972, -0.07579855620861053, 0.05556740611791611, 0.032577529549598694, 2.8617680072784424e-05, 0.050132282078266144, 0.04362527281045914, -0.08025971055030823, -0.07122783362865448, -0.060919858515262604, 0.007221847772598267, -0.0061388686299324036, -0.04754404351115227, 0.05021340399980545, -0.06432914733886719, -0.03704152628779411, -0.008435152471065521, -0.03011847287416458, 0.057386286556720734, -0.07520808279514313, -0.043655846267938614, -0.05297444760799408, -0.003962762653827667, 0.02779778093099594, -0.03162825480103493, 0.023053884506225586, 0.038607679307460785, 0.033784881234169006, 0.01455853134393692, 0.07994220405817032, 0.034081511199474335, 0.047746531665325165, -0.06523902714252472, 0.057591430842876434, -0.07666850835084915, -0.07901810854673386, 0.020938605070114136, 0.031525567173957825, 0.03735824674367905, 0.020257584750652313, 0.07341080158948898, -0.07067537307739258, 0.010910511016845703, -0.0688815712928772, -0.0028425008058547974, -0.06395550817251205, 0.0697617307305336, -0.07556496560573578, 0.018220528960227966, -0.035189710557460785, -0.003166668117046356, -0.0453055165708065, -0.050407059490680695, 0.08024915307760239, 0.07539867609739304, 0.06445401161909103, -0.07045021653175354, 0.021063409745693207, 0.011760413646697998, -0.06344541907310486, 0.06716301292181015, -0.012535877525806427, 0.001093737781047821, -0.016023598611354828, 0.03728387504816055, 0.0009683817625045776, 0.07146432250738144, -0.054802268743515015, 0.06179400533437729, -0.03156840056180954, 0.07316052168607712, 0.034561797976493835, -0.008857116103172302, 0.07811369746923447, -0.03239099308848381, -0.03325967118144035, -0.03183983266353607, 0.048143841326236725, 0.04370664805173874, -0.06123603880405426, -0.05765354633331299, 0.05027102679014206, 0.057602472603321075, -0.07583117485046387, -0.04888319969177246, -0.04726729169487953, 0.010975606739521027, -0.00902777910232544, 0.06580079346895218, 0.006751134991645813], [-0.04256657510995865, 0.02317335456609726, -0.07383129000663757, -0.060272201895713806, -0.06995494663715363, -0.05344158411026001, 0.014025375247001648, 0.0024133622646331787, 0.05770581215620041, 0.06504128128290176, -0.04230311140418053, -0.006779037415981293, 0.06891030818223953, 0.04788752645254135, 0.027834288775920868, 0.07363928109407425, -0.03516652435064316, -0.005686178803443909, -0.003013104200363159, -0.03451470658183098, -0.05274210125207901, 0.03211074322462082, -0.07641445845365524, 0.026377886533737183, 0.004702821373939514, 0.03428015112876892, -0.07937143743038177, -0.0003741160035133362, -0.02016334980726242, 0.023477666079998016, 0.02370554208755493, -0.07096978276968002, 0.007991358637809753, -0.014072947204113007, 0.03816372901201248, 0.019925877451896667, 0.015384100377559662, -0.0034831538796424866, -0.06257545202970505, -0.0009952038526535034, -0.034590668976306915, 0.060494713485240936, 0.0025098398327827454, -0.05020036920905113, -0.029947541654109955, 0.04295516014099121, 0.04147709161043167, -0.02603495866060257, -0.05738215148448944, -0.05510017275810242, -0.02624458819627762, -0.02857315167784691, 0.07035385817289352, 0.06021631509065628, 0.07111357897520065, 0.0009481385350227356, 0.048425428569316864, 0.02993404120206833, -0.07762321829795837, -0.07237018644809723, 0.06544315069913864, 0.04102253168821335, 0.07396569103002548, 0.040217459201812744, 0.048476241528987885, -0.07081083953380585, -0.04384646192193031, 0.026619456708431244, 0.037875957787036896, 0.014513649046421051, 0.014741197228431702, 0.0008309260010719299, -0.055949315428733826, -0.002076543867588043, -0.030166760087013245, -0.07975199818611145, -0.01864519715309143, -0.05091845989227295, 0.06709151715040207, 0.061093769967556, -0.05937374383211136, 0.03411293774843216, 0.07975908368825912, -0.057040926069021225, 0.017739273607730865, -0.07203803211450577, 0.045173995196819305, 0.058900393545627594, 0.0021240636706352234, 0.06282100826501846, -0.032581862062215805, -0.0619654655456543, -0.008935011923313141, -0.07822445034980774, -0.04891808703541756, -0.014337219297885895, 0.05253186076879501, 0.06149546056985855, 0.05652070790529251, -0.06291702389717102, -0.0407852865755558, 0.036370426416397095, -0.021659784018993378, 0.054469384253025055, 0.02210591733455658, 0.0009098872542381287, -0.03616786003112793, 0.009645573794841766, 0.06966055184602737, -0.027949567884206772, 0.0634327158331871, -0.0755360946059227, 0.002226725220680237, -0.05896052345633507, 0.023776032030582428, -0.06823700666427612, 0.06742853671312332, 0.02189774066209793, 0.023441903293132782, -0.034934598952531815, -0.031227774918079376, -0.041610393673181534, -0.06210485100746155, -0.03972924128174782, 0.061387501657009125, 0.07027938216924667, 0.01261352002620697, -0.051981426775455475], [0.026351027190685272, 0.057565800845623016, 0.05098380893468857, 0.051167987287044525, 0.07571598142385483, 0.029128775000572205, -0.06636347621679306, 0.02269865572452545, 0.07797690480947495, 0.011474691331386566, 0.03975113481283188, 0.03500491380691528, -0.06838467717170715, -0.05741475522518158, -0.0294315405189991, -0.05808453634381294, -0.027547582983970642, -0.049202822148799896, -0.019078336656093597, 0.07135231047868729, 0.06090385466814041, -0.03553315997123718, -0.03887622803449631, 0.01322948932647705, 0.0464412197470665, -0.024858493357896805, -0.013205431401729584, 0.017460688948631287, -0.017676658928394318, -0.03780233487486839, 0.07419384270906448, 0.035887882113456726, -0.07348877191543579, -0.03940528631210327, -0.05535002425312996, 0.0196685791015625, -0.034506797790527344, -0.07745467126369476, -0.011347055435180664, -0.009100407361984253, -0.0029267966747283936, -0.03507896140217781, 0.019882850348949432, -0.03073412925004959, -0.03806581720709801, 0.005638524889945984, 0.06891170889139175, 0.057389192283153534, 0.043847233057022095, 0.06911943107843399, -0.06900810450315475, -0.04948332533240318, -0.06621306389570236, -0.005510449409484863, -0.0076089054346084595, -0.01720215380191803, 0.06311420351266861, -0.05445164442062378, 0.05219604820013046, -0.011188678443431854, -0.05331103131175041, -0.06898895651102066, 0.0024681836366653442, 0.059678830206394196, -0.049728263169527054, -0.0007506757974624634, -0.05072254315018654, 0.01135900616645813, -0.06152923032641411, 0.020641952753067017, 0.06487969309091568, 0.031743936240673065, 0.004725508391857147, -0.04166438803076744, -0.03860669210553169, -0.05393856018781662, 0.031014375388622284, -0.047958847135305405, -0.004337869584560394, 0.0385422557592392, 0.0740613117814064, -0.028594788163900375, 0.011095352470874786, -0.015049509704113007, 0.07947101444005966, 0.06768550723791122, 0.05768287926912308, 0.04971764236688614, 0.052103959023952484, -0.05970315262675285, 0.02008303999900818, 0.0009480565786361694, 0.04259668290615082, -0.06618287414312363, 0.03461431711912155, -0.015149645507335663, 0.05566132813692093, -0.047296471893787384, -0.03432948514819145, 0.07544354349374771, -0.04250933602452278, -0.02378908544778824, 0.03738412261009216, -0.047187674790620804, 0.06133333593606949, -0.07717400789260864, -0.06713451445102692, 0.078752301633358, 0.06911928206682205, -0.023279253393411636, -0.034044940024614334, 0.003915369510650635, -0.061309218406677246, -0.015330709517002106, 0.05387783795595169, -0.05561797320842743, 0.04280319809913635, 0.017077073454856873, 0.01746780425310135, 0.03362191468477249, -0.07002457976341248, 0.07289765030145645, -0.03570861369371414, 0.03228677809238434, -0.07090399414300919, -0.041715189814567566, -0.01789715141057968, 0.05921825021505356], [0.00038371235132217407, 0.029773518443107605, 0.003420695662498474, 0.04179205745458603, -0.060260191559791565, 0.0073935166001319885, -0.049373868852853775, -0.056330032646656036, 0.06598537415266037, -0.04793672636151314, -0.04594168812036514, 0.057847388088703156, 0.05385958403348923, -0.06024891883134842, 0.02975933998823166, 0.05778562277555466, -0.03223564848303795, -0.0033310577273368835, 0.0472135916352272, -0.011818967759609222, 0.01927386224269867, -0.06168345361948013, -0.013871461153030396, -0.009716294705867767, 0.05440286546945572, 0.06532195955514908, 0.019817441701889038, -0.02162161096930504, 0.025852344930171967, 0.07075325399637222, -0.036719098687171936, 0.07086754590272903, 0.05733654648065567, -0.017383098602294922, -0.03819097578525543, 0.03357577323913574, 0.035701461136341095, -0.017325550317764282, -0.06718306988477707, 0.033128269016742706, -0.05829377472400665, 0.029630586504936218, 0.026850104331970215, 0.0027743130922317505, -0.07702761888504028, -0.07951852679252625, -0.001875564455986023, 0.07209564000368118, 0.05061771720647812, 0.06381692737340927, 0.055033259093761444, 0.012250542640686035, 0.01661308854818344, 0.008048191666603088, -0.02801787108182907, -0.07574769854545593, 0.054053060710430145, -0.04300139844417572, -0.043901942670345306, -0.022883590310811996, -0.03945235535502434, -0.052850935608148575, 0.009067460894584656, 0.07787894457578659, -0.03266565501689911, -0.07986323535442352, 0.024681568145751953, -0.0018183588981628418, -0.0552692674100399, 0.04486004263162613, 0.011760607361793518, -0.04131763055920601, 0.018347039818763733, 0.0029142647981643677, -0.027908723801374435, 0.03711488097906113, -0.0334501713514328, 0.01305333524942398, -0.04790197312831879, 0.02521766722202301, -0.02548333629965782, -0.03411879390478134, -0.05836987495422363, 0.04856862872838974, 0.023204080760478973, -0.0700501874089241, -0.03369271382689476, -0.00591336190700531, -0.01844446361064911, -0.020653709769248962, -0.07799576967954636, 0.042607590556144714, 0.03440985828638077, 0.014079615473747253, -0.0634600818157196, 0.07731009274721146, -0.05912575125694275, -0.0020852312445640564, 0.023253917694091797, 0.029603704810142517, 0.07372171431779861, -0.02290675789117813, -0.01726154237985611, 0.028696492314338684, -0.0795074850320816, 0.05207551270723343, -0.07593341916799545, 0.06185776740312576, 0.0014485716819763184, -0.05263300985097885, 0.012340523302555084, -0.03963353484869003, -0.0050465017557144165, -0.07478625327348709, 0.042638786137104034, -0.020681750029325485, -0.0604250505566597, 0.008071266114711761, 0.06064371019601822, -0.05025867372751236, -0.0025929734110832214, 0.06256914883852005, 0.0637318566441536, 0.007284082472324371, 0.009717747569084167, -0.06822401285171509, 0.0578453466296196, -0.006711356341838837], [0.08056854456663132, 0.05136796087026596, 0.031802818179130554, 0.016654007136821747, 0.008772201836109161, -0.07673145085573196, -0.07251247763633728, 0.03779728710651398, -0.05926506221294403, -0.012188620865345001, -0.06151426210999489, 0.06738480180501938, -0.02932138741016388, -0.07800967991352081, -0.07522451877593994, 0.03740895539522171, 0.06046334654092789, 0.02746821939945221, -0.019638102501630783, 0.03137287497520447, -0.0427701510488987, 0.0318775400519371, -0.024386659264564514, -0.07640057802200317, 0.017838090658187866, -0.05416560918092728, 0.038012951612472534, -0.04450380802154541, -0.024686772376298904, 0.0644533559679985, 0.014536157250404358, -0.07811538130044937, -0.002052493393421173, 0.04356497526168823, 0.014122530817985535, -0.07746251672506332, -0.039364732801914215, 0.07533568888902664, 0.03697898983955383, 0.02911388874053955, -0.06273160874843597, 0.028903737664222717, 0.07908419519662857, 0.013703405857086182, -0.024657297879457474, -0.05515410751104355, 0.019894041121006012, -0.07896933704614639, -0.011285170912742615, -0.024078156799077988, -0.02405839040875435, -0.05488954111933708, 0.02762448787689209, 0.06850927323102951, -0.02869768813252449, 0.030551284551620483, 0.05515294522047043, 0.04516734927892685, -0.057047076523303986, 0.0202028751373291, 0.039503566920757294, -0.06260993331670761, 0.010554634034633636, -0.01635301113128662, -0.07143260538578033, -0.04264882206916809, 0.04665837436914444, 0.03696040064096451, -0.03658558800816536, 0.013127125799655914, -0.07298825681209564, -0.07736155390739441, -0.05725517496466637, -0.07755694538354874, 0.03988274931907654, -0.030640780925750732, 0.015480153262615204, -0.008282281458377838, 0.04384808987379074, -0.06314832717180252, 0.05943141132593155, -0.053565409034490585, -0.049177780747413635, -0.004614487290382385, -0.003512144088745117, -0.026217669248580933, 0.05337432771921158, 0.018040448427200317, -0.021723195910453796, 0.032077305018901825, -0.07379274815320969, 0.051925115287303925, -0.005086980760097504, 0.04867535084486008, 0.05930449813604355, -0.05868460237979889, -0.07277284562587738, -0.03955204412341118, 0.047368891537189484, 0.009787149727344513, -0.051114995032548904, -0.037897419184446335, 0.011395245790481567, -0.07714138925075531, -0.028118737041950226, 0.04264727234840393, -0.028909076005220413, 0.04839392751455307, 0.07994464784860611, -0.03581290692090988, 0.023853018879890442, -0.005105331540107727, -0.004275873303413391, 0.0540943518280983, 0.00023631751537322998, -0.06834977120161057, -0.05629083141684532, -0.0637708455324173, -0.010714560747146606, 0.059409208595752716, 0.0342918336391449, -0.030022304505109787, -0.06911330670118332, -0.06129622459411621, 0.059012271463871, -0.015109382569789886, -0.08000349253416061, -0.003026038408279419], [-0.04576924815773964, 0.04854220896959305, -0.052120160311460495, 0.05293693393468857, -0.05731699988245964, -0.052492961287498474, -0.07959698140621185, 0.0378350168466568, 0.06321535259485245, 0.06779300421476364, 0.013270542025566101, -0.02592550590634346, -0.06142134219408035, -0.0066441744565963745, 0.030047811567783356, -0.01215963065624237, 0.0028635412454605103, -0.04952849820256233, 0.040375180542469025, -0.04478289932012558, -0.05766361951828003, -0.001716703176498413, 0.0668245181441307, -0.0546756386756897, -0.033847689628601074, -0.011331334710121155, 0.04787438362836838, 0.025967545807361603, 0.06045395880937576, -0.03733067214488983, 0.023703962564468384, -0.03453249856829643, -0.024277977645397186, 0.06119025498628616, -0.026603855192661285, -0.06415128707885742, -0.05913101136684418, 0.053109414875507355, 0.025635428726673126, -0.05100826546549797, 0.011373475193977356, -0.036509085446596146, 0.04025094956159592, -0.04311636462807655, -0.04385671019554138, -0.012617409229278564, -0.035710182040929794, 0.06199512630701065, -0.04018804430961609, 0.008143901824951172, 0.06765366345643997, -0.06139223650097847, -0.010776057839393616, 0.034741587936878204, 0.07797159999608994, 0.050390638411045074, -0.04091757908463478, 0.05849651247262955, 0.07625103741884232, -0.03326817974448204, -0.06410549581050873, 0.016006603837013245, -0.05620620772242546, 0.03994616121053696, 0.03644581139087677, -0.00737578421831131, 0.03133974224328995, 0.06839171797037125, 0.06105930358171463, -0.001061655580997467, -0.04951995238661766, -0.0774083361029625, 0.03379245847463608, -0.0681982934474945, -0.029206130653619766, 0.03625214099884033, 0.03539986163377762, -0.009749986231327057, 0.053551651537418365, 0.04530615359544754, -0.053009238094091415, -0.04452809691429138, 0.06068488210439682, -0.0018878653645515442, 0.044086940586566925, -0.029465671628713608, 0.009691700339317322, 0.030835188925266266, -0.06446602195501328, -0.016483232378959656, 0.0009664148092269897, -0.02916194498538971, -0.02035023272037506, 0.03410641849040985, -0.035227615386247635, 0.028040841221809387, 0.02930864691734314, 0.06681453436613083, -0.023183293640613556, -0.044262178242206573, -0.007800333201885223, -0.054563358426094055, 0.029603920876979828, 0.014188744127750397, -0.05472744628787041, -0.06261751055717468, -0.05537218600511551, 0.07495174556970596, 0.05226748436689377, -0.023106444627046585, 0.0070374757051467896, 0.04738699644804001, 0.01164865493774414, 0.07404490560293198, 0.05848974734544754, 0.05394422262907028, 0.0715104267001152, -0.040082938969135284, 0.04941634088754654, -0.056855976581573486, 0.05302318185567856, 0.01803126186132431, 0.046555183827877045, -0.06172806769609451, 0.016169466078281403, -0.05488920956850052, -0.044932249933481216, 0.050419531762599945], [0.05407337099313736, -0.03647267073392868, -0.06327986717224121, -0.07926682382822037, 0.071315236389637, 0.014664851129055023, -0.04041532427072525, 0.021170467138290405, 0.03358476608991623, -0.015915341675281525, 0.06827957183122635, -0.04204219952225685, 0.04927242547273636, 0.053069181740283966, -0.05204083397984505, -0.04867643490433693, 0.07714537531137466, 0.005751654505729675, 0.053432829678058624, -0.05721911042928696, 0.011250458657741547, 0.0582149401307106, -0.02154344692826271, 0.01735171675682068, 0.003119036555290222, 0.05932579189538956, -0.014283575117588043, -0.05328987538814545, -0.058656372129917145, -0.0005478188395500183, 0.024452023208141327, 0.07780306786298752, 0.003223523497581482, 0.01447075605392456, -0.054560884833335876, 0.02929385006427765, -0.04630865156650543, 0.0446602925658226, 0.033187441527843475, -0.04061893746256828, -0.011089161038398743, -0.06143774092197418, 0.013506755232810974, 0.044985122978687286, -0.05149327218532562, -0.019792284816503525, -0.024369388818740845, 0.02945370227098465, 0.04864657670259476, -0.07932587713003159, 0.007181048393249512, -0.023938164114952087, -0.021842319518327713, 0.07365786284208298, -0.02108973264694214, 0.0244084894657135, -0.03557048365473747, -0.032048299908638, 0.07067092508077621, -0.006852373480796814, 0.07847600430250168, -0.05217863991856575, -0.011268854141235352, -0.004816509783267975, -0.0331776961684227, 0.04320334643125534, 0.029485955834388733, 0.06756887584924698, 0.026553943753242493, -0.06103181093931198, -0.03749750554561615, -0.05253225937485695, -0.038466352969408035, 0.010217316448688507, 0.0032531246542930603, 0.07661270350217819, -0.01398787647485733, -0.03433557599782944, 0.0016228482127189636, 0.0702626034617424, -0.03516377881169319, 0.009073972702026367, -0.07139058411121368, -0.06116437166929245, 0.07019970566034317, 0.0802028551697731, -0.042577095329761505, 0.03364941477775574, 0.009059764444828033, -0.04654088616371155, -0.0719846561551094, -0.014944151043891907, -0.03736776486039162, -0.0020282939076423645, 0.05966988950967789, -0.06937253475189209, -0.028183888643980026, 0.03938590735197067, -0.04928050562739372, -0.06246887892484665, -0.03357335925102234, 0.021356403827667236, 0.07556159049272537, -0.027510955929756165, -0.06792063266038895, 0.0484481081366539, 0.024653002619743347, 0.0557795986533165, -0.07442021369934082, -0.05206429213285446, 0.05775073915719986, 0.010883674025535583, 0.009585663676261902, 0.04081396758556366, -0.01555265486240387, 0.07777475565671921, -0.07181761413812637, -0.0073427557945251465, -0.02442489191889763, -0.05416332930326462, -0.005899049341678619, -0.024616222828626633, -0.0026356205344200134, 0.028265222907066345, -0.02148597314953804, -0.022999022156000137, 0.06365806609392166, 0.011159747838973999], [-0.08070798963308334, -0.079902783036232, -0.08023040741682053, 0.06328325718641281, 0.0481434091925621, -0.020962949842214584, -0.055982016026973724, 0.06118617206811905, 0.011410698294639587, 0.07303153723478317, 0.07216035574674606, -0.07635162770748138, -0.009811267256736755, 0.071634940803051, 0.017207294702529907, 0.014683514833450317, -0.04313589632511139, -0.017710089683532715, 0.04769066721200943, -0.018817655742168427, 0.04180952161550522, -0.07852275669574738, 0.006509758532047272, 0.044558919966220856, 0.024647824466228485, -0.02947721630334854, -0.0394599549472332, -0.02216923236846924, -0.04639703035354614, -0.08001581579446793, 0.03408483415842056, -0.05998367443680763, -0.025652989745140076, -0.03911526873707771, 0.002091512084007263, -0.010691046714782715, -0.06392599642276764, -0.02668716385960579, -0.013902902603149414, -0.03610646352171898, -4.4345855712890625e-05, -0.028121717274188995, 0.0773676410317421, -0.0017601549625396729, -0.05866555869579315, 0.020574405789375305, 0.016514696180820465, -0.04546453803777695, -0.042158517986536026, -0.010736584663391113, -0.05599377676844597, 0.011838734149932861, -0.06080711632966995, -0.06303989887237549, 0.06752616912126541, 0.03328871726989746, -0.02697872743010521, -0.056853652000427246, -0.011822372674942017, -0.0795656368136406, 0.07066994160413742, -0.07865551859140396, 0.029668204486370087, -0.06848260760307312, -0.004607930779457092, 0.024504467844963074, -0.013380520045757294, -0.053817715495824814, -0.01168455183506012, -0.037820763885974884, -0.011420466005802155, -0.012697197496891022, 0.010719895362854004, 0.076511912047863, -0.03961717709898949, -0.022930040955543518, 0.05346951633691788, 0.06810746341943741, -0.034944791346788406, 0.03944019228219986, -0.06248067319393158, 0.023455053567886353, 0.057029686868190765, 0.041234686970710754, -0.006027244031429291, 0.03901519626379013, -0.03086268901824951, -0.033725105226039886, -0.01776503026485443, 0.017917901277542114, 0.05927879363298416, -0.024568594992160797, -0.07228323817253113, -0.02487081289291382, 0.042269542813301086, -0.0035142898559570312, -0.029948528856039047, 0.005429789423942566, 0.042638301849365234, 0.044723980128765106, 0.012389488518238068, 0.05295870453119278, -0.047657597810029984, 0.057432256639003754, 0.05514109879732132, 0.07411681860685349, -0.001866161823272705, -0.021018411964178085, -0.017423421144485474, 0.06164305657148361, 0.03787703812122345, -0.042800839990377426, -0.07221149653196335, 0.05714351683855057, 0.011959865689277649, 0.07781266421079636, 0.005588151514530182, 0.04474719613790512, 0.008152425289154053, -0.07117681950330734, -0.08102179318666458, 0.051418058574199677, -0.058069512248039246, 0.05826167017221451, 0.06671012192964554, -0.03441053256392479, 0.05886725336313248, -0.039942774921655655], [0.06360959261655807, 0.0523269847035408, -0.05489248037338257, 0.032487183809280396, 0.07972436398267746, -0.018943123519420624, -0.06512127816677094, 0.05547907203435898, -0.012104615569114685, -0.06653599441051483, -0.07575595378875732, 0.040054067969322205, -0.07987174391746521, -0.055671658366918564, 0.020974650979042053, -0.019576720893383026, -0.06405148655176163, 0.05147174745798111, -0.0722275823354721, 0.053917430341243744, -0.035536542534828186, -0.07589023560285568, -0.06961948424577713, -0.05843314900994301, -0.04802260547876358, -0.05090232938528061, 0.05645408481359482, 0.06422808021306992, 0.04620378464460373, -0.04625729098916054, 0.04882638901472092, 0.022801928222179413, -0.06472349166870117, 0.03446394205093384, -0.005060985684394836, 0.008603356778621674, 0.061719365417957306, 0.014364257454872131, 0.07401517778635025, 0.010888390243053436, -0.05641697347164154, 0.04013712704181671, 0.07380402833223343, -0.08109798282384872, 0.005870357155799866, -0.05020081251859665, 0.028453022241592407, -0.049953341484069824, 0.06170403212308884, 0.03783944249153137, 0.0406852662563324, -0.03922633081674576, 0.034255653619766235, -0.03929528966546059, -0.035821784287691116, 0.002061501145362854, -0.04024265334010124, 0.05651485174894333, -0.02546078711748123, -0.028375010937452316, 0.020738080143928528, 0.03797104209661484, -0.0712529718875885, -0.01912401244044304, -0.03785766288638115, -0.0612700954079628, 0.035116806626319885, -0.03509823977947235, 0.07681404799222946, -0.017990633845329285, -0.052669502794742584, 0.07572781294584274, -0.01448444277048111, 0.04471989721059799, -0.05498506873846054, -0.06636804342269897, 0.061080045998096466, 0.05093245953321457, -0.016813725233078003, 0.023490019142627716, -0.038594603538513184, 0.016198843717575073, -0.07194456458091736, -1.580268144607544e-05, 0.03641168028116226, -0.07792959362268448, -0.01184091717004776, 0.03703634440898895, 0.0410817414522171, -0.030442874878644943, 0.0002809092402458191, 0.0005285143852233887, -0.06469624489545822, 0.06337166577577591, -0.05622968450188637, 0.03105398267507553, -0.03336266800761223, 0.022736214101314545, 0.03416857123374939, 0.06451188772916794, -0.014717333018779755, 0.029238328337669373, -0.06832393258810043, 0.052600257098674774, 0.01930493861436844, -0.01017855852842331, 0.07221382111310959, 0.05727911740541458, -0.03675868362188339, -0.027028560638427734, -0.06392433494329453, 0.057212866842746735, -0.026568714529275894, -0.021245483309030533, 0.043224118649959564, -0.04038674384355545, 0.03232516348361969, -0.01959902048110962, -0.06535260379314423, 0.01039884239435196, -0.009669244289398193, -0.08104737848043442, 0.023366428911685944, 0.00801791250705719, -0.02430054545402527, 0.009735830128192902, -0.072755828499794, -0.06123047322034836], [0.019909188151359558, -0.002300448715686798, 0.064841128885746, -0.030581414699554443, -0.019134920090436935, -0.04181940108537674, 0.012670084834098816, -0.07917167991399765, 0.06102641671895981, -0.021914005279541016, 0.0343354195356369, 0.025618933141231537, -0.07542397081851959, -0.07150160521268845, -0.022879935801029205, -0.04627804085612297, -0.04777894541621208, 0.058657653629779816, 0.06233222037553787, 0.05642402917146683, 0.04694349318742752, -0.028198353946208954, 0.029092751443386078, 0.06104478985071182, -0.04566105082631111, 0.008302785456180573, 0.048027001321315765, -0.07265865057706833, -0.05013108253479004, 0.03601837903261185, -0.054808106273412704, 0.08072195202112198, -0.0454368069767952, 0.07752076536417007, -0.000615440309047699, -0.062365032732486725, -0.009515002369880676, -0.03429628163576126, 0.002254784107208252, 0.03116460144519806, 0.050251223146915436, 0.0043435171246528625, -0.0682368129491806, -0.00445440411567688, 0.07335754483938217, 0.03010474145412445, -0.0084381103515625, 0.019912339746952057, -0.04670139402151108, 0.014828473329544067, 0.015759512782096863, -0.018196895718574524, 0.04057260602712631, -0.023848455399274826, 0.0020482540130615234, 0.040077775716781616, 0.07239540666341782, 0.03587073087692261, -0.05806231498718262, 0.020264916121959686, 0.05284406989812851, 0.04647364467382431, 0.07928184419870377, -0.0656171515583992, 0.021674908697605133, 0.0570986345410347, 0.06659922748804092, -0.06371290981769562, -0.07717246562242508, 0.05739680677652359, 0.052902258932590485, 0.03505030274391174, -0.02417362853884697, -0.04981186240911484, 0.07047691196203232, 0.0456460639834404, -0.006600856781005859, -0.07710909098386765, -0.03827910125255585, 0.021528035402297974, 0.06974717229604721, 0.05873522907495499, -0.007288821041584015, -0.0389820858836174, -0.05537908896803856, -0.07422143965959549, -0.06489250808954239, 0.06682758778333664, -0.012753918766975403, 0.06810174137353897, 0.04613601416349411, 0.012131571769714355, -0.07829932868480682, -0.03989843279123306, 0.04307439923286438, -0.06113097816705704, -0.03449900448322296, -0.06243766471743584, 0.03834686428308487, -0.045079879462718964, -0.025171950459480286, 0.036720745265483856, -0.04597936198115349, 0.04672355204820633, -0.07217946648597717, 0.03735805302858353, 0.011965222656726837, 0.00709717720746994, -0.07543524354696274, -0.005353979766368866, -0.013591229915618896, 0.030612237751483917, 0.043437324464321136, -0.01268921047449112, -0.04866856336593628, 0.012553632259368896, -0.04423951357603073, -0.036930546164512634, -0.002357974648475647, 0.07206713408231735, -0.008974418044090271, 0.015135213732719421, -0.06281967461109161, 0.06797441095113754, -0.06583171337842941, -0.01209995150566101, 0.02531754970550537, -0.0765855461359024], [0.060125552117824554, 0.05998364835977554, -0.02728152647614479, -0.07076819986104965, 0.04201779514551163, -0.03298427537083626, 0.06218249350786209, -0.07286201417446136, -0.018609248101711273, -0.07260864228010178, 0.01680302619934082, 0.061295412480831146, 0.018784992396831512, 0.07350961118936539, 0.04393178969621658, -0.007522307336330414, -0.0073448047041893005, 0.011796340346336365, -0.043010834604501724, -0.06727978587150574, 0.009149394929409027, 0.03181105852127075, -0.06323710829019547, 0.06546730548143387, -0.02989983558654785, 0.0377785861492157, -0.06954336911439896, -0.08012762665748596, -0.009959802031517029, -0.07434220612049103, -0.043895602226257324, 0.039481110870838165, -0.030265677720308304, 0.019587084650993347, -0.011598281562328339, 0.029109209775924683, -0.05282813310623169, 0.051369793713092804, 0.07384685426950455, 0.024727709591388702, 0.07492373138666153, -0.05579470843076706, -0.019993115216493607, 0.0109940767288208, 0.03567616641521454, -0.0626731663942337, -0.012925118207931519, 0.06815219670534134, -0.07443568855524063, 0.07672444730997086, -0.023486092686653137, 0.026588305830955505, 0.03389814496040344, -0.03102511167526245, -0.02745671197772026, -0.030596110969781876, 0.04610379785299301, -0.00924345850944519, 0.05583808571100235, 0.027409449219703674, 0.07239023596048355, -0.00835409015417099, -0.07674771547317505, -0.0462922528386116, -0.045565057545900345, -0.037419650703668594, 0.0006825476884841919, 0.01345042884349823, 0.07815969735383987, 0.06938489526510239, -0.06052102893590927, 0.013343140482902527, -0.018376566469669342, -0.004667647182941437, 0.055535636842250824, 0.04100102186203003, -0.03516882658004761, 0.04883613437414169, 0.03770765662193298, 0.012712627649307251, 0.037215009331703186, -0.035137806087732315, -0.05792064219713211, -0.010849133133888245, 0.07500656694173813, 0.056958384811878204, -0.008737623691558838, -0.024669114500284195, 0.02651216834783554, -0.041997313499450684, -0.057745419442653656, -0.040040917694568634, -0.05282088369131088, 0.03229612112045288, 0.018227607011795044, 0.07070981711149216, -0.04917439445853233, 0.030529700219631195, 0.059019096195697784, 0.03923141211271286, 0.012542977929115295, -0.0544065460562706, -0.061094582080841064, 0.016874171793460846, 0.0014980211853981018, 0.02693936973810196, 0.0704973116517067, -0.06676959991455078, -0.05452176183462143, -0.016233570873737335, -0.01103655993938446, 0.05447997897863388, -0.04718152433633804, -0.018028900027275085, 0.016721248626708984, -0.016689009964466095, -0.07818296551704407, 0.04841364175081253, -0.003506690263748169, 0.03734347224235535, 0.0611141100525856, -0.047890447080135345, -0.046475134789943695, -0.028017230331897736, 0.032316386699676514, 0.04348079115152359, 0.0573543980717659, -0.0395963117480278], [-0.07835130393505096, 0.022891193628311157, -0.019438181072473526, -0.029972758144140244, 0.07701577991247177, 0.06505554169416428, 0.006291195750236511, -0.03637371584773064, 0.03670123219490051, 0.011007614433765411, -0.0645129531621933, 0.05151960998773575, 0.06887251883745193, 0.0197867751121521, -0.06560945510864258, -0.061701204627752304, -0.04151184484362602, 0.06943628937005997, -0.02678646519780159, 0.07684650272130966, 0.045321740210056305, 0.048112235963344574, -0.007624626159667969, -0.004912778735160828, -0.060519132763147354, 0.05095406621694565, -0.056582897901535034, -0.046668924391269684, 0.0029222294688224792, 0.05357929319143295, -0.02119893580675125, -0.0673997551202774, 0.05322251468896866, 0.06984835118055344, -0.009465500712394714, 0.009999796748161316, 0.04200282692909241, -0.0063808634877204895, 0.06518573313951492, -0.07699886709451675, 0.03459823131561279, 0.07750285416841507, 0.004947356879711151, 0.03460905700922012, -0.05491974577307701, 0.050230421125888824, -0.008978597819805145, -0.040104251354932785, -0.06843795627355576, 0.06789321452379227, -0.045448098331689835, 0.053737930953502655, 0.012803368270397186, -0.019555795937776566, -0.006265684962272644, -0.07556142657995224, 0.06165958195924759, 0.039503566920757294, -0.005760803818702698, 0.01651924103498459, -0.03657839447259903, 0.04320543259382248, 0.061970748007297516, -0.01772473007440567, 0.06690489500761032, -0.02825048938393593, 0.011051468551158905, 0.07171503454446793, -0.00908081978559494, -0.021093811839818954, 0.06981750577688217, -0.02515961229801178, 0.004462234675884247, -0.06693676114082336, 0.03861340135335922, -0.04879155382514, -0.030617866665124893, -0.009193465113639832, 0.011200666427612305, 0.05432375520467758, 0.044769175350666046, -0.00423654168844223, 0.036898188292980194, 0.036326587200164795, 0.007643774151802063, 0.04626969248056412, 0.03320254385471344, 0.06798522919416428, 0.07461739331483841, -0.0033681318163871765, -0.07540328055620193, 0.071722112596035, 0.06151551753282547, -0.07594393938779831, 0.03310900926589966, 0.011037930846214294, 0.07206530123949051, -0.02017590031027794, 0.062180064618587494, 0.0030223652720451355, -0.018450185656547546, -0.011637210845947266, 0.07981022447347641, 0.03802633285522461, -0.04496564716100693, 0.025353088974952698, 0.0018226131796836853, 0.01756472885608673, -0.042910680174827576, 0.07211145013570786, -0.01315663754940033, 0.01758897304534912, -0.01480787992477417, 0.01956850290298462, 0.0719381794333458, 0.016489557921886444, -0.06131397560238838, -0.045317720621824265, -0.027978576719760895, -0.05379597842693329, 0.014070451259613037, -0.005551159381866455, -0.04470194876194, -0.028128117322921753, 0.022497616708278656, 0.03908943384885788, -0.038965534418821335, -0.03196160867810249], [-0.07356575131416321, 0.0336628183722496, -0.04412348195910454, -0.04017345979809761, 0.021267257630825043, -0.00577942281961441, 0.02355041354894638, -0.07237669825553894, 0.00827675312757492, -0.013496331870555878, 0.04155230522155762, -0.04950566217303276, 0.029464416205883026, -0.06315219402313232, 0.03679964691400528, 0.006261974573135376, 0.0320872887969017, 0.042634278535842896, -0.06856171786785126, -0.020998917520046234, -0.009088791906833649, -0.06340504437685013, -0.04943331703543663, 0.005485519766807556, 0.07243276387453079, 0.07234544306993484, 0.05681491643190384, 0.023060224950313568, -0.04871710389852524, -0.06015712022781372, 0.06583219021558762, 0.011385194957256317, 0.046072669327259064, -0.07081333547830582, 0.01897905021905899, 0.012231163680553436, -0.014775216579437256, -0.019201576709747314, -0.0027963370084762573, 0.014072500169277191, -0.07669287174940109, -0.06802672147750854, -0.0249183289706707, -0.0023638755083084106, -0.04002505913376808, 0.0412779301404953, -0.06701554358005524, -0.05848114565014839, 0.009536698460578918, 0.060919322073459625, -0.06485027074813843, 0.07433638721704483, 0.008882664144039154, -0.07247801125049591, 0.0441511794924736, 0.003490038216114044, -0.025332670658826828, 0.02762586623430252, 0.06450571864843369, -0.0616782121360302, 0.06795348972082138, 0.05453566461801529, -0.06938529759645462, -0.0470772348344326, 0.07047045975923538, 0.05882494896650314, -0.037247829139232635, -0.04303286224603653, -0.055626001209020615, 0.014138847589492798, 0.055009521543979645, 0.02191714197397232, -0.006221964955329895, 0.06412624567747116, 9.406358003616333e-05, -0.028482377529144287, -0.05353808403015137, 0.0651988610625267, -0.07139360159635544, -0.06574647128582001, -0.02451641857624054, 0.03676806390285492, -0.05352441221475601, 0.051302529871463776, -0.03874325752258301, 0.06372899562120438, 