[[[-0.0030818507075309753, 0.07200277596712112, -0.01010546088218689, 0.015774287283420563, 0.03658326715230942, 0.003499358892440796, -0.019250541925430298, -0.023861374706029892, -0.06448845565319061, 0.024615474045276642, -0.026927288621664047, -0.0423961877822876, 0.05085908621549606, -0.003687351942062378, -0.01007552444934845, 0.034689776599407196, 0.0734369084239006, -0.05755934864282608, 0.008337266743183136, -0.05177514627575874, 0.040912993252277374, 0.014870375394821167, 0.0781518891453743, -0.035119764506816864, -0.04048198461532593, 0.0618707612156868, 0.037954121828079224, 0.06109573692083359, 0.051388613879680634, -0.01153179258108139, -0.012295328080654144, 0.06714973598718643, -0.03169804438948631, 0.02543819695711136, -0.05158118158578873, -0.057324036955833435, 0.07701198011636734, 0.06397082656621933, -0.029243532568216324, 0.06827259808778763, 0.05020789057016373, 0.03225129842758179, -0.059634581208229065, 0.06130998581647873, -0.008561179041862488, 0.05426868051290512, 0.02828793227672577, -0.016140460968017578, 0.06838775426149368, 0.003190085291862488, 0.07524580508470535, 0.01978733390569687, -0.0001163780689239502, 0.008274823427200317, -0.04749592766165733, -0.011529743671417236, -0.03333023563027382, -0.06879501789808273, -0.01809554547071457, 0.04469165951013565, 0.06410112231969833, 0.015288203954696655, 0.02361132949590683, -0.057606011629104614, 0.03639209270477295, 0.005788885056972504, 0.000766068696975708, 0.03867190331220627, -0.0653998851776123, 0.004570528864860535, 0.07799718528985977, -0.015215471386909485, 0.0405021533370018, 0.04064655303955078, 0.07509598881006241, -0.07514859735965729, 0.038472481071949005, -0.04075057432055473, 0.07391475886106491, -0.07255229353904724, 0.002147071063518524, 0.03169098496437073, 0.05634120851755142, 0.07590211182832718, -0.055351413786411285, 0.021334029734134674, 0.07253088802099228, -0.015892580151557922, -0.01033829152584076, -0.05835822969675064, 0.060361213982105255, -0.010604269802570343, -0.05143618583679199, -0.027926769107580185, -0.06937464326620102, 0.014257565140724182, -0.0023976564407348633, -0.037712063640356064, 0.02157021313905716, -0.002842441201210022, -0.02628154307603836, 0.009383678436279297, -0.0409928634762764, 0.06635264307260513, -0.031594663858413696, 0.03887392580509186, 0.006824329495429993, 0.026967376470565796, 0.07722552865743637, 0.04682222753763199, -0.03161908686161041, -0.03424840047955513, 0.04216703027486801, 0.0036621540784835815, -0.01353549212217331, -0.04442054033279419, -0.06314057111740112, -0.05902726203203201, -0.029245369136333466, 0.022520221769809723, 0.0233953595161438, -0.0017363056540489197, -0.04288225620985031, 0.02447505295276642, 0.03489214926958084, 0.03229619562625885, -0.0065610408782958984, -0.01745036244392395], [0.05837703496217728, 0.06687907129526138, -0.05807678401470184, 0.036801695823669434, -0.0009582936763763428, 0.030714325606822968, -0.07368636876344681, -0.0710919201374054, -0.019477922469377518, -0.07280732691287994, -0.07117428630590439, -0.013541758060455322, -0.025653474032878876, 0.01013500988483429, 0.005392059683799744, 0.06633829325437546, -0.014071516692638397, 0.037227191030979156, -0.022158849984407425, 0.07339528948068619, 0.02170519530773163, -0.07338596880435944, 0.012766040861606598, -0.07492425292730331, -0.010840103030204773, 0.020022913813591003, 0.08054792135953903, 0.011990673840045929, -0.07331184297800064, -0.0383312962949276, 0.0720977857708931, 0.027081474661827087, 0.07549551874399185, -0.0026881620287895203, -0.00967765599489212, -0.07912230491638184, 0.07593118399381638, -0.04274237900972366, 0.016348347067832947, 0.05636187642812729, -0.0754457637667656, -0.05717867240309715, -0.06927558779716492, 0.03712056577205658, -0.047517064958810806, -0.07372641563415527, -0.009613007307052612, 0.005370341241359711, -0.06730931252241135, 0.04487977176904678, 0.05131807178258896, 0.033549726009368896, -0.0071877166628837585, -0.027789853513240814, 0.054762162268161774, 0.07083491235971451, 0.07741666585206985, 0.03356724977493286, 0.03239956498146057, 0.026453286409378052, 0.060668446123600006, -0.03452335298061371, 0.06050025671720505, -0.03858893737196922, -0.06794745475053787, -0.05119963735342026, -0.04267877712845802, -0.0256870836019516, 0.04308561235666275, 0.010591879487037659, -0.00023008882999420166, 0.046152763068675995, -0.07449505478143692, 0.07649769634008408, -0.06984974443912506, 0.05139068514108658, 0.023567259311676025, -0.06662550568580627, 0.020393207669258118, -0.002662748098373413, 0.028558604419231415, -0.05211025848984718, -0.020187541842460632, 0.04843495041131973, 0.06228100508451462, -0.007079288363456726, 0.032748520374298096, -0.04492209851741791, -0.04499419033527374, -0.004355818033218384, -0.005546629428863525, -0.01915626972913742, 0.045027412474155426, 0.031079858541488647, -0.07523735612630844, -0.03560794144868851, 0.0071988776326179504, 0.054784826934337616, 0.07955601066350937, -0.07749102264642715, -0.03869512677192688, -0.009532272815704346, 0.013113729655742645, 0.037713706493377686, 0.011687837541103363, -0.045678071677684784, -0.013897798955440521, -0.07271359115839005, 0.0700455829501152, 0.043121568858623505, -0.04860354959964752, 0.06247890740633011, 0.023681141436100006, 0.06012577563524246, -0.018454961478710175, 0.016021572053432465, 0.0006717517971992493, 0.05191072076559067, 0.036211736500263214, -0.06142131984233856, 0.007915936410427094, -0.005511090159416199, 0.06990905851125717, 0.04715944081544876, -0.035263776779174805, 0.009565748274326324, 0.038576386868953705, -0.009619221091270447], [0.0013726726174354553, 0.06571222096681595, -0.07662366330623627, 0.033887527883052826, 0.06876339763402939, 0.018524639308452606, -0.05535729229450226, 0.06674971431493759, -0.048046644777059555, -0.059186432510614395, 0.04781495779752731, 0.06392762809991837, -0.06017034500837326, 0.04760631173849106, 0.01380942016839981, -0.07324537634849548, -0.04033626988530159, -0.07722761482000351, 0.028422020375728607, -0.05903451144695282, 0.07476101070642471, 0.013422034680843353, -0.004010125994682312, 0.005523577332496643, -0.03407253697514534, 0.07987608760595322, -0.01010335236787796, -0.037282850593328476, -0.06346077471971512, -0.028277505189180374, -0.026399988681077957, 0.048227883875370026, 0.031149975955486298, 0.027254492044448853, 0.014041908085346222, -0.04932339861989021, 0.015792466700077057, 0.006969444453716278, 0.06185946613550186, 0.02258935570716858, 0.07138901203870773, -0.006795383989810944, -0.052985936403274536, -0.014788620173931122, -0.021751757711172104, -0.07781261950731277, -0.014647483825683594, -0.042179521173238754, 0.03271746635437012, -0.030806567519903183, 0.046292372047901154, 0.006764031946659088, -0.004087537527084351, 0.06964228302240372, -0.04540238156914711, -0.05892515182495117, 0.02397695928812027, -0.006556786596775055, -0.004645407199859619, 0.023044869303703308, 0.015750810503959656, 0.05822303146123886, 0.04993046075105667, -0.012115910649299622, 0.06124495714902878, 0.06434690207242966, -0.02909737452864647, -0.07356550544500351, -0.06080593913793564, 0.05452864617109299, -0.07009470462799072, 0.0404055193066597, 0.023307234048843384, 0.04777749627828598, 0.03553497791290283, 0.025341972708702087, -0.028687573969364166, 0.005318827927112579, 0.009883381426334381, -0.05885789543390274, -0.007942527532577515, -0.01513712853193283, 0.07779086381196976, 0.07809101790189743, 0.062136001884937286, -0.0004266202449798584, -0.07305160909891129, 0.03584203124046326, -0.051783036440610886, -0.033914580941200256, 0.04607837647199631, 0.05562923103570938, 0.029774196445941925, 0.03200424462556839, -0.04073198884725571, -0.007711298763751984, -0.021083135157823563, 0.038516707718372345, -0.0033618658781051636, -0.038630999624729156, 0.04199735075235367, 0.04980700463056564, -0.019648369401693344, -0.040946122258901596, 0.06609072536230087, 0.02762729674577713, 0.04621265083551407, 0.0610470250248909, -0.04088795185089111, 0.04118417948484421, 0.05605872720479965, 0.0770622119307518, -0.007302820682525635, 0.053489260375499725, -0.039795417338609695, -0.0026367753744125366, -0.028352614492177963, -0.022787149995565414, 0.0007808580994606018, -0.05884760618209839, 0.0158134326338768, 0.040223099291324615, 0.05570114403963089, 0.04643786698579788, -0.010579310357570648, -0.0071691349148750305, 0.06636563688516617, 0.06058832257986069], [0.010811872780323029, 0.07478634268045425, -0.03851607069373131, 0.03047756850719452, 0.003640979528427124, -0.010084867477416992, -0.056497037410736084, 0.06425035744905472, 0.043991319835186005, -0.03621514514088631, -0.07659022510051727, 0.005377963185310364, 0.051069505512714386, 0.04078652709722519, 0.017107918858528137, 0.03031916916370392, 0.016768410801887512, 0.013927154242992401, 0.06023671478033066, 0.001324869692325592, 0.06563287228345871, 0.07762714475393295, 0.052093662321567535, -0.013823695480823517, -0.01470329612493515, 0.015966512262821198, 0.07030677050352097, -0.030680116266012192, -0.04911290109157562, 0.0653601661324501, -0.020681384950876236, 0.029867812991142273, 0.004225380718708038, -0.008604191243648529, 0.028224535286426544, -0.035332679748535156, 0.0795159712433815, 0.021841488778591156, 0.031194649636745453, -0.05443914979696274, 0.014861635863780975, -0.023982372134923935, -0.0038967058062553406, -0.019200727343559265, -0.0017542168498039246, -0.037474993616342545, 0.040591537952423096, -0.07278694212436676, 0.05092661827802658, -0.038804832845926285, 0.019752390682697296, -0.06392475962638855, 0.012445241212844849, 0.07209499925374985, 0.034477442502975464, 0.0729924663901329, 0.046486638486385345, -0.05773470550775528, -0.03775770217180252, -0.04822123050689697, 0.005011074244976044, 0.04193197190761566, 0.02772371470928192, 0.029879339039325714, -0.023976318538188934, -0.08035361766815186, 0.010462619364261627, 0.024924904108047485, -0.0017286688089370728, -0.022946439683437347, -0.014850534498691559, 0.036562494933605194, -0.05207196995615959, -0.0008699521422386169, 0.04719536751508713, -0.04374828189611435, 0.03381040692329407, 0.046476446092128754, 0.02028816193342209, 0.009284436702728271, 0.027421750128269196, -0.03145434334874153, 0.07810427993535995, -0.07222199440002441, -0.05090302973985672, -0.06508477032184601, -0.0646832138299942, -0.05367053300142288, 0.07809305936098099, -0.07101443409919739, 0.06220606714487076, -0.08015872538089752, -0.05494505912065506, -0.07882596552371979, -0.010595276951789856, -0.05284358561038971, -0.047778964042663574, -0.017157845199108124, -0.06969039887189865, -0.05250197649002075, 0.07087095826864243, -0.07229700684547424, -0.06756775081157684, 0.05187737196683884, -0.048599641770124435, -0.05843305215239525, 0.03887467831373215, -0.007615037262439728, 0.021386422216892242, -0.039069533348083496, 0.052469365298748016, 0.06311076134443283, -0.0038260817527770996, 0.03560745716094971, -0.057964619249105453, 0.059052787721157074, -0.04624732956290245, 0.057629965245723724, -0.04743831977248192, -0.037755127996206284, 0.008681848645210266, -0.0484410859644413, -0.04323894903063774, 0.0035845115780830383, 0.06814292818307877, -0.06717000156641006, 0.037833333015441895, -0.013628453016281128], [0.06172562390565872, -0.022900648415088654, 0.03552088141441345, -0.06474551558494568, 0.06333131343126297, -0.06372921168804169, -0.04660940170288086, -0.008391059935092926, -0.05591321364045143, 0.0393572673201561, -0.005309581756591797, -0.043346043676137924, -0.04546099901199341, -0.04136620834469795, -0.03243054077029228, -0.052375733852386475, -0.046843454241752625, 0.03410015255212784, -0.049030594527721405, 0.06556694954633713, 0.06930946558713913, -0.024422861635684967, -0.035234130918979645, -0.06946226209402084, 0.04057088494300842, 0.031439706683158875, -0.03949573263525963, 0.07714817672967911, -0.05442899838089943, 0.003035806119441986, 0.017673425376415253, 0.06837471574544907, 0.06919313222169876, -0.07027482241392136, 0.013315834105014801, -0.05771820992231369, -0.026738140732049942, -0.043885815888643265, -0.07022874057292938, -0.07712804526090622, -0.022895485162734985, -0.08089100569486618, -0.07493405789136887, 0.06382717937231064, 0.025394588708877563, 0.006137818098068237, -0.041160933673381805, -0.001992464065551758, 0.04763738065958023, 0.013524025678634644, 0.0692991390824318, 0.051577128469944, 0.01244073361158371, 0.009379446506500244, 0.06343554705381393, 0.01937585324048996, 0.05525965243577957, 0.08058688789606094, 0.034576416015625, -0.06265812367200851, 0.03414733707904816, -0.07380450516939163, 0.047389157116413116, -0.08054115623235703, 0.06577589362859726, -0.007734820246696472, 0.024602726101875305, -0.038302965462207794, -0.011316776275634766, -0.06978616118431091, 0.052972160279750824, 0.039277732372283936, 0.0792960599064827, -0.059222519397735596, 0.01943179965019226, 0.009028509259223938, -0.06584449112415314, -0.005874417722225189, 0.024047233164310455, 0.05659761279821396, -0.011863701045513153, -0.06409262120723724, 0.06844032555818558, -0.003952383995056152, -0.0069595277309417725, 0.024918369948863983, 0.0652485266327858, -0.0354439914226532, 0.05015728622674942, -0.04837605357170105, -0.03837782144546509, 0.06317640095949173, 0.07748381048440933, -0.0003433153033256531, 0.008286058902740479, 0.04766587167978287, 0.035118721425533295, -0.03514217585325241, 0.03997965157032013, 0.06698977202177048, -0.0018397122621536255, -0.07321418821811676, -0.07525712251663208, 0.0008066222071647644, -0.062246426939964294, -0.03926778957247734, 0.08101920038461685, -0.004190027713775635, 0.05380132049322128, 0.05392377823591232, -0.0600639283657074, 0.00738757848739624, 0.04028253257274628, -0.026646167039871216, -0.028193984180688858, 0.041791416704654694, 0.08046744018793106, 0.004142977297306061, 0.0380072221159935, -0.02526995539665222, -0.021713044494390488, 0.007205143570899963, 0.018021918833255768, -0.03243847191333771, -0.021949145942926407, -0.07173184305429459, 0.035413265228271484, -0.07815814018249512], [-0.01873449981212616, 0.035488471388816833, 0.07985886186361313, -0.06131424754858017, -0.02827123925089836, -0.042707495391368866, -0.01622232049703598, 0.07834861427545547, -0.06951739639043808, -0.010304339230060577, 0.017455868422985077, -0.06283709406852722, -0.03842814266681671, 0.03694203495979309, -0.07144014537334442, 0.0192035511136055, -0.02109590172767639, -0.04171667620539665, -0.05650275945663452, -0.04735572636127472, -0.024281710386276245, -0.07825998961925507, 0.02584289014339447, 0.08085029572248459, 0.058498673141002655, -0.028627566993236542, 0.07911505550146103, 0.0741187110543251, 0.018345780670642853, 0.03557869791984558, -0.06460107862949371, -0.07551677525043488, 0.010408103466033936, -0.03519168496131897, -0.07239114493131638, -0.007721222937107086, 0.06211800128221512, -0.04370291531085968, 0.04653096944093704, 0.037555135786533356, -0.06857483088970184, -0.053992319852113724, 0.011815391480922699, -0.07818861305713654, 0.035106055438518524, -0.06335648894309998, 0.07286951690912247, 0.020304575562477112, 0.04240034520626068, 0.032214999198913574, 0.025187790393829346, 0.026220008730888367, -0.007717259228229523, -0.019486449658870697, -0.05998162180185318, -0.07011029124259949, 0.018072277307510376, -0.03520951420068741, 0.0649503543972969, 0.07014500349760056, -0.05170413479208946, 0.0021328404545783997, -0.0405040867626667, 0.045242153108119965, 0.04611455649137497, -0.01657077670097351, 0.04021873325109482, -0.040838081389665604, 0.08064071089029312, 0.043820835649967194, 0.045468784868717194, 0.07192178815603256, 0.06716052442789078, 0.07180101424455643, 0.07222949713468552, -0.027182649821043015, 0.04726984351873398, 0.007164470851421356, 0.012285254895687103, 0.06820321828126907, 0.03487362712621689, 0.06878004223108292, 0.028411924839019775, -0.07157360017299652, -0.0558147057890892, -0.020350486040115356, 0.007775738835334778, -0.03847615793347359, 0.07672233134508133, 0.03380978852510452, 0.021265320479869843, -0.03609292581677437, 0.03737778216600418, -0.016479186713695526, 0.0740634873509407, -0.024243749678134918, 0.05343727022409439, 0.023347362875938416, 0.07700454443693161, 0.023657970130443573, 0.052637599408626556, 0.01235055923461914, 0.03277820348739624, -0.008817628026008606, -0.01917889341711998, 0.041586823761463165, -0.060553379356861115, -0.031181924045085907, -0.02198994904756546, 0.0063272565603256226, 0.03957443684339523, -0.05205143243074417, -0.06311968713998795, -0.027048420161008835, -0.06083003431558609, 0.016532428562641144, 0.023264341056346893, 0.005158975720405579, 0.05399245768785477, -0.03126896545290947, -0.00711001455783844, -0.022373445332050323, 0.07055913656949997, 0.06521274894475937, -0.07427525520324707, 0.006757728755474091, -0.04520093649625778, -0.003899894654750824], [-0.0763791874051094, -0.07730872184038162, -0.055142369121313095, -0.037159547209739685, 0.03815380483865738, 0.01633869856595993, 0.00988095998764038, -0.05710781738162041, 0.017921768128871918, -0.006618611514568329, -0.004623770713806152, -0.043270085006952286, 0.02802063524723053, 0.05731258541345596, 0.05480193346738815, 0.004251584410667419, 0.06766689568758011, 0.05295572429895401, -0.017703130841255188, 0.040825240314006805, -0.06569208949804306, 0.07837262004613876, 0.006712883710861206, 0.006603702902793884, 0.036255620419979095, -0.07106612622737885, 0.07339566200971603, 0.06373093277215958, -0.04426341503858566, 0.04294467717409134, -0.00563792884349823, -0.030912697315216064, -0.011792361736297607, -0.05145791918039322, -0.03368857502937317, -0.026770994067192078, 0.06842217594385147, 0.0419435128569603, 0.013040341436862946, 0.049407847225666046, -0.056246332824230194, -0.05177903175354004, -0.053371988236904144, 0.05308104306459427, 0.025918662548065186, 0.034135229885578156, 0.02684278041124344, -0.07249520719051361, -0.053707271814346313, 0.05832613259553909, -0.04685418680310249, 0.01803511381149292, 0.026075899600982666, 0.023867562413215637, -0.05235806107521057, -0.002225257456302643, 0.04442655295133591, -0.015005536377429962, 0.0048841387033462524, 0.022199422121047974, -0.03371237963438034, 0.00660107284784317, -0.03544401004910469, 0.05001731961965561, 0.030303366482257843, 0.06284806877374649, -0.062190018594264984, 0.028818145394325256, -0.000764794647693634, 0.05803129822015762, 0.03352205455303192, 0.039350152015686035, -0.002201184630393982, 0.057657621800899506, -0.029623840004205704, -0.006097115576267242, -0.06777989119291306, -0.07846244424581528, 0.016539141535758972, -0.050195127725601196, 0.0645032599568367, 0.013105683028697968, -0.06255727261304855, 0.053778328001499176, 0.011396832764148712, -0.013018116354942322, -0.015355266630649567, -0.07364509999752045, 0.04128487408161163, -0.05209797993302345, -0.038248274475336075, -0.03674839809536934, -0.0582098662853241, -0.016118377447128296, 0.07466448098421097, 0.04331980645656586, 0.08043128997087479, -0.03142419457435608, -0.02836938202381134, -0.05438430607318878, 0.010534867644309998, 0.0763552114367485, -0.07612626254558563, 0.07753338664770126, 0.046936310827732086, 0.06577523797750473, 0.017675377428531647, -0.0742708072066307, 0.05730121582746506, 0.0021211206912994385, 0.06180151551961899, 0.046627409756183624, 0.011540539562702179, -0.015352949500083923, 0.008179500699043274, 0.03357741981744766, 0.048390425741672516, -0.05274554342031479, 0.07616335898637772, -0.07179964333772659, -0.05467192828655243, 0.033540479838848114, -0.04372869059443474, -0.018050603568553925, 0.07479331642389297, -0.07639838755130768, 0.023546837270259857, 0.056508876383304596], [0.020031385123729706, -0.05949743092060089, 0.03509100526571274, -0.059206992387771606, -0.04746962711215019, 0.050545983016490936, 0.02106846123933792, -0.06942374259233475, -0.06468624621629715, -0.03747037425637245, 0.053840018808841705, -0.017533011734485626, -0.03510630503296852, 0.0312582328915596, 0.054943837225437164, 0.03695632517337799, -0.06731327623128891, -0.034354645758867264, 0.07996626943349838, -0.006324455142021179, -0.015069618821144104, 0.05370672792196274, 0.027155578136444092, 0.04431591182947159, 0.050322167575359344, 0.04276672750711441, -0.055515870451927185, -0.02048337832093239, -0.03290324658155441, -0.01542101800441742, 0.008391372859477997, -0.07959454506635666, -0.06774376332759857, -0.06288623809814453, -0.003566443920135498, 0.0562191978096962, 0.03425484150648117, 0.02793067693710327, -0.01921927183866501, -0.046441450715065, -0.006563454866409302, 0.01632610708475113, 0.0430125966668129, -0.043275441974401474, -0.019184794276952744, -0.0498766265809536, 0.06851620227098465, 0.054093845188617706, 0.0014964193105697632, -0.07590129971504211, 0.0550377294421196, -0.008772030472755432, -0.07531531155109406, 0.04948771744966507, -0.010312572121620178, -0.0073218271136283875, -0.03918939456343651, 0.07798958569765091, -0.022289711982011795, 0.03450813144445419, -0.033447735011577606, -0.002476617693901062, 0.03449728339910507, 0.0054258257150650024, 0.006466187536716461, -0.002079971134662628, -0.05093427747488022, -0.0045002177357673645, 0.07487858086824417, -0.023098748177289963, -0.06114273518323898, 0.04546055942773819, -0.051191650331020355, -0.0372932143509388, 0.03681687265634537, -0.01226518303155899, 0.03148537874221802, -0.05436808243393898, -0.061496276408433914, 0.056840114295482635, -0.04746636003255844, -0.004589542746543884, -0.016796588897705078, -0.06440738588571548, 0.02723078429698944, 0.07614564150571823, -0.07927877455949783, -0.009506359696388245, -0.0759785920381546, 0.04038088768720627, 0.03266136348247528, -0.008700184524059296, -0.00537552684545517, -0.010876089334487915, -0.007218502461910248, 0.004262588918209076, -0.020999982953071594, 0.028148189187049866, -0.06713909655809402, 0.06429880112409592, -0.02318468689918518, -0.06134682893753052, 0.03654489666223526, -0.00550464540719986, 0.0784808024764061, 0.07101907581090927, -0.07686786353588104, 0.036065950989723206, 0.02778002619743347, 0.03762086480855942, -0.04061855003237724, -0.025395598262548447, 0.014961771667003632, 0.031125672161579132, 0.004479795694351196, 0.039834246039390564, -0.03366629779338837, -0.05225189030170441, 0.07467015832662582, -0.0719042643904686, -0.05793982744216919, -0.07349549978971481, -0.007409892976284027, -0.0023221448063850403, 0.07514297217130661, 0.0517212375998497, 0.029278650879859924, -0.04669797047972679], [0.04996407777070999, 0.07117388397455215, -0.0011268258094787598, 0.027565956115722656, 0.007118739187717438, 0.06170345097780228, -0.016474798321723938, 0.006906695663928986, -0.0012398585677146912, 0.034680336713790894, -0.08101494610309601, -0.02429290860891342, 0.012114651501178741, 0.006174467504024506, -0.05670018494129181, 0.04287862032651901, -0.04092477262020111, 0.010138064622879028, -0.04204264283180237, -0.05710814520716667, -0.050504039973020554, 0.0717364028096199, 0.03719155490398407, 0.0018808022141456604, -0.025369007140398026, -0.07812025398015976, -0.06649689376354218, -0.032564692199230194, -0.012323617935180664, 0.007172919809818268, -0.03709518909454346, 0.028042837977409363, 0.0038093924522399902, -0.06181348115205765, 0.010279141366481781, -0.06805482506752014, -0.036858025938272476, -0.06123320013284683, -0.0806029811501503, -0.06260364502668381, 0.005175821483135223, -0.03260744735598564, 0.0350978747010231, -0.06515995413064957, -0.03589671850204468, -0.011249691247940063, 0.04638998955488205, -0.008296765387058258, -0.024650298058986664, 0.01102454960346222, 0.056257374584674835, -0.03313983231782913, -0.017755888402462006, -0.05071985721588135, -0.02685927227139473, 0.07303770631551743, 0.05292478948831558, -0.05917744338512421, 0.013017050921916962, 0.0216052308678627, -0.07483810186386108, -0.02744930610060692, -0.0744677484035492, -0.04061843454837799, -0.03658740594983101, -0.03709619492292404, -0.025529958307743073, 0.04132890701293945, 0.041963957250118256, -0.05926080793142319, 0.03801792114973068, 0.05945957452058792, -0.031658925116062164, -0.07467257976531982, -0.03876421973109245, -0.032092005014419556, -0.034727293998003006, 0.06868986040353775, -0.05977959930896759, 0.03499068319797516, 0.04465413838624954, 0.04266408085823059, 0.07919924706220627, 0.04809633642435074, 0.06220833212137222, -0.027675602585077286, -0.016932189464569092, -0.07284232974052429, 0.04413723200559616, 0.07037997990846634, -0.08040373772382736, 0.012597799301147461, 0.05886464565992355, 0.010393388569355011, 0.05006188899278641, -0.04323618486523628, 0.001670733094215393, -0.06573660671710968, -0.025196604430675507, -0.018052615225315094, 0.014190524816513062, 0.07226826995611191, -0.02689230442047119, -0.0597996711730957, -0.04022911563515663, 0.006018869578838348, 0.024803921580314636, 0.037438467144966125, 0.014721587300300598, -0.07179389894008636, -0.0003010407090187073, -0.0281539149582386, 0.031855612993240356, -0.006846301257610321, 0.033234186470508575, -0.008347123861312866, 0.06182146817445755, 0.07145976275205612, 0.006194479763507843, 0.06273699551820755, -0.042026594281196594, -0.06820274144411087, 0.05281414836645126, -0.0799110159277916, -0.002418138086795807, -0.07691340893507004, -0.04637637734413147, -0.004043951630592346], [-0.06968343257904053, 0.06068051606416702, 0.017939887940883636, -0.016953617334365845, -0.08100871741771698, -0.05587469041347504, -0.07437117397785187, 0.046514637768268585, 0.014755569398403168, 0.06044173985719681, 0.07662927359342575, 0.05601557344198227, 0.018698006868362427, 0.03421913832426071, 0.03630684316158295, 0.029035024344921112, 0.06022203713655472, 0.0690581277012825, -0.060824520885944366, 0.07156828790903091, 0.014052115380764008, -0.02221079170703888, 0.030316554009914398, -0.01676473766565323, 0.03404699265956879, 0.036884285509586334, 0.05482640117406845, -0.004370510578155518, 0.07126917690038681, -0.032133620232343674, -0.022561918944120407, -0.013916708528995514, -0.02021896466612816, -0.07253912091255188, 0.08084037154912949, 0.02178138494491577, 0.03609640896320343, 0.03761318325996399, -0.0004634261131286621, 0.05476238578557968, -0.06906194239854813, 0.025972262024879456, -0.05575380474328995, 0.05910138040781021, -0.0310392864048481, -0.07252050191164017, -0.037501391023397446, -0.07321789860725403, 0.03080906718969345, 0.046727947890758514, -0.026621896773576736, -0.04526262357831001, 0.03975211828947067, 0.020054340362548828, -0.002562306821346283, -0.02377520129084587, 0.0712621733546257, 0.034836456179618835, 0.0713357999920845, 0.03227018564939499, 0.053806595504283905, 0.042888619005680084, -0.02784757688641548, 0.06784563511610031, -0.07898829132318497, -0.0680747777223587, -0.03168555349111557, -0.062031157314777374, 0.010182037949562073, 0.029924146831035614, -0.059496600180864334, -0.0468742772936821, -0.037660643458366394, -0.06051841378211975, 0.04849734157323837, -0.0025461018085479736, 0.006270363926887512, 0.07044895738363266, -0.05714871734380722, 0.05274542421102524, 0.025667257606983185, 0.04437572509050369, 0.06089452654123306, -0.022632520645856857, -0.012755542993545532, 0.021236874163150787, -0.02372128516435623, 0.01056760549545288, 0.04898902028799057, -0.010135725140571594, -0.05766063928604126, 0.019255243241786957, -0.0329306498169899, 0.053719036281108856, 0.015723079442977905, 0.005032382905483246, 0.03182384371757507, -0.023740004748106003, 0.05673114210367203, 0.05088282376527786, 0.05760110169649124, 0.02880360186100006, 0.04324351251125336, -0.006814084947109222, -0.057363469153642654, -0.01312701404094696, -0.05987849086523056, 0.04676631838083267, 0.03183954209089279, -0.010221146047115326, -0.03457026556134224, -0.03654257953166962, -0.014551661908626556, 0.0642099604010582, 0.011680081486701965, -0.025792688131332397, 0.018203087151050568, -0.011180847883224487, -0.0662260353565216, 0.04213602840900421, 0.00648285448551178, -0.021667230874300003, -0.05365186929702759, 0.027147628366947174, -0.03213655948638916, -0.008355289697647095, 0.0034444034099578857, -0.04082713648676872], [0.02321990579366684, 0.0692855641245842, 0.01478053629398346, -0.07182159274816513, -0.05853564292192459, -0.06595665216445923, 0.06652355939149857, 0.057142533361911774, 0.005484573543071747, -0.08092030137777328, -0.0216965489089489, -0.05729839578270912, 0.05065838247537613, -0.038996435701847076, -0.03721435368061066, 0.07932793349027634, -0.027458105236291885, -0.03358103334903717, 0.013437099754810333, 0.04609077423810959, -0.02427803725004196, 0.038602977991104126, -0.014868035912513733, -0.07763343304395676, 0.001949705183506012, -0.0012236535549163818, 0.025472328066825867, 0.07700029760599136, -0.02621658518910408, -0.05969845503568649, 0.04103852063417435, 0.07312919944524765, 0.03553085774183273, 0.07572450488805771, 0.0572991743683815, 0.011484630405902863, 0.04587719589471817, 0.03214497119188309, 0.07389665395021439, 0.05963442474603653, -0.05926214158535004, -0.013485446572303772, 0.07048925012350082, 0.02511376142501831, 0.018472060561180115, 0.006752602756023407, 0.01848677545785904, 0.027388639748096466, -0.030231233686208725, 0.03399967402219772, 0.01113998144865036, 0.0569785013794899, -0.013401888310909271, 0.05035720020532608, -0.053322501480579376, 0.047164641320705414, -0.03105742484331131, 0.02641592174768448, -0.0015469864010810852, 0.002138584852218628, -0.05790192633867264, -0.05587397515773773, -0.028891343623399734, 0.06882991641759872, 0.06350701302289963, 0.004316292703151703, 0.07170260697603226, -0.05201081931591034, -0.08031608164310455, -0.0037849918007850647, -0.046788476407527924, 0.07463725656270981, 0.036885328590869904, 0.038961783051490784, 0.0618974044919014, -0.04060688987374306, 0.03785449266433716, 0.03869139403104782, 0.02586899697780609, 0.039596445858478546, -0.053902823477983475, 0.027387946844100952, -0.07183389365673065, -0.06901377439498901, 0.06259389966726303, -0.04350587725639343, -0.07288092374801636, 0.030415333807468414, 0.0708545371890068, 0.0019147247076034546, 0.04087613523006439, -0.013591885566711426, 0.03833208978176117, 0.021687805652618408, 0.06022793799638748, 0.05152355879545212, 0.051102735102176666, -0.05756141617894173, -0.026372063905000687, -0.02723650634288788, 0.05494055896997452, 0.031645409762859344, 0.032356590032577515, 0.057865940034389496, 0.05774345248937607, -0.030117545276880264, 0.034779295325279236, -0.011210180819034576, -0.06255263090133667, -0.01906616985797882, 0.026425883173942566, -0.06985939294099808, 0.044524602591991425, -0.01862167939543724, 0.048872627317905426, 0.014261491596698761, 0.01725873351097107, -0.052993111312389374, -0.06828606873750687, 0.06044084578752518, 0.025416016578674316, 0.023973092436790466, -0.07250647991895676, 0.07995010167360306, -0.06664399802684784, 0.06620421260595322, -0.0071351006627082825, -0.015614964067935944], [-0.035269636660814285, 0.005972675979137421, -0.007275938987731934, -0.01961313560605049, -0.039996031671762466, -0.054268259555101395, 0.07197114080190659, -0.05552714318037033, -0.07617168873548508, -0.026853084564208984, -0.047483377158641815, 0.046612344682216644, -0.04064059630036354, -0.05682199448347092, 0.00830705463886261, -0.02683388441801071, -0.013897910714149475, -0.07377095520496368, -0.038792453706264496, -0.023591816425323486, 0.02713184803724289, -0.004996940493583679, 0.007669471204280853, -0.026382431387901306, -0.018053539097309113, 0.005890294909477234, -0.06868381798267365, -0.03658955171704292, 0.07599165290594101, -0.04417821019887924, 0.06240517646074295, -0.07353509962558746, -0.008791305124759674, -0.015261881053447723, 0.04432069510221481, 0.057471223175525665, -0.04796559736132622, -0.06230757758021355, -0.0270400308072567, 0.05821969360113144, -0.041094060987234116, -0.01218985766172409, 0.05422189086675644, -0.0015302598476409912, -0.016891561448574066, -0.02391652762889862, -0.07294484227895737, 0.01702459156513214, -0.049558162689208984, 0.05250590294599533, 0.057401083409786224, 0.03897757828235626, 0.071090929210186, -0.05286211520433426, -0.052566953003406525, 0.005031652748584747, -0.04744083434343338, -0.05818478763103485, 0.023575611412525177, -0.032451387494802475, 0.06868211179971695, -0.05878448486328125, -0.0493464469909668, -0.05974219739437103, 0.07332978397607803, 0.007633313536643982, -0.026867378503084183, -0.011285364627838135, 0.07579988986253738, -0.009768642485141754, -0.05658728629350662, 0.07567579299211502, -0.037186216562986374, 0.0734415277838707, -0.04762071743607521, 0.06623104959726334, 0.04623962193727493, 0.06773748248815536, 0.03339038044214249, -0.060117729008197784, -0.07733279466629028, -0.021666381508111954, -0.02781044691801071, 0.02238137274980545, -0.06796445697546005, -0.010903380811214447, 0.055007077753543854, -0.013001583516597748, 0.0040750652551651, 0.022877424955368042, 0.062040649354457855, 0.059599362313747406, 0.07093965262174606, 0.05500822514295578, -0.010404892265796661, -0.011758267879486084, -0.01679125428199768, 0.0239286869764328, 0.059944771230220795, 0.03131808340549469, -0.0743950754404068, 0.04267069697380066, -0.040823694318532944, 0.05661844462156296, 0.068560890853405, 0.025294475257396698, 0.02432522177696228, 0.07229623943567276, -0.05466471239924431, -0.0003020241856575012, 0.05109772831201553, 0.05027671903371811, -0.053014032542705536, -0.05096518248319626, 0.06285806745290756, 0.02305389940738678, 0.047536514699459076, 0.05124560743570328, -0.041008371859788895, -0.04388473182916641, 0.06308005005121231, 0.014499470591545105, 0.07160835713148117, -0.051664918661117554, 0.001382090151309967, 0.07083328813314438, 0.037969186902046204, -0.014068610966205597], [0.048571936786174774, 0.04426322504878044, -0.0429384708404541, 0.10079459100961685, -0.043160177767276764, -0.07523156702518463, -0.040371719747781754, -0.058422621339559555, -0.07674812525510788, 0.0026677772402763367, -0.005632449872791767, 0.12057776004076004, -0.061334144324064255, -0.012941968627274036, 0.06970533728599548, 0.06594786792993546, 0.015138220973312855, 0.05357694253325462, 0.06056474149227142, -0.0623704269528389, 0.07513190060853958, 0.028098497539758682, 0.0638362243771553, -0.0067817154340445995, 0.033543337136507034, -0.0029830709099769592, 0.011344491504132748, 0.07545194029808044, -0.05794713646173477, -0.06538672000169754, 0.03838961571455002, -0.010857738554477692, -0.07768460363149643, -0.019450251013040543, 0.06354690343141556, -0.05272967368364334, -0.04981337860226631, -0.04324186593294144, 0.014633292332291603, -0.03258996829390526, -0.02818959392607212, -0.010578511282801628, -0.07680977135896683, 0.055243562906980515, 0.03277545049786568, 0.08409447968006134, 0.03641841560602188, -0.07779570668935776, 0.06086220219731331, -0.022409137338399887, -0.06368792802095413, -0.051753558218479156, 0.03944512829184532, 0.010159824974834919, 0.013292469084262848, 0.02545803412795067, 0.05871037766337395, 0.04270993918180466, -0.03934444859623909, 0.00874056201428175, 0.04701879620552063, -0.05138801038265228, -0.00043163204099982977, -0.020482424646615982, 0.04702966287732124, 0.05227046459913254, 0.01126940082758665, 0.013841912150382996, -0.04054088518023491, -0.02002584934234619, 0.026485826820135117, 0.07264676690101624, 0.05252404883503914, -0.020868390798568726, 0.0497133806347847, 0.055193692445755005, -0.07073166966438293, -0.027774054557085037, 0.03639419749379158, 0.07026969641447067, 0.026274865493178368, 0.06568312644958496, 0.032870445400476456, -0.053542349487543106, -0.09591404348611832, -0.02395649626851082, 0.08085548132658005, -0.03595681115984917, -0.01705952174961567, -0.019715944305062294, -0.05565248802304268, 0.07746907323598862, -0.07398142665624619, -0.028583860024809837, 0.07200076431035995, 0.0828002393245697, 0.02312909997999668, -0.07472679018974304, -0.051113568246364594, -0.0062950970605015755, -0.07082682847976685, 0.03778424113988876, 0.00045037269592285156, 0.0931750163435936, 0.07716623693704605, 0.0022677790839225054, -0.038246359676122665, 0.06823509186506271, 0.02000950463116169, 0.1400342583656311, 0.0692916139960289, 0.05711756646633148, -0.0014098800020292401, 0.07498285919427872, 0.014511637389659882, -0.044603537768125534, 0.08003019541501999, 0.04374997690320015, 0.015501260757446289, 0.03005041927099228, 0.00918969139456749, -0.05502750352025032, -0.006694583687931299, -0.002084948355332017, 0.08040059357881546, 0.007228274364024401, 0.037008024752140045, -0.024825118482112885], [-0.021054405719041824, 0.0207460168749094, 0.061959780752658844, 0.021206313744187355, 0.05276257172226906, 0.06914227455854416, 0.046552423387765884, 0.014280722476541996, 0.05601229518651962, -0.01795317232608795, -0.05307257920503616, 0.13719183206558228, 0.06101460009813309, -0.02755512297153473, -0.021874748170375824, -0.05430641770362854, -0.00056341482559219, 0.02172066643834114, 0.019287018105387688, 0.03215145319700241, 0.030965210869908333, 0.0075650522485375404, 0.03252953663468361, -0.05135301873087883, -0.07541435956954956, -0.012795090675354004, 0.032267384231090546, -0.041436661034822464, -0.002255387604236603, -0.055489085614681244, -0.021969720721244812, 0.06516971439123154, -0.0374763123691082, 0.008171245455741882, -0.04979768767952919, 0.018984442576766014, -0.002534061437472701, 0.0474281832575798, -0.0011229956289753318, -0.020048711448907852, 0.08532404899597168, -0.09243147820234299, -0.005719013512134552, -0.015035739168524742, 0.09424740821123123, 0.03980778530240059, -0.06671679764986038, -0.05761725828051567, -0.039120152592659, -0.022874942049384117, -0.051209814846515656, -0.05918978154659271, -0.001832871581427753, 0.010523989796638489, -0.03101608157157898, 0.11225936561822891, -0.06660649925470352, 0.10306297987699509, 0.024115653708577156, -0.05483892187476158, 0.026715848594903946, 0.004719534423202276, 0.03738898038864136, -0.09111850708723068, -0.019041555002331734, -0.07167834788560867, 0.07159249484539032, -0.04958871752023697, 0.04401540011167526, 0.026656750589609146, -0.03538981452584267, 0.04853575676679611, 0.03786950558423996, 0.07232791930437088, -7.952004671096802e-05, -0.06011947989463806, -0.02618645504117012, 0.045840002596378326, 0.029462315142154694, 0.07455756515264511, -0.0722951889038086, -0.016689687967300415, -0.02786211110651493, 0.036452628672122955, -0.056963350623846054, 0.0636710450053215, 0.06198427081108093, -0.016899101436138153, -0.0800757184624672, 0.029690073803067207, 0.0884830504655838, -0.038315728306770325, 0.03587045520544052, -0.07940366864204407, 0.07201005518436432, 0.07257643342018127, 0.01854492723941803, 0.08081688731908798, -0.04944489896297455, -0.02307426743209362, -0.059180960059165955, -0.04444839805364609, 0.04521498829126358, 0.04692932963371277, -0.059823572635650635, 0.00644153356552124, -0.004239015281200409, 0.034386470913887024, 0.0949726551771164, 0.0736229345202446, 0.008409117348492146, 0.0018087883945554495, 0.05263623222708702, 0.013471459038555622, 0.03838495910167694, 0.049780409783124924, -0.03871672600507736, 0.05476480349898338, 0.05650037154555321, -0.018044471740722656, -0.04773406684398651, -0.05141349881887436, -0.03119601309299469, -0.007696233224123716, 0.03370094299316406, -0.01287294551730156, -0.019848257303237915, 0.04283443093299866], [-0.05001772940158844, 0.12121952325105667, 0.05460377782583237, 0.025153405964374542, -0.05825801193714142, 0.014159264042973518, -0.0016747313784435391, 0.016861094161868095, 0.0009879544377326965, -0.032424721866846085, 0.0620926097035408, 0.010251038707792759, 0.015137188136577606, 0.025906279683113098, 0.08788732439279556, -0.05349637567996979, -0.03359021991491318, -0.00777585431933403, 0.011379774659872055, -0.06665568053722382, -0.0646287128329277, 0.017999492585659027, -0.03284645453095436, 0.039888061583042145, 0.03850073367357254, -0.018001869320869446, 0.025281960144639015, -0.03064027801156044, -0.04440029338002205, 0.053458623588085175, -0.005578964948654175, 0.07057236135005951, 0.05765456706285477, -0.05266592651605606, 0.034695520997047424, 0.024113351479172707, 0.03975684940814972, -0.04051685333251953, -0.056464143097400665, 0.028292380273342133, -0.03605818375945091, 0.09973569959402084, -0.041249290108680725, -0.03185737505555153, -0.031515225768089294, -0.029199974611401558, -0.026367541402578354, 0.02034619450569153, -0.010045219212770462, -0.03915727511048317, -0.027465688064694405, 0.0262752678245306, -0.07376423478126526, -0.03879957273602486, 0.05333889275789261, 0.06231830269098282, -0.013429577462375164, 0.05446033924818039, 0.020835256204009056, -0.0011283308267593384, 0.061756059527397156, 0.012992117553949356, 0.054537899792194366, 0.059667617082595825, 0.07251177728176117, -0.07183118164539337, 0.0018164780922234058, 0.06513769179582596, 0.10362308472394943, 0.03285190463066101, -0.04598485305905342, 0.06734716147184372, -0.021237464621663094, -0.018050551414489746, -0.0594121515750885, 0.07380301505327225, -0.05022595450282097, -0.0002023354172706604, -0.03393834829330444, 0.022060200572013855, 0.0131448432803154, -0.0556534007191658, 0.04380502179265022, 0.04837987944483757, -0.031151410192251205, 0.042860113084316254, -0.09851063042879105, 0.07159062474966049, -0.05639616772532463, 0.005435183644294739, 0.02517065405845642, 0.018174124881625175, -0.02862221747636795, -0.03026380017399788, -0.08425577729940414, -0.07242589443922043, -0.07433407008647919, -0.0005405247211456299, 0.053645841777324677, 0.012103338725864887, -0.00991494208574295, 0.03275879845023155, 0.07464089244604111, 0.056897081434726715, 0.07057897001504898, -0.007644161581993103, -0.026878997683525085, -0.02319512888789177, 0.07656499743461609, 0.055027756839990616, -0.07600222527980804, -0.013972618617117405, -0.011706157587468624, -0.07699956744909286, -0.026102546602487564, -0.06876836717128754, -0.07450530678033829, 0.07563597708940506, 0.03722319379448891, 0.024754956364631653, 0.07859852910041809, -0.011133931577205658, 0.0648229569196701, 0.017466606572270393, -0.014221034944057465, -0.060899768024683, -0.09941481798887253, -0.04933929443359375], [-0.047064606100320816, 0.02024812251329422, 0.07276002317667007, -0.06542537361383438, -0.056685920804739, 0.014192814007401466, 0.002359313191846013, -0.03312097117304802, -0.016810007393360138, 0.028511501848697662, -0.007202665787190199, -0.03493206948041916, -0.04390668123960495, 0.07746582478284836, -0.0032571363262832165, 0.03860123082995415, 0.07093184441328049, -0.0632207989692688, -0.07895930856466293, -0.007756650447845459, -0.027842450886964798, 0.028617940843105316, 0.05062432959675789, -0.04208308458328247, 0.07533977180719376, 0.044256918132305145, 0.04571172595024109, -0.07349375635385513, -0.07737630605697632, 0.01926407963037491, 0.019006088376045227, -0.054158713668584824, 0.044569231569767, 0.008959069848060608, 0.057106100022792816, -0.06818170100450516, -0.042584117501974106, 0.025351986289024353, 0.07048102468252182, -0.012357987463474274, -0.07935145497322083, 0.08441495895385742, 0.03697860240936279, -0.07622196525335312, 0.011836209334433079, 0.012241452932357788, -0.001008354127407074, 0.027850478887557983, 0.060065872967243195, 0.028698980808258057, -0.07511703670024872, -0.0613594651222229, 0.06209540739655495, -0.01939840242266655, 0.0347265750169754, -0.00843629240989685, 0.05206586420536041, 0.005501748062670231, 0.05907250940799713, -0.05124489217996597, -0.005277077201753855, 0.007914816029369831, -0.015524707734584808, 0.002446482190862298, 0.06109469011425972, 0.0057967971079051495, -0.04574650526046753, -0.02799779549241066, -0.00755230663344264, 0.07010089606046677, 0.05236121267080307, -0.05191356688737869, -0.001287261606194079, -0.0791693925857544, 0.042393557727336884, -0.03335854038596153, -0.022190216928720474, -0.07972792536020279, 0.04437226802110672, -0.043247148394584656, -0.07558555901050568, -0.04691173881292343, 0.06886012852191925, -0.04376893490552902, 0.008653908967971802, 0.05399975925683975, 0.06559968739748001, -0.0575142502784729, 0.05057325214147568, 0.053772978484630585, 0.05544549971818924, -0.05379181355237961, 0.025764573365449905, -0.05500837415456772, -0.013166428543627262, -0.0447424054145813, 0.010248828679323196, -0.05635391175746918, -0.016714535653591156, 0.08347625285387039, -0.009061947464942932, 0.04565003141760826, -0.028320398181676865, -0.04741120710968971, 0.03459293395280838, 0.0807722732424736, 0.07894677668809891, -0.0011306926608085632, 0.001126064220443368, -0.0017744495999068022, -0.061660245060920715, 0.06237250566482544, -0.06485162675380707, -0.0002604433102533221, 0.02446857839822769, 0.06635208427906036, 0.005827851593494415, 0.0057470351457595825, -0.0689258724451065, -0.01622673124074936, 0.011232647113502026, 0.027971379458904266, -0.008614644408226013, 0.014912690967321396, -0.0723428800702095, -0.03074457123875618, -0.07917575538158417, -0.04125694930553436], [-0.07216059416532516, 0.05283194035291672, -0.0433439165353775, 0.02429346740245819, -0.06224983185529709, 0.0032028108835220337, 0.006947055459022522, -0.013032987713813782, 0.05026400834321976, -0.06684726476669312, 0.05498553067445755, -0.06504456698894501, -0.0514955148100853, -0.052784912288188934, -0.03664625063538551, -0.06755055487155914, 0.06501603871583939, 0.028265513479709625, -0.008289612829685211, -0.03738447278738022, 0.035657063126564026, -0.02470790594816208, -0.043194353580474854, 0.048002250492572784, -0.00892588496208191, -0.058725252747535706, 0.014978133141994476, 0.018021248281002045, -0.07790382206439972, -0.01494869589805603, 0.05278749018907547, 0.026407361030578613, -0.04898317903280258, 0.06895967572927475, -0.06843429803848267, -0.045470550656318665, -0.04082713648676872, 0.04544273763895035, 0.06157375127077103, -0.058273106813430786, -0.009132705628871918, 0.024069160223007202, -0.012088872492313385, 0.07995563000440598, 0.009303420782089233, 0.045872412621974945, -0.05696394294500351, -0.028398681432008743, 0.07388212531805038, 0.04045700281858444, 0.058517225086688995, 0.04255874454975128, 0.03153347969055176, 0.06905510276556015, -0.07931913435459137, 0.061693377792835236, -0.024150460958480835, 0.07075565308332443, 0.008795678615570068, 0.05250389128923416, 0.05056590586900711, 0.06101783365011215, 0.00859946757555008, -0.009638383984565735, -0.07015324383974075, -0.05695109814405441, -0.0797196477651596, -0.014965236186981201, -0.01986124739050865, 0.005833439528942108, -0.042878154665231705, -0.07586188614368439, -0.04345625266432762, -0.029540549963712692, -0.06513535976409912, 0.02761749178171158, 0.00584036111831665, 0.04850045591592789, -0.007900021970272064, -0.05015043914318085, 0.011881336569786072, 0.06192009896039963, -0.030061639845371246, 0.041541688144207, -0.025644056499004364, 0.07732351869344711, -0.05180200934410095, -0.06115692853927612, 0.019674435257911682, -0.07290761172771454, -0.06861066073179245, 0.038806766271591187, -0.054468199610710144, 0.009354844689369202, 0.056499458849430084, -0.06782284379005432, 0.036356374621391296, -0.017787426710128784, -0.07949098944664001, 0.04171609878540039, 0.07648628205060959, 0.0753513053059578, -0.051577527076005936, -0.06930970400571823, 0.046709053218364716, -0.06223459541797638, -0.02643245831131935, -0.05959136039018631, 0.017020776867866516, -0.03404529020190239, 0.001978576183319092, -0.04382596164941788, -0.0723198875784874, 0.05241330713033676, 0.04616185277700424, -0.028031330555677414, 0.03054174780845642, -0.07031431049108505, -0.049243491142988205, -0.06701947003602982, 0.0325021892786026, 0.0387105792760849, -0.0339336097240448, -0.04938727244734764, 0.07671216875314713, -0.06772071123123169, -0.03466564416885376, -0.02957744523882866], [-0.048437103629112244, -0.04325956478714943, 0.019290030002593994, 0.003384143114089966, -0.003878660500049591, -0.0603521466255188, -0.051959749311208725, 0.0333620086312294, -0.001757986843585968, -0.049633488059043884, 0.029122434556484222, 0.06734206527471542, -0.06653028726577759, -0.02432231977581978, -0.04240163788199425, 0.04377152770757675, -0.04571022838354111, -0.03041309118270874, -0.0586516335606575, -0.04847249388694763, 0.07231196016073227, 0.06095316261053085, 0.015720397233963013, 0.052405498921871185, -0.00809025764465332, 0.022800646722316742, -0.060854263603687286, 0.040576085448265076, -0.058984965085983276, -0.07596641033887863, -0.0032764896750450134, -0.0621318519115448, -0.007787823677062988, 0.03160717338323593, -0.03932834044098854, -0.08058524876832962, -0.04534214362502098, 0.06398724764585495, 0.031776927411556244, 0.06898614019155502, -0.07196676731109619, -0.06943445652723312, -0.06285276263952255, -0.01708301156759262, 0.04644884914159775, 0.06464143842458725, -0.03179347887635231, -0.0485931821167469, 0.0040276870131492615, -0.01845206320285797, 0.00788828730583191, 0.055552802979946136, -0.005101427435874939, 0.06830757111310959, 0.027254469692707062, -0.0777316689491272, 0.060378141701221466, 0.01027652621269226, -0.05963809788227081, -0.016309745609760284, -0.07783431559801102, -0.06993727385997772, 0.05143376439809799, 0.02829243242740631, 0.03270522505044937, 0.0014513209462165833, -0.0015440061688423157, -0.00915585458278656, 0.0231173112988472, 0.05376098304986954, 0.03664536029100418, -0.027967125177383423, 0.07254879921674728, 0.038765691220760345, -0.0785052627325058, 0.028536751866340637, -0.05805197358131409, -0.06653767824172974, -0.07310200482606888, 0.06576202064752579, 0.07997310906648636, 0.01918688416481018, 0.005880177021026611, -0.004766330122947693, 0.07931844145059586, 0.07225210219621658, -0.044114258140325546, 0.04063551127910614, -0.009069643914699554, 0.03376579284667969, -0.043334055691957474, 0.05189811438322067, -0.03254985809326172, -0.05581766366958618, 0.03647717833518982, 0.043670654296875, 0.049013830721378326, 0.017646603286266327, 0.08044018596410751, -0.06083076819777489, -0.011045530438423157, 0.06781172007322311, 0.042477384209632874, -0.07290215790271759, 0.04564627259969711, -0.024379931390285492, 0.06613656133413315, 0.0597829595208168, 0.034448474645614624, 0.021596625447273254, -0.025998137891292572, -0.019931115210056305, 0.03410284221172333, -0.042054399847984314, -0.03788336366415024, 0.06701292842626572, 0.04240652918815613, -0.011919550597667694, 0.01708032190799713, 0.07274656742811203, 0.042845919728279114, -0.04286183416843414, 0.06879117339849472, -0.030962008982896805, 0.022884346544742584, 0.019710369408130646, 0.04300899803638458, -0.0007605403661727905], [-0.007156118750572205, -0.07843368500471115, -0.02967340126633644, 0.06927456706762314, -0.03504645451903343, 0.06731858104467392, 0.052042461931705475, -0.04686698690056801, -0.05263838917016983, 0.0517084077000618, -0.07148303836584091, -0.03355061635375023, 0.07876937836408615, -0.04877883195877075, 0.07603659480810165, -0.0658034011721611, -0.08069822192192078, 0.07114411145448685, 0.05875658243894577, -0.031310275197029114, -0.06948835402727127, 0.013346150517463684, -0.020378295332193375, -0.03875548020005226, 0.02096492052078247, -0.01749340444803238, 0.049014829099178314, 0.06154800206422806, -0.03694779425859451, -0.0687059834599495, -0.035692255944013596, 0.06003666669130325, 0.05761206895112991, -0.07080443948507309, 0.05895104259252548, -0.040937092155218124, -0.02352326363325119, 0.021307632327079773, 0.011974312365055084, 0.02731829136610031, 0.05423381179571152, -0.04202388599514961, 0.0044188424944877625, 0.05669490247964859, 0.0800856426358223, -0.06080123782157898, 0.04159356653690338, -0.0195331908762455, 0.014082379639148712, -0.044728267937898636, 0.059413082897663116, 0.031195156276226044, 0.07986637204885483, -0.0772397592663765, -0.05181770771741867, 0.011508218944072723, 0.031716473400592804, 0.04087658226490021, 0.003898307681083679, 0.02800661325454712, 0.018194764852523804, -0.07370904833078384, 0.05969607084989548, -0.07315845042467117, 0.013249285519123077, -0.032344698905944824, -0.054484132677316666, 0.054783813655376434, 0.06572117656469345, -0.02651907503604889, -0.035844236612319946, -0.038195036351680756, -0.0016570761799812317, -0.05914876237511635, 0.006233200430870056, 0.0641477182507515, 0.07429923862218857, -0.04643738642334938, 0.04646485298871994, 0.0025379955768585205, -0.06360529363155365, 0.052765823900699615, -0.07210716605186462, -0.03494879603385925, -0.023323554545640945, 0.053630419075489044, -0.007590748369693756, -0.03111296519637108, -0.011756159365177155, -0.06004750728607178, -0.007210925221443176, -0.026675734668970108, -0.024593792855739594, 0.006097517907619476, 0.046212323009967804, -0.0187496617436409, 0.011425167322158813, -0.014317534863948822, 0.01521361619234085, 0.07972600311040878, -0.07167202979326248, -0.018576987087726593, 0.00012511759996414185, -0.07836437970399857, 0.029324710369110107, 2.345442771911621e-05, -0.011469446122646332, 0.03924843668937683, -0.02375928685069084, 0.04894270747900009, -0.0634494423866272, -0.001055404543876648, 0.04594465345144272, -0.08069098740816116, -0.03315006196498871, 0.04487214237451553, -0.062116995453834534, -0.05552884563803673, -0.014540217816829681, -0.017311394214630127, 0.06404270976781845, 0.06874298304319382, 0.01355183869600296, -0.07210184633731842, -0.04986017197370529, 0.017864063382148743, 0.003339514136314392, 0.04075227677822113], [-0.04972371831536293, 0.056798867881298065, 0.04537314921617508, -0.042390480637550354, 0.007037997245788574, 0.015013523399829865, 0.006686568260192871, -0.04667937010526657, 0.012691400945186615, 0.0142904594540596, -0.01501443237066269, -0.0579054057598114, -0.05158944055438042, 0.006456397473812103, 0.0625840350985527, -0.0447717048227787, 0.06598693877458572, 0.07274235039949417, -0.04381101578474045, -0.0678476095199585, -0.008275456726551056, -0.0018489956855773926, -0.07642318308353424, -0.017091982066631317, 0.044139035046100616, -0.07844577729701996, -0.052814871072769165, -0.03172063082456589, 0.052271656692028046, 0.04874401539564133, 0.04826217144727707, 0.04820776730775833, -0.03141497075557709, 0.0417046844959259, 0.06305839866399765, 0.04302595555782318, 0.038324370980262756, 0.06366022676229477, -0.05448188632726669, -0.003935500979423523, -0.0711096003651619, -0.034253448247909546, -0.0024401843547821045, -0.047421976923942566, -0.001800239086151123, -0.04124389588832855, 0.034007929265499115, 0.05822377651929855, -0.013070933520793915, 0.06542930752038956, -0.004436686635017395, 0.0660533681511879, -0.018624234944581985, -0.07485745847225189, -0.023958083242177963, 0.008255094289779663, -0.0779312402009964, -0.051586464047431946, -0.008137017488479614, 0.0722372755408287, 0.05675751715898514, 0.042596764862537384, -0.0696970671415329, -0.02232418954372406, 0.00118333101272583, 0.06390867382287979, 0.015005283057689667, 0.041074782609939575, -0.04117700457572937, 0.057459019124507904, 0.04887337237596512, 0.04401662200689316, 0.07477400451898575, -0.07427792251110077, 0.057248540222644806, 0.06694243103265762, 0.04159906506538391, -0.051004163920879364, -0.047056328505277634, 0.07847850769758224, 0.043495260179042816, 0.05034632235765457, -0.0052848681807518005, -0.022128179669380188, 0.023545116186141968, -0.009822405874729156, -0.01432693749666214, -0.0734853446483612, 0.000982716679573059, 0.011837184429168701, 0.03141739219427109, -0.05244506150484085, -0.03437483310699463, -0.07467734068632126, -0.004925236105918884, 0.04919026046991348, -0.027520623058080673, -0.000855080783367157, 0.039264485239982605, 0.08110440522432327, -0.028507884591817856, 0.07982789725065231, -0.04460591450333595, -0.01618826389312744, -0.048443812876939774, 0.052215032279491425, 0.0005639642477035522, 0.03197413682937622, 0.024256303906440735, -0.02839711308479309, -0.07723160088062286, 0.05514814704656601, -0.020231477916240692, -0.05889245122671127, 0.056524522602558136, 0.05747418850660324, 0.02285156399011612, -0.027608148753643036, 0.0784284844994545, -0.0578458234667778, -0.017256006598472595, 0.038141511380672455, -0.055452246218919754, 0.04242292791604996, -0.01185522973537445, 0.05076371878385544, -0.04434964433312416, -0.04848131164908409], [-0.011138804256916046, -0.027195043861865997, 0.028524532914161682, 0.012934207916259766, -0.05298396199941635, 0.07075760513544083, -0.012109123170375824, -0.01476433128118515, -0.07556305080652237, 0.02877780795097351, 0.0549946054816246, 0.045103542506694794, 0.06297218054533005, 0.021557196974754333, 0.035710468888282776, -0.01824232190847397, 0.0005399659276008606, 0.021428324282169342, -0.07031438499689102, 0.05936238914728165, -0.005366593599319458, 0.03355684131383896, -0.004259280860424042, 0.05995804816484451, -0.060515303164720535, -0.058146536350250244, -0.050271131098270416, 0.0632590726017952, 0.05817054957151413, -0.010162025690078735, 0.007868349552154541, 0.07705574482679367, -0.054659124463796616, 0.03584032505750656, -0.005991913378238678, -0.05659071356058121, 0.026585891842842102, 0.0580538734793663, -0.03659635782241821, 0.005622208118438721, 0.011444441974163055, 0.004286646842956543, 0.046946994960308075, 0.04970841854810715, 0.052726469933986664, 0.0716940388083458, -0.07251787185668945, 0.003191225230693817, -0.03320084512233734, -0.047561369836330414, -0.06258374452590942, -0.06467947363853455, -0.040218520909547806, 0.05168228596448898, 0.06648173183202744, 0.06322360783815384, 0.049180276691913605, 0.004275023937225342, -0.010765999555587769, -0.0011147186160087585, 0.03128277510404587, -0.06695251911878586, 0.017001576721668243, 0.0361584797501564, -0.017052456736564636, -0.014176756143569946, 0.053551994264125824, 0.0350547656416893, 0.0003046393394470215, 0.05964098125696182, -0.034896716475486755, 0.031519435346126556, 0.037719741463661194, 0.04983324557542801, 0.03199245035648346, 0.010392323136329651, 0.05710356682538986, -0.03728584572672844, 0.0009634122252464294, -0.06370475143194199, -0.06862681359052658, 0.06426409631967545, -0.008789144456386566, -0.0018963739275932312, 0.0034461840987205505, -0.07920586317777634, 0.019089356064796448, -0.07659432291984558, 0.0069344788789749146, 0.06350819021463394, -0.06208031252026558, 0.03095833957195282, 0.0631389245390892, 0.059488676488399506, -0.002054266631603241, -0.06410802900791168, -0.03254571929574013, -0.08080549538135529, -0.05264803767204285, 0.05117105692625046, -0.024413850158452988, 0.06392187625169754, 0.05953352898359299, 0.028103597462177277, -0.052176106721162796, -0.008518576622009277, -0.0786665603518486, 0.004229828715324402, 0.037773847579956055, -0.011717930436134338, -0.07114767283201218, -0.06789326667785645, -0.06991323083639145, 0.07716261595487595, -0.03035004809498787, 0.03892569988965988, -0.04373814910650253, 0.045462869107723236, 0.06786609441041946, -0.014959551393985748, 0.0016676932573318481, -0.034864071756601334, 0.010596148669719696, -0.05982086434960365, -0.0030952319502830505, -0.03355357423424721, 0.03878860920667648, -0.06692403554916382], [-0.01701459288597107, 0.005248352885246277, 0.06286294013261795, 0.01169230043888092, 0.04689096659421921, 0.031448327004909515, 0.06287544220685959, 0.08063722401857376, 0.011403873562812805, 0.04860007017850876, -0.03998938202857971, 0.026363268494606018, 0.028529733419418335, 0.0498846098780632, -0.027609772980213165, 0.005705997347831726, -0.04547464847564697, -0.04854883998632431, -0.0542166642844677, -0.04468495026230812, 0.02185637503862381, 0.02341734617948532, 0.008788429200649261, -0.011149615049362183, -0.06019877642393112, 0.04102212190628052, -0.029139257967472076, 0.0645756646990776, 0.0060101523995399475, 0.03738609701395035, 0.0649016872048378, -0.027960725128650665, -0.05923116207122803, -0.06237383186817169, -0.05902925133705139, -0.00757676362991333, 0.049846403300762177, 0.015722215175628662, 0.00963890552520752, 0.06583965569734573, 0.021679513156414032, 0.06469850987195969, 0.037904635071754456, -0.01873765140771866, 0.05078309029340744, 0.0551128163933754, 0.0006012693047523499, 0.07734274119138718, -0.02746187523007393, 0.006346769630908966, -0.021004371345043182, 0.03969234228134155, -0.04033806920051575, 0.0022230520844459534, 0.01722874492406845, 0.0684753879904747, 0.027820639312267303, 0.0670418068766594, -0.036802273243665695, -0.029086776077747345, 0.002869807183742523, -0.06820568442344666, 0.026446089148521423, -0.05507019907236099, 0.019217707216739655, 0.025922410190105438, 0.07258398085832596, 0.05725289136171341, -0.05639205127954483, 0.07382645457983017, 0.0027330592274665833, 0.04452966898679733, -0.03409947454929352, 0.013867244124412537, 0.034577153623104095, -0.02844727784395218, 0.036530107259750366, -0.01207558810710907, 0.07032784074544907, 0.052706070244312286, -0.02805306762456894, 0.04349847137928009, 0.046067558228969574, -0.06630430370569229, 0.0027287080883979797, 0.05237212032079697, -0.05548887327313423, -0.016540221869945526, 0.0766497477889061, 0.010452620685100555, 0.05908762663602829, 0.03034307062625885, 0.06085497885942459, -0.0493728443980217, 0.03328361362218857, -0.07422608137130737, 0.06975098699331284, -0.007173001766204834, 0.08048277348279953, 0.043118298053741455, 0.052723295986652374, -0.00768212229013443, 0.077067069709301, -0.029131099581718445, -0.05725954473018646, 0.013553962111473083, 0.014115042984485626, 0.03591327369213104, -0.05391585826873779, 0.008442483842372894, -0.003369949758052826, 0.07662145048379898, -0.07256527245044708, -0.002406403422355652, -0.05118542164564133, -0.00616021454334259, 0.009426355361938477, -0.06562585383653641, -0.0206170454621315, 0.07698213309049606, -0.06525827199220657, -0.04678087681531906, -0.0031798556447029114, 0.01429518312215805, -0.07649976015090942, -0.06808561086654663, -0.012649200856685638, 0.007108837366104126], [-0.06278327852487564, -0.01903519034385681, -0.07337471097707748, -0.07247723639011383, 0.02586037665605545, -0.042376287281513214, 0.07476352900266647, 0.06468655914068222, 0.020237453281879425, 0.05622293800115585, -0.04011032357811928, 0.07150790840387344, -0.028193384408950806, 0.0002613961696624756, 0.06470776349306107, 0.04319635033607483, 0.0476778969168663, 0.022346511483192444, -0.020239155739545822, -0.020836323499679565, 0.006680704653263092, 0.024521619081497192, 0.06626196950674057, 0.02006286382675171, 0.011721327900886536, -0.04067762941122055, -0.0019732415676116943, -0.005365103483200073, 0.023605428636074066, -0.0676308274269104, 0.027180060744285583, -0.014651954174041748, 0.022201254963874817, -0.04137858748435974, 0.053702108561992645, 0.027078785002231598, 0.018992997705936432, -0.02187482640147209, 0.05041254311800003, 0.05728054791688919, 0.04609429091215134, -0.050872549414634705, -0.04619627818465233, -0.049267567694187164, -0.030947178602218628, 0.05463358014822006, 0.004364095628261566, -0.02242366597056389, 0.07875046879053116, -0.07309383898973465, 0.025306157767772675, -0.007852643728256226, 0.07687685638666153, 0.03284198045730591, 0.0755809023976326, 0.0048986077308654785, -0.0665678009390831, 0.01406080275774002, -0.0542694553732872, -0.04713074490427971, 0.03332992643117905, 0.010301589965820312, 0.01303786039352417, 0.04686487466096878, 0.0727299377322197, -0.05871338024735451, -0.021038737148046494, 0.009575478732585907, -0.06243441626429558, -0.04329514503479004, -0.01729743182659149, 0.008093371987342834, 0.0722726359963417, -0.0765172466635704, 0.006585732102394104, -0.03188125789165497, 0.07249600440263748, -0.04582223668694496, 0.07656674832105637, -0.031159590929746628, -0.01682981103658676, -0.030221719294786453, -0.041219934821128845, -0.04041683301329613, 0.035613276064395905, -0.03208032622933388, -0.06625840812921524, 0.06375967711210251, -0.07525450736284256, -0.07676587253808975, -0.007302723824977875, -0.002578817307949066, 0.054177768528461456, 0.06960936635732651, 0.06107116490602493, -0.042546346783638, -0.07504148036241531, 0.040418244898319244, -0.04845085367560387, 0.06545374542474747, -0.05248101055622101, 0.025985009968280792, -0.005601473152637482, 0.04592270404100418, -0.0688888430595398, 0.05790146440267563, 0.004451848566532135, 0.05724722892045975, 0.06184764951467514, 0.016683578491210938, 0.021207652986049652, 0.06834004074335098, 0.05070396512746811, 0.06754187494516373, -0.057749271392822266, 0.03576374799013138, -0.05459221452474594, 0.06550420075654984, -0.0001115649938583374, 0.009466797113418579, -0.0009295567870140076, 0.06097608059644699, -0.030063651502132416, -0.02523712068796158, 0.033203549683094025, -0.03077615052461624, -0.014489375054836273, 0.05753049999475479], [-0.00022593140602111816, 0.03199148178100586, 0.014893606305122375, -0.02590949460864067, 0.008551590144634247, 0.0251787006855011, -0.0610189288854599, 0.06735492497682571, 0.019180282950401306, -0.006454721093177795, 0.04650440067052841, -0.0016391351819038391, -0.06723545491695404, -0.029788080602884293, -0.07517692446708679, -0.009486541152000427, 0.010416746139526367, -0.05773066729307175, -0.06996958702802658, 0.06576890498399734, 0.02343558520078659, -0.0362134613096714, 0.005145035684108734, 0.03959771990776062, 0.03653813153505325, -0.04494520649313927, 0.002985447645187378, -0.060609616339206696, 0.06176453083753586, 0.016698889434337616, -0.06084003299474716, 0.08090313524007797, 0.07070272415876389, 0.07011168450117111, 0.04496590048074722, -0.0694652646780014, -0.03070773184299469, 0.07608648389577866, 0.026732102036476135, -0.07777320593595505, -0.05518166720867157, -0.028860673308372498, 0.04142896085977554, -0.05257797613739967, 0.03986619412899017, 0.015995346009731293, 0.005736321210861206, 0.01203172653913498, 0.005473032593727112, -0.057103000581264496, -0.06608980149030685, -0.035034094005823135, -0.04341442510485649, 0.008120536804199219, -0.034204792231321335, -0.040128305554389954, -0.05521753802895546, -0.02188289165496826, 0.07525176554918289, -0.05548034608364105, 0.017628289759159088, 0.06858695298433304, 0.05741744488477707, 0.028611712157726288, 0.019152440130710602, -0.056159719824790955, 0.060874082148075104, -0.0764162614941597, 0.030945762991905212, -0.030232645571231842, -0.025932196527719498, 0.06485588103532791, -0.0753091424703598, -0.0704415962100029, -0.029924258589744568, -0.07601131498813629, 0.05986102670431137, 0.05971721559762955, -0.0072058215737342834, -0.07272490859031677, 0.034269146621227264, -0.06458870321512222, 0.07516194134950638, -0.013882756233215332, 0.03632067143917084, 0.05205348879098892, -0.07419893145561218, 0.02850601077079773, -0.07969295978546143, -0.012642182409763336, 0.024714484810829163, -0.08035837113857269, 0.0626864954829216, -0.07543806731700897, 0.00893612951040268, -0.06737502664327621, -0.05974457412958145, 0.02405668795108795, 0.056291766464710236, 0.0008864477276802063, 0.07074766606092453, -0.0005209743976593018, -0.07924170047044754, -0.06589935719966888, -0.02484213560819626, 0.07497067004442215, 0.048522837460041046, -0.06614615023136139, -0.04442417621612549, -0.0018054023385047913, -0.026140719652175903, -0.06266668438911438, 0.04223668575286865, 0.0025824755430221558, 0.04768020659685135, 0.024066150188446045, 0.03283426910638809, 0.049400754272937775, 0.07763298600912094, 0.06869525462388992, -0.017914921045303345, 0.01490650326013565, 0.023142315447330475, -0.05439765006303787, -0.0644729807972908, 0.04901330918073654, -0.017688624560832977, 0.060182489454746246], [-0.06779246032238007, -0.03812344744801521, -0.060929663479328156, 0.03019782155752182, 0.07701269537210464, -0.01008867472410202, 0.0523558184504509, -0.07274588942527771, -0.006860606372356415, 0.07368656247854233, -0.06127427518367767, -0.02453560382127762, 0.025886982679367065, 0.042269267141819, 0.026020221412181854, 0.0560409352183342, -0.001717895269393921, -0.04116404801607132, 0.07403730601072311, -0.010893069207668304, 0.047121427953243256, -0.012967415153980255, 0.027398116886615753, -0.019789036363363266, 0.002257339656352997, 0.056389354169368744, -0.02750648930668831, 0.07278657704591751, -0.020299337804317474, -0.068688303232193, -0.007386840879917145, -0.06979010999202728, -0.04195631667971611, -0.0071141719818115234, -0.07288212329149246, 0.01660158485174179, -0.044686537235975266, 0.038911253213882446, -0.030624229460954666, -0.07508888095617294, -0.0703694075345993, -0.006808318197727203, 0.05717458575963974, -0.05243976414203644, 0.038281284272670746, -0.021435517817735672, -0.008756652474403381, 0.016180165112018585, -0.0037903636693954468, -0.07048042863607407, 0.03375276178121567, 0.008888036012649536, -0.05816660821437836, -0.01798587292432785, -0.030697576701641083, 0.03587515652179718, -0.011250384151935577, -0.019048981368541718, 0.0009784623980522156, -0.07562978565692902, 0.006175994873046875, -0.060791607946157455, -0.06440682709217072, -0.01982295513153076, -0.005044244229793549, 0.021082863211631775, -0.01416286826133728, -0.025494549423456192, 0.0002897679805755615, 0.049909062683582306, -0.004141971468925476, -0.058071404695510864, -0.04807998239994049, -0.06995163857936859, -0.055672645568847656, -0.06461755931377411, 0.05889680236577988, -0.041632167994976044, -0.025220178067684174, -0.004422247409820557, 0.0009718239307403564, -0.029680423438549042, -0.013589754700660706, -0.07367724180221558, 0.0528007373213768, 0.046295054256916046, -0.020105354487895966, 0.03542722016572952, 0.016696877777576447, 0.03834881633520126, -0.0684729516506195, 0.021397732198238373, -0.05282975733280182, -0.031726472079753876, -0.03545895963907242, -0.012354545295238495, -0.028613604605197906, 0.016841553151607513, -0.005823224782943726, 0.009690888226032257, -0.035386960953474045, -0.0749911442399025, 0.02813902497291565, 0.05587775260210037, 0.005655638873577118, -0.04882514476776123, -0.06426753103733063, -0.00043602287769317627, -0.06257487088441849, -0.05174631252884865, 0.033384889364242554, -0.06793273985385895, -0.0349024198949337, -0.04001883417367935, 0.07456135004758835, 0.033818602561950684, 0.005756586790084839, 0.02540796995162964, -0.024683639407157898, -0.05269257351756096, 0.05738554149866104, -0.05075433477759361, -0.029710959643125534, 0.0007361546158790588, -0.03212954103946686, 0.04129906743764877, 0.06920183449983597, 0.046844206750392914], [0.04468459635972977, 0.0330752432346344, -0.07973018288612366, 0.029667697846889496, 0.034570999443531036, -0.062289223074913025, -0.003368459641933441, -0.03084050863981247, -0.06082841008901596, -0.06606236100196838, 0.050950728356838226, 0.05720777064561844, 0.011704489588737488, -0.0660993754863739, 0.04447907954454422, -0.028435926884412766, -0.02884848788380623, 0.03532712906599045, 0.0496322438120842, -0.013788461685180664, -0.07379984855651855, 0.008523784577846527, -0.017074503004550934, 0.02047169953584671, 0.005973391234874725, 0.06895414739847183, 0.06294337660074234, 0.019220642745494843, -0.06996527314186096, 0.01029185950756073, -0.035051267594099045, -0.0058565884828567505, 0.011776931583881378, -0.017045781016349792, 0.030931130051612854, 0.0011366456747055054, 0.07693076878786087, -0.05603080987930298, 0.07802972942590714, 0.028388775885105133, -0.005927868187427521, 0.0005137994885444641, 0.007295839488506317, 0.00869753211736679, -0.01333548128604889, 0.07042963057756424, 0.04647121578454971, 0.022776104509830475, -0.022552326321601868, 0.05169600993394852, -0.059865422546863556, 0.01530110090970993, -0.07807786017656326, 0.0037800967693328857, 0.07622586935758591, -0.032101403921842575, 0.018229342997074127, 0.07758056372404099, 0.07950090616941452, -0.07993391156196594, 0.06628613919019699, -0.03720437362790108, -0.016227461397647858, 0.06814005225896835, -0.029943637549877167, -0.07658753544092178, -0.0450449138879776, -0.028906408697366714, 0.05146705359220505, -0.07164250314235687, -0.06540948152542114, -0.029834125190973282, -0.001638457179069519, 0.06377794593572617, 0.05264943093061447, 0.07158602029085159, -0.004807829856872559, 0.05882237106561661, 0.06738097220659256, -0.04209568724036217, -0.07190490514039993, 0.041223205626010895, -0.03867097198963165, -0.0009873583912849426, -0.048266444355249405, -0.017255082726478577, -0.05596242845058441, -0.020774051547050476, -0.07655856758356094, 0.06436712294816971, -0.02926928922533989, 0.07612621039152145, 0.0436597540974617, 0.0710393413901329, 0.03811557590961456, -0.0592636913061142, 0.01705487072467804, 0.04781069606542587, -0.02140863984823227, -0.055074356496334076, -0.0024185478687286377, -0.010332241654396057, -0.014741085469722748, 0.03853631764650345, -0.025693640112876892, -0.07625877112150192, -0.03635198250412941, -0.05799767002463341, 0.06136574596166611, -0.04328493773937225, 0.0031801238656044006, 0.05880250781774521, 0.07404930144548416, -0.06457594037055969, 0.06424734741449356, -0.046399928629398346, 0.052499108016490936, -0.00147324800491333, -0.010931439697742462, 0.033053331077098846, 0.06003851443529129, -0.06178759038448334, -0.038583312183618546, 0.03513047844171524, 0.03968658298254013, -0.0320286899805069, 0.02398550510406494, 0.07229118794202805], [-0.003380700945854187, 0.049107007682323456, 0.05681677907705307, 0.04878828674554825, 0.008227460086345673, 0.05261968821287155, 0.04848248511552811, -0.055340081453323364, 0.017920784652233124, -0.015542499721050262, 0.024415142834186554, 0.0007368698716163635, -0.059047237038612366, 0.037332259118556976, 0.048697881400585175, -0.07046714425086975, -0.05825194716453552, -0.0006516054272651672, -0.048710547387599945, 0.0740533247590065, -0.07530625909566879, 0.0316387340426445, -0.05162105709314346, -0.002325117588043213, 0.06162012368440628, -0.07338441908359528, -0.08010125160217285, 0.0318085253238678, 0.024073243141174316, -0.06014952063560486, 0.07290705293416977, 0.07935748249292374, 0.02337770164012909, 0.07197179645299911, -0.005330681800842285, 0.012126736342906952, -0.044308047741651535, 0.054338954389095306, -0.015371531248092651, -0.06920328736305237, 0.0524931326508522, -0.017122305929660797, 0.020449191331863403, -0.00753677636384964, 0.054443322122097015, -0.06429450958967209, -0.03907156363129616, 0.050886817276477814, 0.06847187131643295, 0.053382404148578644, 0.050032712519168854, 0.040240079164505005, 0.044759176671504974, 0.0040468499064445496, -0.06437327712774277, 0.04249206930398941, -0.009159877896308899, 0.041627466678619385, 0.07344003766775131, -0.08081314712762833, 0.006612710654735565, 0.06010914593935013, 0.01953541487455368, -0.005533754825592041, 0.0720691904425621, 0.04592328518629074, -0.06595369428396225, -0.0018812716007232666, -0.031819529831409454, -0.03282703459262848, -0.028816968202590942, 0.05435710400342941, -0.05049843341112137, 0.07936789840459824, 0.03310178965330124, 0.06371975690126419, -0.0763361006975174, 0.07180535048246384, -0.06005818396806717, -0.011925928294658661, -0.05327656865119934, 0.01835278421640396, 0.04747959226369858, -0.054130975157022476, 0.01311212033033371, -0.0715087428689003, -0.016782261431217194, 0.046684883534908295, 0.03715550899505615, -0.015003524720668793, 0.07640764862298965, -0.021930929273366928, -0.0017259269952774048, 0.06749441474676132, -0.04634804651141167, -0.03657761961221695, 0.07733941823244095, -0.020653612911701202, -0.05290229618549347, -0.011042751371860504, -0.0360247977077961, 0.05388873070478439, 0.036939769983291626, -0.06738831102848053, 0.0725683644413948, -0.018967583775520325, -0.05050792545080185, 0.0027444735169410706, -0.006123669445514679, -0.04026317223906517, -0.024853099137544632, -0.004373028874397278, -0.0055630505084991455, 0.03022746741771698, 0.015509545803070068, 0.04095606505870819, 0.06743427366018295, -0.01731957495212555, -0.06828102469444275, 0.06767085939645767, -0.056808073073625565, 0.05883706361055374, -0.0458451509475708, -0.07591336965560913, -0.026183340698480606, -0.008082926273345947, 0.05245835334062576, 0.0673181340098381], [0.07899238914251328, -0.07992734014987946, 0.005949892103672028, 0.06795983761548996, 0.06011264771223068, -0.0546523779630661, -0.03320790082216263, 0.014300070703029633, 0.062094204127788544, 0.06086549907922745, -0.038857489824295044, -0.045267343521118164, -0.029423531144857407, 0.034298501908779144, -0.043241482228040695, -0.04335451498627663, -0.05305130034685135, -0.018196433782577515, 0.0075948238372802734, 0.007244609296321869, -0.024998486042022705, 0.040900520980358124, -0.060646746307611465, 0.06783128529787064, 0.06851964443922043, -0.0391821414232254, -0.06263487786054611, 0.06724848598241806, -0.008391372859477997, -0.02159964293241501, 0.019263945519924164, 0.05084192007780075, 0.06747075170278549, 0.0682707354426384, -0.027757249772548676, -0.0003311857581138611, 0.010732695460319519, 0.02732440084218979, 0.06176745146512985, 0.07321799546480179, 0.0005711391568183899, 0.04302611202001572, 0.01841605454683304, 0.05435489863157272, -0.01645495742559433, 0.03813174366950989, 0.0005796626210212708, 0.03331255912780762, -0.0565965510904789, -0.04436323791742325, -0.05871438607573509, 0.07979848235845566, 0.022173896431922913, 0.041599661111831665, -0.04984002187848091, 0.0523575022816658, -0.07425102591514587, -0.049139298498630524, 0.056067951023578644, 0.0004248395562171936, -0.01971518248319626, -0.0402761846780777, 0.053895004093647, 0.07334769517183304, -0.043527282774448395, 0.0028466731309890747, 0.07003679126501083, 0.0419035404920578, -0.007018722593784332, -0.04732551798224449, 0.07477139681577682, -0.05818437784910202, -0.06881128251552582, 0.05177340656518936, 0.058761514723300934, 0.029960401356220245, -0.06575567275285721, -0.07470004260540009, -0.005910612642765045, 0.045392729341983795, -0.07234088331460953, -0.0643489882349968, -0.05705997347831726, -0.05479244142770767, 0.07460077852010727, -0.03790546581149101, 0.02945157140493393, 0.01866339147090912, 0.05521964281797409, -0.0013326182961463928, -0.06854493170976639, -0.07075077295303345, 0.0013677999377250671, 0.04311443120241165, 0.06875402480363846, 0.026555605232715607, 0.06687244027853012, 0.0768374428153038, -0.005867339670658112, -0.061979714781045914, -0.04362478852272034, 0.06481119245290756, -0.08072535693645477, -0.010488688945770264, -0.08017262816429138, -0.04809011518955231, 0.06063876301050186, -0.01928933709859848, -0.0047293975949287415, 0.055574171245098114, -0.010517366230487823, 0.05025871843099594, 0.012392230331897736, -0.061182454228401184, 0.04481937736272812, 0.07928792387247086, -0.018177248537540436, -0.008937172591686249, -0.07502739876508713, 0.07302316278219223, 0.07926823943853378, -0.042980510741472244, -0.03885470703244209, 0.0475691482424736, -0.05837865173816681, 0.04200863093137741, 0.0621706023812294, 0.015614651143550873], [-0.0660109594464302, 0.07917562872171402, 0.04575050622224808, 0.0791342630982399, 0.06814996153116226, -0.02456286922097206, 0.01854117214679718, 0.07420336455106735, -0.0774899572134018, -0.02269836887717247, 0.05270097404718399, -0.009742245078086853, -0.08110800385475159, 0.02140478789806366, 0.05477600544691086, 0.030626997351646423, -0.03576541319489479, -0.049927547574043274, -0.03218771144747734, 0.0014007091522216797, -0.0589313805103302, -0.030840642750263214, -0.0646653026342392, 0.03043196350336075, 0.06752169877290726, -0.01158984750509262, 0.07439274340867996, -0.03921739384531975, -0.04091527685523033, 0.012060172855854034, 0.0014657452702522278, -0.060603369027376175, -0.004457458853721619, -0.03363831341266632, -0.07599450647830963, 0.04959442466497421, -0.06626898795366287, -0.07851137220859528, -0.004312597215175629, 0.03169179707765579, -0.029813256114721298, -0.03257244452834129, 0.02179969847202301, -0.009000472724437714, 0.0432862862944603, -0.015826694667339325, 0.017321161925792694, -0.0779561847448349, -0.06651733070611954, -0.025182101875543594, 0.027469143271446228, -0.06825599819421768, -0.057868994772434235, 0.0663265809416771, 0.062688909471035, 0.06790363043546677, -0.0032457783818244934, -0.07303547859191895, -0.03127124905586243, 0.07246028631925583, 0.05585827678442001, -0.015882834792137146, 0.07657318562269211, 0.07661397010087967, 0.042659416794776917, -0.049392394721508026, 0.05188382416963577, -0.00987260788679123, -0.03564338758587837, -0.0780317634344101, -0.05863003060221672, 0.003934554755687714, -0.01788794994354248, -0.05379849299788475, -0.07233866304159164, 0.007682681083679199, 0.0075513944029808044, -0.04312527924776077, -0.031486060470342636, -0.004850797355175018, 0.00868774950504303, 0.07963097840547562, 0.05893855541944504, -0.05646814405918121, 0.02899806946516037, -0.021142136305570602, -0.05501314997673035, -0.028129741549491882, 0.032709553837776184, -0.00417761504650116, 0.033033937215805054, 0.011030703783035278, -0.012359127402305603, 0.054973892867565155, 0.06640250235795975, 0.07414522022008896, -0.030937913805246353, -0.053091347217559814, -0.002879701554775238, 0.023152410984039307, 0.061710603535175323, 0.023661784827709198, -0.031112268567085266, 0.07663377374410629, -0.0030581578612327576, 0.03633403778076172, -0.01019275188446045, 0.022390328347682953, -0.05865151435136795, 0.06950253993272781, -0.07371050119400024, 0.003044523298740387, 0.002669788897037506, -0.030525680631399155, -0.043699201196432114, -0.020586974918842316, -0.05410166084766388, 0.013045214116573334, 0.030607014894485474, 0.013017304241657257, 0.07426048070192337, -0.01810496300458908, -0.05307402461767197, 0.07954094558954239, -0.01866927370429039, 0.06903166323900223, -0.002654358744621277, 0.011641211807727814], [-0.040669411420822144, -0.07076239585876465, -0.05896032974123955, -0.04333863779902458, 0.06903883069753647, 0.021925844252109528, -0.01315675675868988, -0.007017306983470917, 0.08061634749174118, 0.0793624296784401, 0.0127297043800354, -0.08046186715364456, -0.041383594274520874, -0.0562443807721138, -0.012586735188961029, -0.07477745413780212, -0.057805269956588745, 0.013204306364059448, 0.033641450107097626, -0.009129978716373444, -0.02833569422364235, -0.02849024534225464, -9.731203317642212e-05, -0.01927117630839348, -0.01092037558555603, -0.01838507503271103, -0.07757558673620224, 0.07160017639398575, 0.0637098178267479, -0.05549123138189316, 0.07739979773759842, 0.014201834797859192, -0.06482718139886856, -0.03057362139225006, 0.022722750902175903, -0.00467536598443985, 0.010738134384155273, -0.05956188589334488, -0.07822728902101517, 0.03608238697052002, 0.05318402498960495, 0.05464587360620499, 0.005211442708969116, 0.05699040740728378, 0.055262885987758636, 0.0188947394490242, -0.024990595877170563, 0.01117020845413208, 0.007496163249015808, 0.02507268637418747, 0.008865952491760254, -0.0690792128443718, 0.05617930740118027, 0.013603471219539642, -0.03646472468972206, -0.05597813427448273, -0.024597350507974625, -0.0456373430788517, 0.05345778912305832, -0.028305448591709137, 0.007408156991004944, -0.03704483434557915, -0.07662505656480789, -0.036725036799907684, -0.0619429349899292, 0.07851208001375198, -0.012845098972320557, 0.02957823872566223, 0.04861780256032944, 0.06461598724126816, 0.04891578108072281, -0.08063473552465439, 0.06636466830968857, -0.011927537620067596, 0.06002572923898697, -0.012165166437625885, -0.04257817938923836, 0.014798708260059357, -0.07631076872348785, -0.02224774658679962, 0.013864807784557343, 0.011904135346412659, 0.04696304351091385, 0.05960526317358017, 0.004190206527709961, -0.0324825793504715, -0.07047557085752487, -0.04906530678272247, 0.02292449027299881, 0.06971103698015213, 0.038851961493492126, -0.043028414249420166, 0.06738769263029099, -0.049093928188085556, 0.06327437609434128, -0.0792984813451767, -0.02855139598250389, -0.06889497488737106, -0.061575330793857574, 0.009354770183563232, 0.03746344894170761, -0.00958910584449768, -0.06897370517253876, 0.07854989916086197, -0.023549813777208328, 0.07254966348409653, -0.06478382647037506, 0.07953353971242905, 0.04937633126974106, -0.05113040655851364, -0.005261160433292389, 0.017816998064517975, -0.0001729428768157959, 0.017034582793712616, -0.07924046367406845, -0.0367078073322773, -0.059979844838380814, 0.0006290003657341003, 0.05976838618516922, -0.015496805310249329, 0.0631701871752739, -0.06510160863399506, -0.04954401031136513, 0.02356758713722229, 0.016159817576408386, -0.00044077634811401367, -0.06323792040348053, -0.0005242973566055298], [-0.03176329284906387, 0.06797128170728683, -0.024493057280778885, 0.005403779447078705, -0.0023462027311325073, 0.034388892352581024, -0.013740770518779755, 0.010647296905517578, 0.06160793453454971, -0.07064611464738846, 0.049301840364933014, 0.038606829941272736, 0.03976205736398697, -0.037996821105480194, 0.0012181177735328674, 0.06267561763525009, -0.0334341786801815, 0.02858728915452957, -0.07665763795375824, -0.0729011595249176, 0.0444035604596138, -0.04701848328113556, -0.009079836308956146, 0.060047589242458344, -0.039486080408096313, -0.0747254341840744, -0.03791559860110283, -0.01652327924966812, 0.03658615052700043, -0.0596286803483963, -0.01367003470659256, -0.06164117902517319, 0.02959233522415161, 0.07279355078935623, -0.07298284024000168, -0.004803091287612915, -0.04980229213833809, 0.0705600157380104, -0.042567119002342224, -0.030529994517564774, 0.040133409202098846, -0.042205821722745895, -0.04004998505115509, -0.046835776418447495, 0.006152264773845673, -0.005409792065620422, 0.018287189304828644, -0.007640235126018524, 0.011304765939712524, -0.06995836645364761, -0.07523828744888306, -0.030137792229652405, 0.04089362174272537, -0.05315091088414192, 0.002827681601047516, -0.01840292662382126, -0.06153874471783638, 0.01171419769525528, 0.04820962995290756, 0.013502910733222961, 0.022685453295707703, 0.07797252386808395, -0.08101161569356918, -0.03209465369582176, 0.042031869292259216, -0.0440191924571991, 0.05427177995443344, 0.06617619842290878, -0.017381705343723297, 0.006524667143821716, -0.03447369113564491, -0.007504865527153015, -0.05353245511651039, -0.07496409118175507, 0.07003933936357498, -0.0049665942788124084, 0.00897902250289917, 0.03301357477903366, 0.059917084872722626, -0.025914307683706284, -0.03135227784514427, -0.06787464767694473, -0.011227719485759735, 0.06475118547677994, 0.031278058886528015, 0.0031835660338401794, 0.0775701031088829, 0.03579540550708771, 0.02809557318687439, 0.023049071431159973, -0.03967640921473503, -0.04128361493349075, -0.013099394738674164, -0.03744376450777054, -0.07938132435083389, -0.06029892712831497, -0.023136671632528305, -0.04642810672521591, -0.07766538113355637, 0.05601026862859726, 0.046579934656620026, -0.07025206089019775, -0.02682311087846756, 0.07636072486639023, -0.007980585098266602, -0.057252563536167145, 0.07872747629880905, -0.03587119281291962, -0.07834485173225403, -0.07338016480207443, -0.027643926441669464, -0.0024703294038772583, 0.03927299380302429, 0.0703609511256218, -0.020758524537086487, -0.01910896599292755, 0.041672490537166595, -0.04475375637412071, -0.0761408656835556, 0.052836187183856964, -0.05615130811929703, -0.07516230642795563, 0.041678428649902344, -0.039146751165390015, 0.05246805399656296, -0.03440927341580391, 0.04056894779205322, 0.027837403118610382], [0.03595694154500961, -0.004949659109115601, 0.06234220415353775, -0.03852446377277374, 0.07366723567247391, 0.0020205825567245483, 0.043809354305267334, 0.02048587054014206, -0.03215450793504715, 0.06130651384592056, 0.07243122905492783, -0.07601994276046753, -0.05730613321065903, 0.06210041791200638, 0.007478736340999603, -0.04119608923792839, -0.05160268396139145, -0.07702166587114334, -0.031752850860357285, -0.06802152097225189, 0.0259147509932518, -0.029633160680532455, 0.01892215758562088, 0.029851913452148438, 0.017564207315444946, 0.07708360999822617, -0.06869828701019287, -0.07810331135988235, -0.0025765597820281982, -0.025736898183822632, -0.0386190302670002, 0.0606808140873909, -0.06687209010124207, -0.020406294614076614, -0.04391573369503021, -0.0025120675563812256, 0.030203156173229218, 0.0033704563975334167, 0.005660898983478546, 0.04972095042467117, 0.0500897541642189, -0.03419686481356621, 0.04318559169769287, -0.026275664567947388, 0.07456289976835251, -0.042832691222429276, 0.04603045433759689, 0.016827166080474854, -0.056260742247104645, -0.059103917330503464, -0.05405515059828758, -0.013070352375507355, 0.026558756828308105, -0.054090965539216995, -0.07672959566116333, 0.043143130838871, 0.0006591081619262695, 0.05523800104856491, 0.03654474765062332, -0.048200324177742004, -0.008813664317131042, 0.07637030631303787, 0.054351337254047394, 0.030524812638759613, -0.037989549338817596, 0.06608494371175766, 0.019328899681568146, 0.04408819228410721, -0.02330394834280014, 0.0026491954922676086, -0.014375492930412292, -0.018595553934574127, -0.0676707997918129, 0.07975148409605026, -0.0037506818771362305, 0.014448106288909912, 0.039729051291942596, -0.004054911434650421, 0.06052044779062271, 0.08014161139726639, -0.028682507574558258, 0.008403010666370392, 0.03391061723232269, 0.01543213427066803, 0.06253991276025772, 0.04540330916643143, 0.07387062162160873, -0.041180290281772614, 0.05317240208387375, 0.06885971873998642, 0.021886296570301056, 0.0377589613199234, -0.04304390400648117, 0.006681904196739197, 0.04871957749128342, -0.021655764430761337, -0.021540526300668716, 0.0390823557972908, 0.02848566323518753, 0.013722248375415802, -0.05295893922448158, 0.007284119725227356, -0.06443600356578827, -0.03252125903964043, 0.03433031588792801, 0.06467185169458389, 0.06579146534204483, 0.03607691079378128, 0.07992566376924515, 0.0007807239890098572, 0.010415010154247284, 0.04896623641252518, 0.012128382921218872, -0.045849792659282684, 0.08005305379629135, 0.013825744390487671, 0.009463988244533539, 0.0466802641749382, -0.014580108225345612, 0.056480906903743744, -0.05962922424077988, 0.0686320886015892, -0.028246428817510605, 0.008428655564785004, 0.07217187434434891, 0.017818830907344818, -0.025201864540576935, 0.00017168372869491577], [-0.0782746747136116, -0.020743943750858307, -0.030762266367673874, 0.0007919163326732814, 0.035860612988471985, -0.07029266655445099, -0.043204415589571, -0.005081831011921167, 0.004011251498013735, 0.04887744039297104, 0.045228101313114166, 0.052098385989665985, -0.03588612377643585, -0.0532512366771698, -0.06445036828517914, 0.01606948859989643, -0.06555356085300446, 0.028866708278656006, -0.010271220467984676, 0.06794240325689316, -0.05553838983178139, 0.025769345462322235, 0.06554435938596725, -0.02911136858165264, -0.024721521884202957, 0.03336251527070999, 0.007247529458254576, -0.0371641144156456, 0.03238002955913544, -0.07494066655635834, 0.01898195594549179, -0.02589644119143486, 0.07358316332101822, 0.0017560496926307678, 0.029368266463279724, -0.07063928991556168, 0.015288181602954865, 0.03506797179579735, -0.02206774801015854, 0.001190096139907837, 0.07755489647388458, 0.0009076824644580483, -0.037594813853502274, 0.05884001404047012, 0.055130962282419205, -0.009998645633459091, -0.02891833707690239, 0.04346732795238495, -0.014856058172881603, -0.04545608162879944, -0.0049517229199409485, 0.05947429686784744, -0.031106146052479744, -0.04545639082789421, 0.0027100294828414917, -0.03573707118630409, -0.03920435532927513, -0.04895564541220665, -0.00471535325050354, -0.07235308736562729, -0.034714531153440475, 0.07344098389148712, -0.06463085860013962, -0.05200223624706268, 0.03528615087270737, 0.08138899505138397, -0.013851944357156754, -0.074794702231884, -0.08009366691112518, -0.042856354266405106, 0.0024163424968719482, -0.0622989796102047, 0.012226716615259647, -0.0020040462259203196, 0.06920228153467178, -0.06769172847270966, -0.02374124526977539, 0.013109706342220306, -0.0889253318309784, -0.07174478471279144, -0.0009135007858276367, -0.02072056010365486, 0.070232093334198, 0.007729404605925083, -0.05954925715923309, -0.010654665529727936, -0.014323189854621887, -0.01869131252169609, -0.07533938437700272, -0.019527852535247803, -0.009196898899972439, -0.03878472372889519, 0.028770610690116882, -0.06553633511066437, 0.029233446344733238, 0.06852534413337708, -0.06236135587096214, 0.03622647374868393, -0.03031308576464653, 0.042215488851070404, -0.03844822570681572, 0.010928943753242493, -0.04831736162304878, -0.01283784955739975, 0.00010997802019119263, -0.07791439443826675, -0.05941920727491379, 0.025536395609378815, -0.0735919252038002, -0.006619233172386885, -0.06788814812898636, -0.0047592297196388245, -0.06421259045600891, 0.07260103523731232, -0.05699405074119568, 0.06272834539413452, 0.04722950607538223, 0.0376201868057251, 0.08930466324090958, -0.06702966243028641, -0.058304063975811005, -0.04345161095261574, 0.06250683218240738, -0.04699009656906128, -0.057144682854413986, -0.009866492822766304, 0.033216651529073715, -0.06329934298992157], [-0.024155408143997192, -0.08106788992881775, -0.014704473316669464, -0.005567351821810007, 0.05642378702759743, -0.056980907917022705, -0.011560586281120777, 0.06883832067251205, 0.07551580667495728, 0.022384000942111015, -0.050818197429180145, 0.05323150008916855, -0.016712481155991554, -0.01353482250124216, 0.05165426805615425, -0.0334414504468441, 0.053702060133218765, 0.04228684678673744, 0.045396145433187485, -0.07416383922100067, 0.08373062312602997, -0.05195526033639908, 0.0515071377158165, 0.03427557274699211, -0.043364766985177994, 0.03210198134183884, -0.0034601534716784954, -0.06735403835773468, -0.05768352001905441, -0.07915850728750229, 0.0013462379574775696, 0.05646156519651413, -0.04433359205722809, -0.07620736956596375, 0.031223870813846588, -0.022449998185038567, -0.0567416250705719, 0.06706155091524124, -0.011728599667549133, 0.018582172691822052, 0.04962647706270218, 0.08117038011550903, 0.027131788432598114, -0.02220061421394348, 0.036263562738895416, 0.01775800809264183, -0.008511580526828766, -0.06523289531469345, -0.00629317294806242, 0.029663875699043274, 0.047708991914987564, -0.0308263897895813, 0.09301184862852097, -0.02661140076816082, 0.044225893914699554, 0.09634742885828018, 0.04003790020942688, -0.02538892813026905, 0.053697116672992706, 0.009351342916488647, -0.0479528084397316, -0.021695958450436592, 0.02354782074689865, -0.09670103341341019, 0.04569787532091141, -0.0072609297931194305, 0.048935383558273315, 0.006675541400909424, 0.026362456381320953, -0.017071878537535667, -0.03577436879277229, -0.07332798838615417, -0.0320344977080822, -0.012921852990984917, 0.07122031599283218, -0.005511008203029633, 0.03958228975534439, 0.024770796298980713, -0.06559368968009949, 0.07198413461446762, 0.013645604252815247, 0.07563390582799911, -0.024392394348978996, 0.005851795896887779, 0.07723722606897354, 0.020290441811084747, 0.01625087298452854, -0.023191139101982117, 0.02430553361773491, -0.008116768673062325, -0.06134408712387085, 0.049755461513996124, -0.062007755041122437, -0.020224645733833313, 0.08393914997577667, 0.001664993236772716, 0.020802520215511322, -0.06880677491426468, -0.03545892611145973, -0.06200522184371948, -0.00515526719391346, 0.01534750685095787, -0.03826175630092621, 0.02498365193605423, -0.0577438548207283, -0.026372060179710388, 0.014882445335388184, 0.05488857999444008, 0.03593166545033455, 0.026546694338321686, 0.01991336978971958, -0.08215410262346268, 0.08673414587974548, 0.07093040645122528, 0.03181995451450348, 0.013650821521878242, 0.06307608634233475, 0.02946692705154419, 0.06976135820150375, -0.07735341042280197, -0.0915459468960762, -0.007176227867603302, 0.05983714014291763, -0.016245432198047638, -0.042529020458459854, -0.04434943199157715, 0.012523324228823185, 0.021781131625175476], [0.1953819990158081, 0.04619308561086655, -0.017433302477002144, 0.11123963445425034, 0.008038438856601715, -0.16970480978488922, -0.053642820566892624, 0.018769776448607445, 0.028627954423427582, -0.019837111234664917, -0.06167003884911537, 0.03203888237476349, 0.05858726054430008, -0.10890650004148483, 0.022847624495625496, -0.03603121638298035, 0.1347636580467224, -0.08504344522953033, 0.01384797040373087, 0.04741855710744858, 0.17801715433597565, 0.02475445717573166, 0.033467505127191544, -0.052272580564022064, 0.062123801559209824, 0.061744265258312225, 0.016880955547094345, -0.01318865641951561, -0.02343738079071045, -0.004675939679145813, -0.04611260071396828, 0.0016048679826781154, 0.04484614357352257, -0.03739084303379059, -0.03334485739469528, 0.11806543171405792, 0.03537289798259735, 0.09110644459724426, 0.08468272536993027, -0.033807795494794846, -0.044924404472112656, 0.019708892330527306, 0.018380552530288696, 0.10682088881731033, 0.09192243218421936, 0.11669676005840302, -0.0018609464168548584, -0.06750279664993286, -0.09686484187841415, 0.02656029909849167, 0.06610126048326492, -0.017526179552078247, 0.12956731021404266, 0.059620581567287445, -0.037936195731163025, 0.1224464401602745, 0.12625324726104736, 0.010197486728429794, 0.021474851295351982, -0.05494092032313347, -0.08784608542919159, 0.18112213909626007, 0.036064714193344116, -0.043582092970609665, -0.02363494597375393, -0.04755004122853279, 0.008754754438996315, 0.0061477795243263245, -0.08874385803937912, -0.08674728125333786, -0.1524694263935089, -0.03856867551803589, 0.11977940797805786, 0.10753782093524933, 0.017874330282211304, -0.08247353881597519, 0.05877680331468582, 0.026113025844097137, -0.12911447882652283, 0.0022703930735588074, -0.11109308153390884, 0.033600594848394394, -0.11541394144296646, -0.04681381210684776, 0.02148144692182541, 0.004109462257474661, 0.061261605471372604, 0.015141300857067108, -0.09187575429677963, 0.04420817270874977, 0.07100078463554382, 0.0976090282201767, -0.09009678661823273, -0.09114348143339157, 0.1489098072052002, -0.06537900865077972, 0.0020054951310157776, -0.003769785165786743, -0.12166813760995865, 0.057876624166965485, -0.00661862175911665, -0.15636615455150604, 0.029137134552001953, -0.008675627410411835, 0.04740864783525467, -0.03534672409296036, -0.0591004341840744, -0.12526115775108337, 0.08703798800706863, 0.2029680460691452, 0.2325752079486847, -0.12414933741092682, 0.11498413234949112, 0.054432835429906845, 0.033373959362506866, 0.07487531751394272, -0.05402538925409317, -0.023345015943050385, 0.08636577427387238, 0.018414273858070374, -0.05525735020637512, 0.0014361217617988586, 0.05554773658514023, 0.07458064705133438, 0.05159299448132515, -0.00041759086889214814, 0.11660893261432648, 0.02403394877910614], [0.10941213369369507, -0.06046999618411064, 0.01979786530137062, 0.05915605649352074, 0.1441720426082611, -0.1971622109413147, 0.0671425387263298, -0.09887385368347168, 0.002254936844110489, -0.07353780418634415, -0.01797555200755596, 0.002528210636228323, 0.02039341628551483, -0.028368141502141953, 0.09555312991142273, -0.008681965060532093, -0.01157187670469284, 0.07792512327432632, 0.003734537633135915, -0.08191022276878357, 0.1319451928138733, -0.04767627641558647, -0.06583037227392197, -0.021613294258713722, 0.04308498278260231, 0.07071355730295181, 0.08341334760189056, 0.022974414750933647, -0.07742393761873245, -0.0008130163187161088, -0.016019560396671295, 0.08900203555822372, -0.07792437821626663, -0.03797490894794464, -0.03422714024782181, 0.16754302382469177, -0.03865483030676842, 0.17283357679843903, -0.05279652029275894, 0.07144220918416977, 0.038547053933143616, 0.1253165304660797, 0.03792759031057358, 0.11192227900028229, 0.18411147594451904, 0.19723813235759735, 0.01643047109246254, -0.1788691133260727, -0.08063045144081116, 0.017362255603075027, 0.03580591827630997, 0.006817254703491926, 0.1788180023431778, 0.05126291140913963, -0.060564782470464706, 0.09193726629018784, -0.012015183456242085, 0.010142072103917599, -0.059866536408662796, 0.05348610505461693, -0.10334477573633194, 0.07086046040058136, 0.03956527262926102, -0.2019127756357193, -0.01881878823041916, -0.06932524591684341, 0.005633804947137833, -0.016084730625152588, 0.013211894780397415, -0.10134843736886978, -0.09193114936351776, 0.0635695531964302, 0.027278127148747444, 0.05877077579498291, -0.02212802693247795, -0.012178969569504261, -0.029816098511219025, -0.053952328860759735, -0.09996029734611511, 0.04189710319042206, -0.1005222424864769, 0.13078302145004272, -0.06984016299247742, -0.04209209233522415, -0.08787994831800461, 0.019304361194372177, 0.03503573685884476, -0.008624603040516376, 