[[[-0.004591070115566254, 0.058222271502017975, 0.05216249078512192, 0.01789850741624832, -0.06466349959373474, 0.014646574854850769, -0.007654465734958649, 0.056949518620967865, -0.03209579735994339, -0.02432212606072426, 0.002614922821521759, -0.07424335181713104, 0.009219475090503693, 0.044204629957675934, -0.07678248733282089, 0.0571717843413353, 0.024069376289844513, -0.024596691131591797, 0.044790126383304596, 0.061726950109004974, -0.004054509103298187, -0.07840922474861145, -0.002570211887359619, -0.07247588783502579, -0.021491076797246933, -0.02898472547531128, 0.0172027125954628, 0.07592008262872696, -0.06313227862119675, -0.005336560308933258, 0.011906787753105164, 0.03810355067253113, -0.027862314134836197, -0.02531120553612709, -0.050595782697200775, -0.02770998701453209, 0.07471808046102524, 0.03636528551578522, -0.02105971798300743, 0.06998421996831894, 0.005258820950984955, -0.0774347335100174, 0.04053870588541031, 0.03686605393886566, 0.05027621239423752, 0.00013757497072219849, 0.06058955937623978, -0.01229722797870636, -0.06036210432648659, -0.02773291990160942, -0.06628330051898956, 0.06096441298723221, -0.01182558387517929, 0.029677964746952057, -0.044107161462306976, 0.07723396271467209, 0.04692444950342178, -0.06911005824804306, 0.050938911736011505, -0.043976183980703354, 0.024755440652370453, 0.060671962797641754, -0.07632658630609512, 0.0007803589105606079, -0.0079025998711586, 0.04074601083993912, 0.034126393496990204, -0.012041009962558746, 0.03297968953847885, 0.008601866662502289, -0.0769246444106102, 0.05869980901479721, 0.04129587858915329, 0.07512148469686508, -0.0351790152490139, -0.060323119163513184, -0.0010421201586723328, 0.052435390651226044, -0.04497523978352547, -0.07953862100839615, -0.01651330292224884, 0.053410254418849945, 0.006537720561027527, 0.046509481966495514, -0.05786345899105072, 0.021780766546726227, -0.06629401445388794, 0.06988763064146042, 0.014272011816501617, 0.00287705659866333, 0.05222509056329727, -0.0163351371884346, 0.06654862314462662, -0.022055622190237045, -0.03951064124703407, -0.053183283656835556, 0.06391168385744095, -0.07164175063371658, 0.05276777595281601, 0.061688609421253204, 0.07026072591543198, -0.03269773721694946, 0.004898004233837128, -0.03619443252682686, -0.06766647100448608, -0.012594282627105713, -0.050170451402664185, -0.03358325734734535, 0.035731956362724304, -0.002653837203979492, 0.034634627401828766, 0.06323838979005814, -0.02447699010372162, 0.06138914078474045, -0.033713020384311676, 0.011266574263572693, -0.025923047214746475, -0.043635983020067215, -0.001158788800239563, -0.048276402056217194, -0.03586150333285332, 0.038518063724040985, -0.07225397974252701, -0.026877395808696747, 0.0726887658238411, 0.06765054911375046, -0.0470014289021492, 0.06569854170084], [0.03820544481277466, 0.038239359855651855, 0.06399799138307571, -0.04817651957273483, -0.023995734751224518, -0.034652531147003174, 0.014531068503856659, 0.025679290294647217, -0.0453626811504364, -0.07343319058418274, -0.0012026652693748474, -0.007790200412273407, -0.003643237054347992, -0.05672129988670349, 0.0682322159409523, -0.04943445697426796, -0.07771074771881104, 0.07063300162553787, 0.05093110352754593, -0.011720016598701477, -0.01893838495016098, 0.07316628843545914, 0.05822236090898514, 0.01126009225845337, -0.0527428537607193, -0.07856307923793793, -0.040368951857089996, 0.013637423515319824, 0.016681604087352753, -0.019742276519536972, 0.03217044472694397, -0.07021183520555496, 0.058148495852947235, 0.06239073723554611, 0.06826988607645035, 0.030459947884082794, -0.07870618253946304, -0.06379730254411697, -0.07933589816093445, 0.05890869349241257, -0.046825796365737915, -0.03894196078181267, -0.02674069255590439, -0.037568844854831696, -0.0061921626329422, 0.05810675770044327, 0.03899448364973068, -0.0179004967212677, -0.06921709328889847, 0.07642031461000443, 0.02633190155029297, 0.07796836644411087, 0.04098609834909439, -0.03964902460575104, 0.07553759962320328, -0.06755324453115463, -0.00984131544828415, 0.046260349452495575, 0.05989927798509598, -0.030584119260311127, 0.026696637272834778, 0.04102072864770889, 0.07727990299463272, 0.020867012441158295, -0.017749391496181488, 0.035609371960163116, 0.08002669364213943, 0.012173749506473541, 0.0207892507314682, -0.05776379257440567, 0.05560962110757828, -0.06991884112358093, -0.040005527436733246, 0.015654876828193665, -0.06301112473011017, -0.04457586258649826, -0.0639033168554306, -0.015384972095489502, 0.05812864750623703, -0.07843603193759918, -0.0771741271018982, 0.039159804582595825, 0.005369566380977631, -0.002262696623802185, -0.004344485700130463, -0.06849583238363266, 0.06716007739305496, 0.03426185995340347, -0.04228545352816582, -0.05498967319726944, 0.002795293927192688, 0.024670623242855072, -0.06816907227039337, 0.05215393751859665, 0.0536087229847908, 0.02068755030632019, -0.035193443298339844, -0.06774044036865234, 0.02625373750925064, 0.020999282598495483, -0.03506641089916229, 0.06369776278734207, 0.06775347143411636, 0.07982649654150009, -0.005640693008899689, -0.06281258165836334, -0.05300351232290268, -0.07834898680448532, -0.014552325010299683, 0.008069850504398346, -0.0734587013721466, 0.04684167355298996, 0.06426952034235, -0.005250602960586548, 0.01906626671552658, -0.010994188487529755, 0.07863076776266098, 0.07553940266370773, -0.01737227290868759, -0.022551029920578003, 0.02150849997997284, 0.06830128282308578, 0.07670045644044876, -0.045052748173475266, 0.0769796147942543, 0.05463729053735733, -0.02064744383096695, 0.0056824833154678345], [0.050192691385746, -0.07620612531900406, 0.07190925627946854, 0.0069949328899383545, 0.06092090159654617, 0.010039359331130981, 0.061685286462306976, -0.06474248319864273, -0.050249431282281876, 0.0557500496506691, -0.017764665186405182, 0.03349354863166809, 0.010541751980781555, 0.0061713531613349915, 0.08060049265623093, 0.053686343133449554, -0.024193372577428818, 0.04437435418367386, 0.009929865598678589, 0.07224661856889725, 0.06662506610155106, -0.050727374851703644, 0.049254946410655975, -0.04261261969804764, 0.05644231289625168, 0.01143452525138855, 0.06453265994787216, 0.04659540206193924, 0.07687749713659286, -0.032013993710279465, -0.07053638994693756, 0.05791374295949936, 0.02687019854784012, 0.03810921311378479, -0.04097037389874458, -0.028516139835119247, 0.04822386056184769, 0.03069409728050232, 0.05215311795473099, 0.052852727472782135, 0.07335960119962692, 0.04129078984260559, 0.027194909751415253, 0.0067716315388679504, -0.013783082365989685, 0.053848884999752045, -0.004495903849601746, -0.06206496059894562, 0.003553740680217743, -0.0034251809120178223, 0.014596760272979736, 0.025692477822303772, 0.015734724700450897, -0.04659739509224892, 0.06012246757745743, 0.04067467153072357, 0.05066455155611038, 0.07930982857942581, 0.011197246611118317, -0.012212425470352173, -0.010228008031845093, 0.015259116888046265, 0.028763167560100555, -0.03542538732290268, -0.002948358654975891, 0.043073296546936035, -0.038281943649053574, -0.009529665112495422, 0.045996181666851044, 0.010074444115161896, 0.06693621724843979, 0.025814175605773926, 0.07997597008943558, -0.06376498937606812, 0.012230664491653442, -0.050258636474609375, -0.0394146665930748, -0.01699376106262207, 0.04390280693769455, 0.06760481745004654, 0.06291498988866806, 0.06037003546953201, 0.05936004966497421, -0.02837541699409485, 0.05189687758684158, -0.001526951789855957, -0.03175957873463631, -0.03714030608534813, -0.05426158756017685, 0.003730863332748413, 0.06916051357984543, 0.041965365409851074, 0.012380145490169525, -0.07848360389471054, 0.047470174729824066, 0.08003752678632736, 0.05145243555307388, -0.05272991582751274, -0.05838323384523392, -0.08010977506637573, 0.06474298983812332, 0.0002459287643432617, 0.026127822697162628, -0.018083646893501282, -0.04133942723274231, -0.013904042541980743, -0.039185911417007446, 0.012357093393802643, 0.01923453062772751, -0.06281305849552155, 0.013095006346702576, -0.06247299909591675, -0.016796357929706573, -0.050190798938274384, 0.06635976582765579, 0.04695407301187515, 0.06119575351476669, -0.03589656576514244, 0.01659838855266571, -0.04819044470787048, -0.01038600504398346, -0.02358676865696907, -0.04222181439399719, 0.014991864562034607, -0.024778220802545547, 0.01727602630853653, 0.007311053574085236, -0.009593844413757324], [-0.04440402239561081, 0.015647485852241516, -0.028407171368598938, 0.026021793484687805, 0.04681827872991562, -0.02441464364528656, 0.045017726719379425, -0.08111022412776947, 0.04991718381643295, 0.04338392615318298, -0.031080670654773712, -0.01115158200263977, 0.0755423977971077, -0.05902250111103058, -0.006844542920589447, 0.015947848558425903, 0.036377452313899994, 0.04886458069086075, -0.0027314797043800354, 0.07185567170381546, -0.053314514458179474, 0.04681236296892166, -0.02099321410059929, 0.05156681686639786, -0.028153356164693832, 0.017545543611049652, 0.06691087037324905, -0.0620255284011364, -0.027559708803892136, 0.0305507630109787, 0.03482833504676819, -0.062404923141002655, -0.06793686002492905, 0.045189134776592255, -0.010348252952098846, 0.02804960310459137, -0.06352856010198593, 0.05536600202322006, -0.06012209504842758, 0.005019329488277435, 0.044878192245960236, -0.031532760709524155, 0.06011372059583664, -0.03063134476542473, 0.05063387006521225, 0.06257271021604538, -0.025051355361938477, 0.05938196927309036, 0.009117372334003448, -0.06136934086680412, 0.04727209359407425, -0.048713717609643936, -0.0015675053000450134, -0.021957922726869583, 0.04904576390981674, 0.04346434026956558, -0.004334986209869385, 0.011290475726127625, -0.018458984792232513, -0.07404561340808868, 0.06953499466180801, 0.06384313851594925, 0.012073561549186707, -0.03858669474720955, 0.0020895451307296753, -0.01534964144229889, 0.020042680203914642, -0.0032812803983688354, 0.006230145692825317, -0.03298800811171532, -0.07512670010328293, -0.007066637277603149, -0.011428236961364746, 0.05201948434114456, -0.05070488899946213, -0.07933065295219421, -0.043055854737758636, -0.033923301845788956, 0.024953171610832214, -0.06171593815088272, -0.00032179057598114014, 0.007173195481300354, -0.03619226813316345, 0.0018015950918197632, 0.06673374027013779, 0.019947245717048645, 0.042874209582805634, -0.041397575289011, 0.03060813993215561, -0.04408898204565048, -0.024549275636672974, 0.06997422128915787, 0.06487926095724106, -0.014706738293170929, 0.045339010655879974, -0.0470590740442276, -0.05437011271715164, -0.009167768061161041, 0.0571879968047142, -0.060857899487018585, 0.05171143263578415, -0.05505497753620148, -0.04491296783089638, -0.0347122885286808, 0.04979483038187027, -0.022968679666519165, 0.054880522191524506, 0.05082268267869949, -0.06159275770187378, 0.07410270720720291, -0.061697471886873245, 0.02801363170146942, 0.009457394480705261, 0.0459870770573616, 0.060216955840587616, 0.04713142663240433, -0.008558496832847595, 0.014141499996185303, 0.06326810270547867, 0.013287767767906189, 0.07604799419641495, -0.014087870717048645, 0.0007936060428619385, -0.05590147525072098, -0.04230982065200806, -0.07629431039094925, 0.0708104744553566, -0.005322270095348358], [0.055915094912052155, -0.07452642172574997, 0.06830286234617233, -0.030181556940078735, -0.025933142751455307, -0.050380583852529526, -0.02922278270125389, 0.05936566740274429, -0.018473394215106964, 0.062187559902668, -0.07113918662071228, -0.06678352504968643, -0.06813192367553711, 0.06799081712961197, 0.028629504144191742, 0.06821449846029282, 0.017937488853931427, 0.000126764178276062, 0.02825118601322174, 0.06051789969205856, -0.039545971900224686, -0.06818342208862305, -0.044013120234012604, 0.06652412563562393, -0.03811975196003914, -0.08075173199176788, -0.061775095760822296, 0.004500716924667358, -0.06452862173318863, -0.05643772333860397, -0.001675240695476532, 0.015899933874607086, 0.06786716729402542, -0.032089974731206894, -0.0661727637052536, 0.002927429974079132, 0.07630827277898788, -0.03664766252040863, -0.08091426640748978, 0.07216089218854904, -0.028288140892982483, -0.044687215238809586, -0.05732278153300285, 0.02443777024745941, 0.0065890029072761536, 0.012151025235652924, 0.06702011078596115, -0.06505119800567627, 0.034895382821559906, 0.0731414183974266, -0.028436291962862015, -0.057863131165504456, -0.08015367388725281, -0.06265611201524734, 0.008497148752212524, 0.06919125467538834, 0.03961547464132309, 0.07007337361574173, -0.021296359598636627, 0.00753311812877655, -0.06013103201985359, 0.034747809171676636, 0.05968166142702103, 0.06639304012060165, 0.014382317662239075, 0.0032596439123153687, -0.0585128590464592, -0.04256947711110115, 0.039190709590911865, 0.03907276690006256, -0.03577171638607979, 0.014094293117523193, -0.07328121364116669, 0.0023148134350776672, 0.0725635215640068, 0.03995366394519806, -0.07187847048044205, 0.057790808379650116, 0.07613787800073624, -0.04481217637658119, 0.022579573094844818, 0.019337639212608337, 0.07435206323862076, -0.028413977473974228, -0.02516104280948639, 0.07983959466218948, 0.01415202021598816, -0.02768828719854355, -0.006798513233661652, -0.024954143911600113, -0.025146231055259705, -0.007161632180213928, 0.010139845311641693, -0.010567069053649902, -0.010137021541595459, 0.05096279829740524, 0.05615305155515671, -0.03309550881385803, -0.05131806433200836, -0.06877505779266357, -0.07988782972097397, 0.06448357552289963, 0.05503544956445694, -0.05797871947288513, 0.040198810398578644, -0.0066238343715667725, -0.04754060134291649, 0.00987444818019867, -0.05494111776351929, 0.019674956798553467, 0.018483005464076996, 0.0002717450261116028, -0.012813307344913483, -1.2606382369995117e-05, 0.01502249389886856, -0.07091274857521057, -0.05493711307644844, -0.0028408318758010864, 0.005117379128932953, 0.00715482234954834, -0.006885729730129242, 0.07583855837583542, 0.07754582911729813, 0.022416412830352783, 0.03391752392053604, 0.003501199185848236, -0.06856529414653778, -0.0075282081961631775], [-0.013324357569217682, 0.08044872432947159, -0.004262641072273254, -0.06590968370437622, 0.043222784996032715, 0.066782645881176, 0.03943191468715668, -0.04678035154938698, 0.03424718230962753, 0.04536264389753342, 0.017483234405517578, -0.07572261244058609, 0.046893320977687836, 0.008517473936080933, 0.04238303750753403, 0.03473777323961258, -0.0615505576133728, -0.06392994523048401, 0.04964254051446915, 0.029986567795276642, -0.026897814124822617, -0.05902259796857834, 0.028868623077869415, 0.023630671203136444, 0.01679132878780365, -0.013189531862735748, 0.047326020896434784, 0.02176015079021454, 0.030117467045783997, 0.006113357841968536, 0.04362459480762482, -0.04209563136100769, 0.0022413507103919983, 0.07728040963411331, 0.01635345071554184, 0.006136000156402588, 0.024404972791671753, 0.012899577617645264, -0.0525147020816803, 0.018480338156223297, 0.041544415056705475, -0.01717449724674225, 0.0007090568542480469, 0.05264798551797867, -0.01319916546344757, -0.02637152373790741, -0.0024194717407226562, 0.05188868194818497, -0.06942105293273926, -0.051183879375457764, 0.06321551650762558, 0.05362793058156967, 0.023964814841747284, -0.002053767442703247, 0.04116714000701904, 0.03751007467508316, -0.0656287744641304, -0.014403283596038818, 0.024514950811862946, 0.07662614434957504, -0.023341193795204163, 0.04787907749414444, 0.02509838342666626, -0.05942017585039139, 0.02675710618495941, -0.05897730961441994, 0.027289360761642456, -0.02965230494737625, -0.040275778621435165, 0.00946168601512909, 0.0009156465530395508, -0.07994528859853745, 0.07415229827165604, 0.08098305016756058, -0.05626555532217026, -0.05091913789510727, -0.032078295946121216, -0.05924570560455322, -0.07041798532009125, 0.0325564369559288, 0.011040933430194855, -0.01753190904855728, 0.005077250301837921, 0.07804272323846817, 0.028731338679790497, 0.06503560394048691, -0.07301260530948639, 0.024387069046497345, 0.016029126942157745, 0.000616215169429779, 0.04985427111387253, -0.010853543877601624, -0.07618650048971176, 0.048051245510578156, 0.02316780388355255, 0.031035996973514557, 0.022760018706321716, -0.007876954972743988, -0.0755157545208931, -0.008441418409347534, 0.056829310953617096, -0.014681659638881683, -0.007340237498283386, 0.07016357034444809, -0.07096868008375168, -0.07400386035442352, -0.011979416012763977, 0.01977180689573288, 0.06025081127882004, 0.01229347288608551, -0.026445571333169937, 0.02874796837568283, 0.00782754272222519, -0.006077870726585388, 0.019739799201488495, -0.022469401359558105, 0.045515142381191254, 0.06488759070634842, 0.04114200174808502, -0.06352973729372025, -0.02916521206498146, 0.06463225930929184, 0.044984422624111176, -0.06843967735767365, -0.03856447711586952, 0.06402110308408737, -0.009060069918632507, 0.0004360377788543701], [-0.005275428295135498, 0.011336944997310638, -0.07401309162378311, 0.04892232269048691, 0.059693314135074615, 0.055642955005168915, 0.0224834606051445, 0.04066852480173111, 0.008537724614143372, -0.07439889013767242, -0.020445242524147034, -0.05958178639411926, 0.03005225956439972, 0.033485911786556244, -0.052486602216959, 0.0482456311583519, 0.01102406531572342, 0.02185332030057907, -0.015585742890834808, 0.02708810567855835, 0.07339965552091599, 0.07809209078550339, 0.06921438127756119, 0.05674835294485092, -0.007777325809001923, -0.07352504879236221, 0.06413326412439346, -0.03697080537676811, -0.05547966808080673, -0.06882032752037048, -0.076078861951828, 0.07883425801992416, -0.042654234915971756, -0.061354294419288635, -0.07949595898389816, -0.05450751259922981, -0.017425119876861572, 0.007290638983249664, -0.07757365703582764, 0.041336216032505035, 0.038216233253479004, 0.0316397026181221, -0.03306505084037781, -0.012822434306144714, 0.05533567816019058, 0.037747763097286224, -0.06176795810461044, 0.049561627209186554, -0.03753894567489624, 0.03478488326072693, -0.07971591502428055, -0.004858188331127167, 0.06733443588018417, -0.006131403148174286, 0.05912373214960098, 0.06647353619337082, 0.020352497696876526, -0.07091611623764038, -0.048585738986730576, 0.026061147451400757, -0.0694035142660141, 0.0189988911151886, 0.047941721975803375, -0.016818135976791382, -0.05271073430776596, 0.017092563211917877, 0.008909657597541809, 0.07244003564119339, 0.03991653025150299, 0.014406472444534302, 0.07543636113405228, 0.012786582112312317, -0.03836271911859512, 0.06439071148633957, 0.05615248531103134, 0.0661156103014946, -0.07242196798324585, 0.07257644087076187, 0.08105539530515671, -0.0024430304765701294, 0.03982693701982498, 0.056374840438365936, 0.022032514214515686, -0.06906857341527939, -0.0457376129925251, 0.06474471837282181, 0.003124721348285675, 0.07239542156457901, 0.002547629177570343, 0.004069030284881592, -0.030986163765192032, 0.05142232030630112, -0.062288738787174225, -0.023976821452379227, 0.03281063586473465, 0.06662405282258987, 0.039178699254989624, 0.03504088521003723, -0.042496319860219955, 0.057279713451862335, 0.07225828617811203, 0.0035779550671577454, -0.07741481065750122, -0.025314047932624817, -0.02359945699572563, -0.008842110633850098, -0.002934083342552185, -0.028048522770404816, 0.05076143890619278, -0.02237120270729065, -0.0469324104487896, -0.0641651600599289, 0.04641672223806381, 0.011161662638187408, 0.055122338235378265, 0.019801996648311615, -0.057920701801776886, 0.06078604608774185, -0.06527606397867203, 0.03787284344434738, -0.0790928527712822, 0.06045805662870407, -0.013818472623825073, 0.06543421000242233, -0.02935699000954628, 0.019649840891361237, 0.019291751086711884, -0.0026519224047660828], [-0.02025141566991806, -0.08021323382854462, 0.0750422403216362, -0.04677809029817581, -0.005481690168380737, 0.06983742862939835, 0.015205882489681244, 0.028285972774028778, 0.0543203130364418, -0.06078188121318817, 0.018507041037082672, 0.0450902059674263, -0.06794490665197372, 0.0631084069609642, -0.015318118035793304, 0.016918808221817017, 0.06848231703042984, -0.05970092862844467, -0.06549787521362305, -0.03898804262280464, -0.07385396957397461, 0.004616342484951019, -0.026795361191034317, 0.03134303539991379, 0.04459475725889206, 0.06262391060590744, -0.06752133369445801, 0.017441757023334503, -0.004447631537914276, 0.07260877639055252, 0.05925130099058151, 0.07538767904043198, 0.030298784375190735, 0.00038920342922210693, 0.03851360082626343, -0.05507199466228485, -0.05797935649752617, 0.03935127705335617, -0.014529988169670105, 0.05960596352815628, -0.026370923966169357, 0.03892383724451065, 0.01595482975244522, 0.027416624128818512, 0.0483478382229805, -0.0062493085861206055, 0.014160782098770142, 0.01219053566455841, -0.07422397285699844, -0.004109114408493042, 0.0134916752576828, -0.014881439507007599, -0.03281523659825325, 0.030325740575790405, -0.048179615288972855, -0.05348368361592293, -0.06690150499343872, 0.027191564440727234, 0.044096194207668304, 0.050495244562625885, -0.06186072528362274, -0.014763399958610535, -0.07508862763643265, 0.07913324981927872, -0.068826824426651, 0.020390033721923828, 0.041450135409832, -0.04775457829236984, 0.05247142165899277, -0.06303340196609497, -0.002744242548942566, -0.04369885101914406, -0.010111458599567413, 0.003218337893486023, -0.07148897647857666, 0.07224611192941666, -0.02094303071498871, -0.019337080419063568, -0.0492105595767498, -0.03976944461464882, -0.027828063815832138, -0.05479035526514053, 0.06263863295316696, -0.06789915263652802, 0.02314455807209015, 0.01573043316602707, -0.02745133638381958, 0.05132745951414108, -0.06151051074266434, 0.012050777673721313, 0.0349658727645874, -0.06060290336608887, -0.04607510566711426, 0.00011751800775527954, -0.03376641124486923, -0.04448071867227554, -0.026394207030534744, -0.018132366240024567, -0.06403657793998718, -0.027941368520259857, 0.07638498395681381, -0.005070522427558899, -0.014435075223445892, 0.06882763653993607, 0.04613097757101059, 0.07327684015035629, 0.05278005450963974, -0.048666127026081085, -0.013089284300804138, 0.03288963437080383, 0.04128672927618027, 0.08040458709001541, 0.004295326769351959, -0.06510292738676071, -0.052236828953027725, -0.04508444294333458, -0.017740122973918915, -0.05295787751674652, 0.0389438197016716, -0.026661984622478485, 0.04955963045358658, 0.04948156327009201, -0.07801365852355957, 0.03901161998510361, 0.06986861675977707, -0.0351843535900116, 0.049760304391384125, 0.039187557995319366], [0.02015393227338791, 0.0066272541880607605, 0.0475589856505394, -0.03345206752419472, -0.01369640976190567, 0.012739546597003937, 0.032981954514980316, 0.028099551796913147, -0.0593232735991478, 0.04033412039279938, 0.03496803343296051, -0.01839824765920639, -0.05097566172480583, -0.008665859699249268, 0.05409596115350723, 0.06131722778081894, 0.032200008630752563, -0.01376989483833313, -0.06162474304437637, -0.030479423701763153, 0.0258621945977211, -0.0044366344809532166, 0.03777487576007843, -0.01926984265446663, -0.018538720905780792, 0.013486683368682861, -0.040492892265319824, 0.050568632781505585, 0.037859924137592316, 0.034665800631046295, 0.07714348286390305, 0.01631094515323639, -0.025202736258506775, -0.02960902452468872, -0.07519624382257462, 0.011288270354270935, -0.03650496527552605, 0.07359182089567184, -0.014071047306060791, -0.05042716860771179, 0.01903574913740158, 0.06925415247678757, -0.06470301002264023, 0.003603614866733551, 0.06085554510354996, 0.05889814347028732, -0.07116194814443588, 0.07994765788316727, -0.058984480798244476, 0.035997338593006134, 0.005164213478565216, 0.004434250295162201, 0.003747798502445221, 0.07062584906816483, -0.04818396642804146, 0.039772965013980865, -0.014807552099227905, 0.04678945988416672, 0.013666510581970215, -0.015545651316642761, -0.07060117274522781, -0.017585091292858124, -0.03555367514491081, 0.06183534115552902, 0.035317204892635345, 0.009255796670913696, -0.06088557094335556, -0.04746902734041214, 0.06325431913137436, -0.005936875939369202, -0.07461466640233994, 0.0023284852504730225, 0.07606694847345352, -0.05463462322950363, -0.013201870024204254, -0.03713551163673401, -0.056139200925827026, -0.0613936111330986, -0.004267945885658264, 0.019754283130168915, 0.0252702459692955, -0.039539650082588196, -0.04578574374318123, -0.04432930052280426, 0.008288763463497162, 0.03595007210969925, -0.05023937672376633, -0.060694046318531036, -0.03518323227763176, 0.022380352020263672, -0.058077361434698105, 0.01593930274248123, 0.001646384596824646, 0.07363025099039078, -0.041250430047512054, 0.058103375136852264, 0.0728977844119072, -0.025672849267721176, 0.04579334706068039, 0.023210756480693817, 0.07273723930120468, 0.03772368282079697, -0.03780486807227135, 0.024405628442764282, 0.04282006621360779, -0.027654755860567093, 0.018723241984844208, 0.04594709724187851, 0.06233619898557663, -0.012346327304840088, -0.027336370199918747, -0.00633491575717926, 0.042207926511764526, 0.026678211987018585, -0.07351358234882355, 0.035052523016929626, 0.07216117531061172, 0.006033644080162048, -0.0023530274629592896, -0.011865533888339996, 0.0337848961353302, 0.04623686522245407, 0.030535988509655, -0.06163506954908371, -0.007453829050064087, -0.01573733240365982, -0.0034403055906295776, -0.054446250200271606], [0.018823206424713135, -0.018347695469856262, -0.04882746562361717, 0.07609706372022629, -0.013695947825908661, 0.01962023228406906, 0.013852447271347046, -0.046524953097105026, -0.019908219575881958, 0.02601761370897293, -0.04709428921341896, -0.021695833653211594, 0.0035555586218833923, -0.0772901400923729, 0.06107885390520096, 0.050260595977306366, -0.018545351922512054, -0.07888025045394897, -0.038409654051065445, 0.058017291128635406, 0.052379198372364044, -0.04527121037244797, 0.03416825830936432, -0.06996385753154755, -0.017470434308052063, -0.02301696687936783, 0.07048007100820541, -0.009064264595508575, -0.06655459851026535, -0.058856330811977386, -0.039122793823480606, 0.0679224506020546, -0.059118594974279404, -0.04202262684702873, -0.032746877521276474, 0.0016867443919181824, -0.05721261352300644, 0.08050907403230667, 0.06992503255605698, 0.021213188767433167, 0.07437070459127426, -0.056198954582214355, -0.048792365938425064, -0.049248095601797104, 0.005700252950191498, 0.013452917337417603, -0.0030100643634796143, 0.06761369854211807, -0.03945987671613693, 0.024042338132858276, 0.001905791461467743, 0.04302218556404114, -0.04791344329714775, 0.0021212175488471985, 0.05500984936952591, -0.05248681455850601, -0.043837178498506546, 0.033471427857875824, 0.07540745288133621, -0.018324486911296844, 0.05126933008432388, -0.05054250359535217, 0.05894128233194351, 0.07068753987550735, 0.050344474613666534, -0.029183119535446167, -0.041346658021211624, -0.036322567611932755, 0.07928583770990372, -0.08067277073860168, -0.06811980158090591, 0.028453096747398376, 0.02231084555387497, 0.06276123970746994, 0.025423310697078705, 0.019297301769256592, 0.053204454481601715, -0.049117252230644226, 0.03266594558954239, -0.04263203591108322, 0.012492753565311432, -0.07183071970939636, 0.034197285771369934, 0.027079850435256958, -0.03805272653698921, -0.06207839772105217, -0.06367906928062439, -0.05262160301208496, 0.03196367621421814, 0.025903768837451935, -0.058204494416713715, -0.06987616419792175, -0.005931653082370758, -0.048353735357522964, -0.061182260513305664, 0.06266415864229202, -0.023424580693244934, -0.049420397728681564, 0.018333330750465393, -0.03727778419852257, 0.010287508368492126, -0.007374294102191925, 0.06398940831422806, -0.03188713639974594, -0.02512938529253006, 0.07897063344717026, -0.029597867280244827, -0.054915644228458405, -0.059441640973091125, -0.04608411714434624, -0.06361652910709381, -0.030700229108333588, 0.0301089808344841, 0.04434271901845932, -0.07986330986022949, -0.03503168001770973, -0.07637601345777512, -0.006261199712753296, -0.025623906403779984, 0.006664849817752838, 0.012120552361011505, 0.05665091425180435, 0.04843830317258835, 0.07506798952817917, -0.01848820596933365, -0.07872772961854935, -0.04380239173769951, -0.05867829918861389], [-0.06882429122924805, -0.0170697420835495, -0.01635155826807022, -0.07210329174995422, -0.056370873004198074, -0.059854745864868164, -0.019257038831710815, -0.05202482268214226, -0.004928715527057648, -0.002232104539871216, -0.021051596850156784, 0.03408251702785492, 0.012480318546295166, -0.025739818811416626, 0.023234426975250244, -0.057163842022418976, -0.011531122028827667, -0.01719946414232254, 0.07710037380456924, 0.005177326500415802, -0.019757088273763657, 0.05915398150682449, -0.02153632789850235, 0.011264577507972717, -0.020126372575759888, 0.012052886188030243, 0.027303628623485565, -0.01647530496120453, 0.05126943439245224, -0.08048925548791885, 0.07681212574243546, 0.02363714575767517, 0.06945041567087173, -0.02251318469643593, -0.0018054619431495667, -0.054821256548166275, -0.00813324749469757, -0.04484777897596359, 0.046550311148166656, -0.01652337610721588, 0.01536087691783905, 0.05594610422849655, 0.002034120261669159, -0.00651106983423233, 0.044062040746212006, 0.03780817240476608, -0.014761388301849365, 0.07226196676492691, 0.029726386070251465, -0.04685087874531746, -0.04786621779203415, -0.04715866968035698, -0.046551890671253204, 0.04764025658369064, -0.015866361558437347, -0.04746978357434273, -0.04613476246595383, 0.03747006505727768, -0.03206011652946472, 0.01498199999332428, -0.0005156174302101135, 0.049711473286151886, -0.03673747181892395, 0.07838474959135056, 0.08010105043649673, -0.00645022839307785, -0.049396902322769165, 0.0301787331700325, 0.018273845314979553, 0.029464103281497955, -0.08109243214130402, -0.03583350405097008, 0.04255478084087372, -0.01825299859046936, 0.02565513551235199, -0.0005257502198219299, 0.07925314456224442, -0.06264390796422958, -0.014534205198287964, -0.03213278949260712, -0.01209084689617157, 0.0077136605978012085, -0.002854160964488983, 0.041041672229766846, 0.02626951038837433, 0.02640441805124283, -0.0030882880091667175, 0.05860079079866409, -0.019317686557769775, -0.014694668352603912, -0.040854692459106445, -0.027792423963546753, -0.06416981667280197, 0.02053491771221161, 0.06035294383764267, -0.03404432162642479, 0.045942313969135284, 0.014550231397151947, 0.06547743827104568, -0.0033708810806274414, 0.06526757031679153, 0.05402258783578873, 0.01899784803390503, 0.02997463196516037, 0.010832816362380981, -0.07924351841211319, 0.009066857397556305, 0.0806906595826149, -0.07822208851575851, 0.031306542456150055, -0.00034671276807785034, 0.013046041131019592, 0.021656669676303864, -0.007354319095611572, 0.0023984163999557495, -0.03188547119498253, 0.02647426724433899, 0.01778104156255722, 0.0017454549670219421, 0.030981190502643585, 0.022231757640838623, -0.024000685662031174, -0.043311621993780136, 0.02615230530500412, 0.018858440220355988, 0.04799235612154007, 0.07092726975679398, 0.07638121396303177], [0.04038824886083603, -0.011077344417572021, 0.05800027400255203, 0.07266553491353989, -0.0797933042049408, -0.018290512263774872, -0.012241087853908539, -0.002398081123828888, -0.03282672539353371, -0.06869284808635712, -0.030352678149938583, -0.05989512428641319, 0.07370065897703171, -0.005310416221618652, -0.01724836975336075, -0.07252645492553711, -0.0260472409427166, 0.07774008065462112, 0.053176335990428925, -0.07035520672798157, 0.06310299783945084, -0.050579920411109924, 0.06197940558195114, -0.002900265157222748, -0.05846933275461197, 0.06746096163988113, -0.06982342898845673, 0.03532958775758743, -0.0007186681032180786, -0.06892063468694687, -0.015641801059246063, -0.050712063908576965, 0.02346416562795639, -0.00035143643617630005, 0.004183568060398102, 0.0053757354617118835, -0.045477841049432755, -0.07937051355838776, 0.07010071724653244, 0.002326764166355133, -0.06559915095567703, -0.02032960206270218, -0.04535194858908653, 0.060780636966228485, -0.022972334176301956, 0.020984604954719543, 0.04106917232275009, 0.06678932160139084, 0.03795313090085983, 0.06589671224355698, 0.0701766237616539, -0.06474143266677856, 0.07494594901800156, 0.07588423043489456, -0.026725683361291885, 0.045805685222148895, -0.06061164662241936, 0.017442762851715088, 0.07337739318609238, 0.0055591389536857605, -0.04178095608949661, 0.059859372675418854, 0.07002373784780502, -0.022110465914011, 0.06028444319963455, -0.05448531359434128, -0.0033203065395355225, 0.01588229089975357, -0.07007093727588654, -0.02902914583683014, -0.050797149538993835, -0.07290761172771454, 0.02987775206565857, 0.051945917308330536, 0.025593914091587067, 0.030643917620182037, -0.04785855859518051, -0.0158817321062088, -0.07483382523059845, 0.04337389022111893, -0.06342699378728867, -0.04891110584139824, 0.0704825296998024, -0.06133269518613815, -0.01549074798822403, 0.02997560054063797, 0.045672692358493805, -0.07538587599992752, -0.05901229381561279, -0.022013947367668152, -0.07548786699771881, 0.006096377968788147, 0.04618404060602188, -0.04314165934920311, 0.04184276610612869, 0.04577229171991348, 0.054084114730358124, -0.030751340091228485, -0.07647858560085297, 0.022007465362548828, -0.0337776280939579, 0.0015914812684059143, -0.0667538195848465, -0.07360642403364182, 0.012508749961853027, 0.0016918852925300598, 0.066922627389431, -0.019282102584838867, 0.013934634625911713, -0.003726646304130554, 0.03781163692474365, -0.052840493619441986, -0.035560522228479385, -0.04513056203722954, -0.06159716472029686, 0.031333908438682556, 0.06026085466146469, 0.05224918574094772, 0.01045389473438263, -0.014364026486873627, 0.06469761580228806, -0.03920938819646835, -0.0406184159219265, -0.060263074934482574, 0.044736795127391815, -0.03021528199315071, -0.05467204004526138, -0.004272527992725372], [0.0007775574922561646, -0.05490870401263237, 0.051214493811130524, 0.0658937469124794, -0.05805547162890434, 0.035903505980968475, 0.04941227287054062, 0.07438153773546219, 0.02429606020450592, 0.047828830778598785, 0.04070360213518143, -0.07428057491779327, 0.02467762678861618, 0.015515327453613281, 0.05976676195859909, -0.058834902942180634, 0.07487457245588303, 0.02490488439798355, -0.06370911747217178, -0.014147244393825531, 0.0552331879734993, 0.05395098775625229, 0.0479111447930336, -0.017996862530708313, -0.07198096066713333, -0.07588616013526917, -0.03919283673167229, 0.06916100531816483, 0.02732008695602417, 0.046115778386592865, 0.016918830573558807, 0.054921261966228485, 0.039367303252220154, -0.006238885223865509, -0.07042962312698364, 0.07101330906152725, -0.006947092711925507, -0.027603760361671448, -0.033366862684488297, -0.019317898899316788, -0.0141044482588768, 0.0008610561490058899, 0.00962173193693161, 0.02689574658870697, -0.026086166501045227, -0.0573495477437973, 0.05572763830423355, 0.040824562311172485, 0.025853276252746582, -0.03268105164170265, -0.06645628064870834, 0.01987598091363907, 0.05971776694059372, 0.003450825810432434, -0.07028371840715408, 0.0592154785990715, 0.07819054275751114, 0.03613065183162689, -0.04687207564711571, 0.05475161224603653, -0.00841328501701355, -0.030316535383462906, 0.08073288947343826, -0.06504178047180176, 0.044352658092975616, 0.03215506672859192, -0.01731545478105545, -0.03204081580042839, -0.07637949287891388, -0.024197086691856384, 0.04504609853029251, 0.025713592767715454, -0.04296281933784485, -0.046390220522880554, -0.03657332807779312, -0.017722584307193756, 0.01093551516532898, 0.013397209346294403, 0.04404295235872269, 0.0587797686457634, -0.001888073980808258, -0.03799602761864662, -0.008160799741744995, 0.05466129630804062, -0.06536832451820374, -0.019315384328365326, 0.07150637358427048, -0.02426169440150261, -0.04058345407247543, -0.04132157564163208, 0.06398338824510574, 0.05337018519639969, 0.04457058757543564, 0.008471764624118805, -0.031171850860118866, -0.03374970331788063, 0.07850665599107742, 0.0003721863031387329, 0.023179911077022552, -0.004807829856872559, 0.04859190434217453, -0.08040665835142136, -0.06592658162117004, -0.011774376034736633, 0.021336913108825684, 0.025149300694465637, -0.04144487902522087, 0.06368767470121384, 0.07645849138498306, 0.016806647181510925, 0.04255543649196625, -0.07055038958787918, -0.0010742396116256714, -0.04618312790989876, 0.06899135559797287, 0.06828046590089798, 0.04005633294582367, -0.020823828876018524, -0.030241601169109344, 0.01458737999200821, -0.02846963331103325, 0.06387212127447128, 0.06353946775197983, -0.050962843000888824, -0.036090973764657974, -0.03716208040714264, -0.003993459045886993, -0.04828011617064476], [0.00392913818359375, -0.01662507653236389, -0.07391607016324997, 0.06858598440885544, -0.005106918513774872, 0.020300306379795074, 0.02398676425218582, -0.008268415927886963, -0.004387609660625458, 0.07525669783353806, -0.06449592113494873, 0.06440802663564682, 0.047947801649570465, 0.020118407905101776, -0.005871996283531189, -0.05240638554096222, -0.07801468670368195, -0.012043721973896027, 0.033829182386398315, 0.04493328183889389, 0.07227101176977158, 0.06059836596250534, 0.003987535834312439, 0.042674869298934937, -0.07517816126346588, -0.02498825639486313, -0.07786165922880173, 0.016461648046970367, -0.07119487971067429, 0.031731151044368744, -0.08084801584482193, -0.060193613171577454, 0.019658155739307404, 0.011230714619159698, -0.075576052069664, 0.005085311830043793, -0.03256318345665932, -0.07792673259973526, -0.026711508631706238, 0.03872370719909668, 0.0655885711312294, 0.02205142378807068, 0.046299465000629425, 0.010874316096305847, -0.029161982238292694, -0.05599232763051987, -0.004151389002799988, -0.012801937758922577, 0.028356097638607025, -0.05543401092290878, -0.018433205783367157, 0.03684744983911514, 0.08101900666952133, -0.06522129476070404, -0.06649395078420639, 0.011311762034893036, -0.00832010805606842, -0.037286177277565, 0.04039803892374039, 0.023854896426200867, 0.016626164317131042, 0.0061754509806632996, 0.022192634642124176, 0.060764141380786896, -0.01047426462173462, -0.032873254269361496, -0.07927124947309494, 0.030462324619293213, 0.07263083010911942, -0.06816468387842178, -0.05095607042312622, 0.010333321988582611, -0.0040856823325157166, -0.0499497652053833, 0.029316917061805725, -0.0293714739382267, 0.06531206518411636, 0.03031531721353531, -0.021180659532546997, -0.0696159303188324, -0.05153869837522507, 0.00700794905424118, 0.05838107317686081, 0.013904429972171783, 0.06172653287649155, -0.05709890276193619, 0.06310050934553146, -0.05574032664299011, 0.03835941106081009, -0.007207363843917847, -0.056419916450977325, 0.06260215491056442, -0.024017125368118286, -0.012427277863025665, 0.07698119431734085, 0.044357605278491974, 0.05413254350423813, 0.018977001309394836, -0.04037560522556305, 0.05105332285165787, 0.06490673869848251, -0.009860597550868988, -0.013945251703262329, -0.012103162705898285, 0.04915406554937363, 0.07549948245286942, -0.016478843986988068, 0.042124636471271515, 0.059827305376529694, -0.0007624104619026184, -0.03730671480298042, 0.011842504143714905, 0.049804918467998505, -0.030311856418848038, -0.07051242887973785, 0.07704634219408035, 0.0015370845794677734, 0.012151874601840973, -0.060177773237228394, -0.0539432018995285, -0.04215569421648979, -0.02168302983045578, -0.06063355505466461, -0.007134847342967987, -0.07385022193193436, 0.038560643792152405, 0.06701070815324783, -0.04869008809328079], [-0.008676208555698395, -0.066812664270401, 0.03183560073375702, 0.05506352335214615, 0.04804683476686478, 0.056691862642765045, -0.06873257458209991, -0.014394290745258331, -0.07007596641778946, 0.052421532571315765, 0.00581023097038269, -0.04471910372376442, 0.06687090545892715, 0.06602676957845688, 0.06690671294927597, -0.025239285081624985, 0.027649782598018646, -0.04719001427292824, -0.021047476679086685, 0.07394517213106155, -0.032036058604717255, -0.0052829161286354065, 0.021617993712425232, 0.06127072125673294, -0.006975576281547546, -0.021071474999189377, -0.04213164001703262, 0.06150277704000473, -0.055739980190992355, 0.023062661290168762, 0.02730543166399002, 0.03820756822824478, 0.06857109814882278, -0.018544577062129974, -0.017371945083141327, 0.05454186350107193, 0.0716313049197197, -0.046526189893484116, -0.034875888377428055, -0.04802434891462326, -0.03186025470495224, -0.05109049379825592, -0.024537518620491028, -0.010114550590515137, -0.03912627324461937, -0.05410676449537277, -0.031504470854997635, -0.02994479611515999, 0.028415292501449585, -0.011088177561759949, 0.010676383972167969, -0.06668812781572342, -0.05084647983312607, -0.009031042456626892, 0.07687530666589737, 0.004391111433506012, -0.057621076703071594, 0.06084912270307541, -0.04720250889658928, 0.06313011795282364, 0.03761543333530426, 0.014120906591415405, -0.0699910894036293, -0.0277257077395916, -0.021290577948093414, -0.0389396958053112, -0.021966800093650818, -0.07588333636522293, 0.0063325390219688416, -0.056965313851833344, -0.009497791528701782, -0.06953060626983643, -0.050433821976184845, -0.030705120414495468, 0.009154923260211945, -0.026718609035015106, -0.05720243975520134, -0.021110210567712784, -0.043281860649585724, -0.07374672591686249, -0.028552979230880737, -0.04672135040163994, -0.05883888527750969, -0.007009357213973999, -0.07574158161878586, 0.07367482036352158, 0.05484165996313095, 0.07289410382509232, 0.036405861377716064, 0.048925139009952545, -0.02246493473649025, 0.03341569006443024, 0.05393510311841965, 0.007103443145751953, -0.01867252215743065, -0.05676042288541794, -0.023674100637435913, 0.0030524134635925293, -0.0038626715540885925, 0.05085534602403641, -0.056331269443035126, 0.0384683683514595, -0.014488793909549713, 0.009337611496448517, 0.050363726913928986, -0.04289306327700615, 0.03856521099805832, -0.004854805767536163, 0.024446219205856323, 0.03323087841272354, -0.041128385812044144, -0.03468749672174454, -0.005677901208400726, -0.0444008894264698, 0.014885909855365753, 0.002647705376148224, 0.05054611712694168, -0.016427263617515564, -0.0685245469212532, -0.026274852454662323, 0.06724322587251663, -0.05320405215024948, 0.03213091194629669, 0.07171875983476639, -0.05404870957136154, 0.0005669444799423218, 0.05857343226671219, -0.07552470266819], [0.05682230740785599, -0.027494866400957108, 0.07324133068323135, 0.03598853945732117, -0.016396887600421906, 0.06062384694814682, -0.022097989916801453, -0.04927416145801544, -0.007046274840831757, -0.06323128938674927, 0.03277832269668579, 0.061005838215351105, -0.028948776423931122, -0.013484232127666473, -0.04746104031801224, -0.024311106652021408, -0.06129281967878342, -0.028092864900827408, 0.02671143412590027, 0.06670858711004257, -0.04624032974243164, -0.03038356453180313, -0.04167125001549721, -0.05212567001581192, -0.039851922541856766, -0.058855824172496796, -0.017247967422008514, -0.03690267726778984, 0.011748172342777252, -0.051612529903650284, 0.011428393423557281, 0.07091989368200302, 0.010155215859413147, 0.0009607821702957153, -0.049482569098472595, -0.07060854136943817, 0.06179528683423996, 0.02304241806268692, -0.032403912395238876, -0.009145177900791168, 0.01762908697128296, 0.06490889936685562, 0.06740245968103409, -0.04524713382124901, 0.029136471450328827, -0.01620255410671234, -0.020459439605474472, -0.03547539561986923, 0.00950361043214798, -0.052365757524967194, -0.07815742492675781, -0.04190739244222641, -0.01620984822511673, -0.07132522016763687, -0.07546462118625641, 0.0074420347809791565, -0.06391805410385132, -0.04185391962528229, 0.009169720113277435, -0.03404443711042404, -0.0004580840468406677, 0.07021776586771011, -0.0565682016313076, 0.06279485672712326, 0.020863592624664307, -0.03781662508845329, 0.05456600338220596, -0.07472321391105652, 0.06176484376192093, 0.055620454251766205, -0.009122088551521301, 0.02623838186264038, 0.06955350190401077, -0.0013082176446914673, 0.07484101504087448, 0.0597882941365242, 0.05292601138353348, 0.07902996987104416, 0.07941878587007523, 0.03639959543943405, 0.014960512518882751, -0.07842978090047836, 0.061947695910930634, 0.028519876301288605, 0.07478996366262436, 0.04273062199354172, -0.061656881123781204, 0.05916278809309006, 0.014568626880645752, 0.06313829869031906, 0.06860636919736862, -0.033773720264434814, 0.003833003342151642, -0.03766118362545967, -0.005805492401123047, 0.0016834363341331482, 0.07353923469781876, -0.004493296146392822, 0.05971509963274002, 0.012566141784191132, -0.07194675505161285, -0.07410264015197754, 0.02727212756872177, 0.06419285386800766, -0.06118464097380638, -0.03169910982251167, -0.021934468299150467, 0.025109387934207916, -0.03380340710282326, 0.0008885934948921204, -0.019556108862161636, 0.07649051398038864, 0.024099737405776978, -0.04525960981845856, -0.007382646203041077, -0.08043961226940155, -0.001975797116756439, 0.04152323305606842, 0.07600110024213791, 0.021248772740364075, 0.021114930510520935, -0.01464783400297165, -0.025063615292310715, -0.05174300819635391, 0.002169176936149597, 0.030098751187324524, -0.03194466605782509, 0.048739440739154816], [-0.0027886629104614258, 0.015469402074813843, 0.07284633070230484, 0.014003634452819824, 0.05305423587560654, 0.009484142065048218, 0.05239985138177872, -0.0006775185465812683, 0.002111472189426422, -0.043134406208992004, 0.0408075675368309, -0.0311502106487751, -0.03638419881463051, 0.0379074364900589, 0.03734879195690155, -0.02961697429418564, -0.010831400752067566, -0.023919910192489624, 0.034298546612262726, -0.06679433584213257, -0.04062017798423767, 0.002637527883052826, -0.013915494084358215, 0.07062878459692001, -0.06864825636148453, -0.06835806369781494, 0.029167070984840393, -0.06526337563991547, 0.026861168444156647, 0.033932797610759735, 0.0358249768614769, 0.009595006704330444, 0.011497043073177338, 0.06994036585092545, -0.02957123890519142, -0.0700383335351944, -0.05201668292284012, 0.06450887769460678, 0.05433177202939987, 0.005364447832107544, -0.04808955639600754, -0.06170445308089256, -0.06727558374404907, 0.04768345504999161, -0.06930448114871979, 0.04360968619585037, 0.068392314016819, -0.03963343799114227, 0.055456407368183136, 0.0709569975733757, -0.07585810124874115, -0.02852749079465866, -0.02730952948331833, -0.028071939945220947, -0.014970086514949799, 0.04855968803167343, 0.002096720039844513, 0.026159249246120453, -0.0757407695055008, 0.048132143914699554, -0.05322990566492081, 0.04044333100318909, 0.009649910032749176, 0.0022024959325790405, 0.07497250288724899, -0.03949097543954849, 0.059180863201618195, -0.0367242805659771, 0.01980249583721161, -0.03441996872425079, 0.05935283750295639, 0.06186022609472275, 0.012010246515274048, 0.055713288486003876, 0.0070542991161346436, -0.014927469193935394, 0.05980774015188217, -0.05059829354286194, -0.02194945514202118, -0.06906668096780777, 0.017949499189853668, 0.050506435334682465, -0.005279608070850372, -0.048831161111593246, 0.016994208097457886, 0.08077409118413925, 0.0009760037064552307, 0.06495065242052078, -0.00496143102645874, -0.04608061537146568, 0.039770953357219696, -0.02102401852607727, -0.04696603864431381, -0.012461192905902863, -0.04233844205737114, -0.026651736348867416, -0.0373988039791584, 0.0045439377427101135, -0.05625453591346741, -0.007331594824790955, 0.060984231531620026, 0.014658257365226746, 0.05748506635427475, -0.07031872123479843, 0.017573103308677673, 0.048137836158275604, -0.07871747761964798, 0.08103152364492416, 0.07506605237722397, 0.015252403914928436, -0.01495610922574997, 0.0765354260802269, -0.0601375475525856, -0.042890336364507675, -0.0582854226231575, -0.03553928807377815, 0.04557638615369797, 0.06675056368112564, -0.049358438700437546, -0.04322657361626625, -0.007327646017074585, -0.08020740002393723, 0.06369144469499588, 0.05782433599233627, 0.07611208409070969, -0.05645313858985901, 0.06422410160303116, 0.0014005601406097412], [0.011759288609027863, 0.062023572623729706, -0.017824016511440277, 0.03887762129306793, 0.008091375231742859, 0.07924631983041763, -0.008770264685153961, 0.028046414256095886, -0.052560724318027496, 0.009302280843257904, -0.06437520682811737, -0.01618403196334839, -0.07353518158197403, 0.07472667843103409, -0.01620446890592575, 0.03372696042060852, 0.0014843866229057312, 0.04136773943901062, -0.02292010188102722, -0.016588471829891205, 0.04533561319112778, 0.052331797778606415, 0.0059957802295684814, 0.06760569661855698, -0.07333485782146454, -0.04386380687355995, -0.06763307750225067, 0.07142706960439682, -0.0013031288981437683, -0.008667461574077606, 0.04886607080698013, 0.06295966356992722, -0.026744190603494644, -0.053497396409511566, -0.008606530725955963, 0.012414336204528809, -0.06122422590851784, 0.02741900086402893, 0.05392741411924362, -0.025142110884189606, -0.05807871371507645, 0.05840647965669632, 0.046386994421482086, -0.034908995032310486, -0.07685734331607819, 0.02326314151287079, -0.025809958577156067, 0.013545647263526917, 0.07642222195863724, 0.00791718065738678, -0.037524908781051636, 0.07695991545915604, 0.05426115542650223, -0.02156827598810196, -0.04286813735961914, -0.06631812453269958, 0.024018824100494385, -0.0746578499674797, 0.014363482594490051, 0.056884847581386566, 0.015789084136486053, 0.00979364663362503, -0.05976671725511551, -0.014749996364116669, 0.006455510854721069, -0.07315303385257721, 0.02401936799287796, -0.06021745502948761, 0.033353693783283234, -0.0044716522097587585, -0.007601246237754822, -0.06732802838087082, 0.08041027933359146, -0.07927229255437851, 0.040941111743450165, -0.04956522211432457, 0.013716019690036774, -0.051022112369537354, 0.0730673149228096, -0.04018912464380264, -0.028148461133241653, -0.03987795114517212, -0.03577699512243271, -0.07248193770647049, -0.02500322088599205, -0.004311278462409973, 0.028355032205581665, -0.08039604127407074, -0.03636578842997551, 0.016578704118728638, 0.013807274401187897, -0.07056684792041779, -0.04131227359175682, 0.05001985281705856, 0.07206032425165176, 0.03687428683042526, 0.00808926671743393, 0.07296723872423172, 0.0511157289147377, -0.0006588771939277649, -0.07661362737417221, -0.0502750538289547, 0.002474278211593628, 0.055429838597774506, 0.033628448843955994, 0.000254802405834198, -0.055988844484090805, 0.04246965050697327, -0.051978372037410736, -0.06968757510185242, -0.027597609907388687, 0.07029490917921066, 0.037842847406864166, -0.024334851652383804, -0.004367165267467499, 0.07769253104925156, -0.009234212338924408, 0.06514330953359604, -0.03035581111907959, 0.06702399998903275, -0.05227113515138626, 0.012100882828235626, 0.0675869956612587, -0.06291861087083817, -0.006857939064502716, -0.05870423465967178, -0.009420014917850494, 0.009904667735099792], [0.020455725491046906, -0.0078548863530159, -0.01871100440621376, -0.014359213411808014, 0.04232867807149887, -0.03757781535387039, -0.00483490526676178, 0.07893089205026627, -0.032780468463897705, -0.07527235895395279, 0.0227673277258873, -0.009451806545257568, 0.0381854847073555, -0.04442034661769867, 0.052374131977558136, -0.006472066044807434, 0.03385024517774582, 0.03552507609128952, 0.06530573219060898, 0.055238865315914154, 0.010462000966072083, -0.02545030415058136, -0.0023609325289726257, 0.017351970076560974, 0.04597955197095871, 0.010051406919956207, -0.07331081479787827, -0.06338813900947571, 0.01442372053861618, -0.06719429045915604, 0.0533083900809288, -0.07099567353725433, 0.015624381601810455, -0.018003977835178375, 0.0359608456492424, -0.06795118749141693, 0.07234177738428116, 0.04145773500204086, 0.0716538354754448, -0.07328154146671295, 0.019249573349952698, 0.059412144124507904, 0.04154377430677414, 0.04079093039035797, 0.04296914488077164, 0.015937872231006622, -0.06763315200805664, -0.06148701161146164, -0.0058244094252586365, 0.03642866015434265, 0.05331232398748398, 0.005456805229187012, -0.06080537661910057, -0.011195965111255646, 0.051896728575229645, -0.012570299208164215, 0.0005540996789932251, -0.05848276987671852, -0.07141321152448654, 0.049739666283130646, 0.0067707449197769165, 0.014494791626930237, 0.03942415863275528, 0.028553657233715057, -0.0708366334438324, 0.07144350558519363, 0.062190331518650055, -0.06944052875041962, -0.06936059892177582, 0.011999569833278656, 0.04199785739183426, -0.045233406126499176, 0.025970198214054108, -0.06616344302892685, 0.011704370379447937, 0.02661541849374771, 0.061539746820926666, -0.07020046561956406, -0.006297342479228973, -0.04379691556096077, 0.05121638625860214, -0.034454334527254105, -0.003789164125919342, -0.04099893569946289, 0.07872714847326279, -0.023924320936203003, -0.03375587239861488, -0.06652814149856567, 0.04392298310995102, 0.025638602674007416, 0.05971094220876694, -0.016675181686878204, -0.07283726334571838, -0.06534809619188309, 0.040723249316215515, 0.06839167326688766, 0.07841048389673233, -0.0451844222843647, -0.022771503776311874, -0.03150124102830887, 0.006161510944366455, 0.07656889408826828, 0.053579144179821014, -0.04700206592679024, -0.03495766967535019, 0.03343743085861206, -0.0051860511302948, -0.01396973431110382, 0.012678578495979309, 0.050382889807224274, -0.04275796562433243, 0.024183101952075958, 0.0631568506360054, -0.033758290112018585, 0.059138841927051544, -0.022766459733247757, -0.07230217009782791, 0.03018130362033844, -0.021976199001073837, 0.0469464436173439, 0.06378418952226639, -0.05096365511417389, 0.023330166935920715, 0.06234508007764816, 0.037282794713974, 0.06123008579015732, -0.044868431985378265, 0.035405777394771576], [0.017177864909172058, 0.021237477660179138, 0.06390438228845596, 0.032638370990753174, 0.008531823754310608, 0.054379262030124664, 0.010739214718341827, 0.062463633716106415, -0.08056855946779251, 0.040916360914707184, 0.021920233964920044, -0.047558873891830444, 0.00016167014837265015, -0.06620226800441742, 0.0037228912115097046, -0.06372484564781189, 0.016594097018241882, -0.05389048531651497, 0.0025001168251037598, 0.009020097553730011, 0.07345070689916611, -0.04904237389564514, 0.04064469784498215, 0.01877737045288086, -0.07848166674375534, 0.012922704219818115, -0.017475172877311707, 0.017280198633670807, 0.07113956660032272, -0.0005740150809288025, 0.038122788071632385, 0.050899140536785126, -0.025549452751874924, -0.03054875135421753, -0.06158654764294624, 0.011189833283424377, 0.05559840053319931, 0.003583483397960663, 0.05432116240262985, 0.05194251984357834, 0.013924308121204376, 0.017230696976184845, 0.062233783304691315, -0.015099018812179565, 0.00024203956127166748, -0.07047153264284134, 0.04159819334745407, -0.052226655185222626, 0.0498422309756279, -0.06498481333255768, 0.021159350872039795, -0.07738357782363892, 0.049688972532749176, -0.057048484683036804, -0.06535014510154724, 0.06399787217378616, 0.04046318680047989, -0.007968828082084656, -0.01712224632501602, 0.023925229907035828, 0.06051052361726761, 0.053192608058452606, 0.00914023071527481, 0.014617204666137695, -0.06710871309041977, 0.03499259799718857, -0.07126457244157791, 0.05232933908700943, 0.0231858491897583, 0.0540049746632576, -0.010101765394210815, -0.04196014627814293, -0.012874260544776917, 0.06851986795663834, -0.017832428216934204, -0.07033015042543411, -0.0775381475687027, 0.012172475457191467, 0.04112666845321655, -0.011324331164360046, 0.0587654635310173, 0.049560703337192535, -0.0774260088801384, -0.07719948142766953, -0.016423054039478302, -0.017328493297100067, -0.05452973395586014, -0.0234757661819458, 0.04919780045747757, -0.005598768591880798, -0.034744177013635635, -0.04326410964131355, 0.07413586229085922, -0.04729778692126274, -0.07096268236637115, -0.023199018090963364, -0.015437901020050049, -0.03441811352968216, -0.0018743053078651428, 0.001231364905834198, -0.030856270343065262, -0.07885048538446426, -0.01798705756664276, 0.021264106035232544, 0.009601019322872162, 0.05991207808256149, -0.04085654765367508, 0.04232887178659439, 0.004172511398792267, -0.011840514838695526, 0.033177733421325684, 0.003446236252784729, 0.017876654863357544, -0.0035387128591537476, -0.01772492378950119, -0.010702185332775116, -0.0724475160241127, -0.04939572140574455, -0.021338537335395813, -0.027759354561567307, 0.08106707781553268, -0.04566161334514618, -0.05623587220907211, 0.059271447360515594, -0.00921475887298584, -0.03533780202269554, -0.035617437213659286, -0.07326920330524445], [-0.07866859436035156, -0.06836630403995514, -0.016697555780410767, 0.019297458231449127, 0.0019177421927452087, -0.06374141573905945, -0.03744751587510109, 0.021161220967769623, -0.06692113727331161, 0.04930577427148819, 0.019513987004756927, 0.07409790903329849, -0.02303021401166916, -0.05724846571683884, -0.06715104728937149, 0.026663415133953094, 0.03914472460746765, 0.009966105222702026, -0.013802304863929749, -0.010302826762199402, 0.012598767876625061, 0.0061714500188827515, 0.0487055703997612, 0.02742253988981247, -0.07893873006105423, 0.07586268335580826, 0.020562298595905304, 0.0718267634510994, 0.06185842305421829, -0.08063026517629623, 0.06315592676401138, 0.012043386697769165, -0.006233491003513336, -0.039438314735889435, 0.0002261623740196228, 0.003329552710056305, -0.03829383850097656, 0.042073607444763184, -0.027768269181251526, -0.058725081384181976, -0.05204133689403534, 0.01432482898235321, -0.0279073528945446, -0.009403444826602936, 0.056882791221141815, -0.030396655201911926, -0.02078898251056671, 0.015717431902885437, 0.043601907789707184, -0.058346569538116455, -0.021887551993131638, 0.06145971268415451, 0.04264537990093231, 0.05372703820466995, -0.002223461866378784, -0.011284418404102325, 0.038516417145729065, 0.04991952329874039, 0.03142019361257553, -0.07067373394966125, 0.05659878998994827, 0.048399604856967926, -0.07807915657758713, -0.0008919015526771545, -0.02811005711555481, -0.053202077746391296, 0.04448170214891434, 0.03590276837348938, 0.010158717632293701, 0.0293637216091156, -0.024513691663742065, 0.02548045665025711, 0.06469757109880447, -0.012555934488773346, -0.03465373069047928, 0.04973464459180832, 0.033030107617378235, 0.07825370877981186, 0.04255398362874985, -0.06632816791534424, -0.05416547507047653, 0.027617141604423523, 0.04598570615053177, -0.015581175684928894, 0.016669459640979767, 0.021810278296470642, 0.058485500514507294, -0.05804935842752457, 0.04297900199890137, 0.005251586437225342, 0.006187774240970612, -0.07311509549617767, -0.07652310281991959, -0.017193198204040527, 0.05544654279947281, 0.058389462530612946, 0.06484463065862656, 0.025714173913002014, -0.05995282903313637, 0.0067869871854782104, 0.008795678615570068, 0.04420023411512375, -0.0032101795077323914, -0.07954107969999313, -0.030127041041851044, -0.05722591653466225, -0.07320691645145416, -0.028344105929136276, -0.05882900208234787, -0.05958404764533043, -0.060044050216674805, -0.06246056407690048, -0.04550398513674736, -0.07058653235435486, 0.0337819829583168, -0.06387670338153839, 0.011519670486450195, 0.054490841925144196, 0.0003612041473388672, -0.002577662467956543, -0.05401782691478729, -0.03648191690444946, 0.0749380961060524, 0.07616756111383438, -0.041628263890743256, -0.06466102600097656, -0.07252676784992218, 0.020386941730976105], [-0.00724145770072937, -0.06048063188791275, -0.053228460252285004, 0.006096705794334412, 0.027395546436309814, 0.07866954058408737, 0.01451517641544342, -0.07722189277410507, -0.07058318704366684, -0.07630949467420578, -0.08101912587881088, -0.03484291583299637, 0.050242386758327484, -0.06745430827140808, 0.06830040365457535, -0.008129358291625977, -0.00950227677822113, -0.006281368434429169, 0.023454919457435608, -0.023947082459926605, -0.05178622901439667, 0.00157938152551651, -0.0005855634808540344, -0.012494497001171112, 0.041675180196762085, 0.0735478326678276, -0.07837104797363281, 0.015034079551696777, -0.053891777992248535, -0.038261909037828445, 0.004619471728801727, -0.04199298098683357, -0.024061523377895355, -0.06348620355129242, -0.0740261822938919, 0.07676471024751663, 0.034690551459789276, -0.003379233181476593, 0.020154625177383423, 0.05585411936044693, -0.05025753378868103, 0.04307200014591217, 0.058278463780879974, 0.005406506359577179, -0.020323336124420166, 0.05936751514673233, -0.01578187197446823, 0.0007267296314239502, 0.016575708985328674, 0.033202238380908966, 0.07454381138086319, -0.01720178872346878, 0.026692211627960205, -0.07145904004573822, 0.07793691009283066, -0.07901236414909363, 0.0542946383357048, -0.07054774463176727, 0.07110894471406937, -0.07490944117307663, -0.03247171267867088, 0.07655376940965652, 0.003653295338153839, 0.013332925736904144, -0.004608355462551117, -0.05406470596790314, 0.048126690089702606, -0.02943258360028267, 0.049206413328647614, 0.07233049720525742, 0.011846587061882019, -0.011461809277534485, -0.07095179706811905, 0.05007521063089371, 0.06662295013666153, 0.02840268611907959, -0.06381221115589142, -0.07200819253921509, -0.06343987584114075, -0.03656889870762825, -0.02520287036895752, 0.00431002676486969, -0.06334136426448822, -0.0045760199427604675, -0.06396305561065674, -0.03623570129275322, 0.03919383883476257, -0.03328821435570717, 0.004028208553791046, 0.028193965554237366, -0.059652235358953476, -0.06189882382750511, 0.0602341964840889, -0.0052938759326934814, 0.037760719656944275, 0.05476606637239456, -0.06268848478794098, 0.040093593299388885, -0.06469354033470154, 0.00402841717004776, -0.07683301717042923, 0.051364801824092865, 0.06160149723291397, -0.023070339113473892, -0.05140851065516472, 0.02890472114086151, 0.013723775744438171, 0.060154370963573456, 0.05210701376199722, 0.02184288203716278, 0.04692994803190231, 0.03393776714801788, -0.03580275550484657, -0.02678244188427925, -0.051182735711336136, -0.035731278359889984, 0.030509360134601593, 0.013800621032714844, 0.013551585376262665, 0.028679028153419495, -0.0389317087829113, 0.07846791297197342, 0.03635022044181824, 0.0778818354010582, -0.02757575735449791, 0.07629262655973434, 0.03595111519098282, 0.07584965974092484], [0.018840782344341278, -0.04241153970360756, 0.04519113153219223, 0.03920801728963852, -0.06545904278755188, -0.026812341064214706, -0.04031793773174286, 0.04356033354997635, 0.05584908276796341, 0.05529294162988663, -0.04856958985328674, -0.006045497953891754, -0.06423164159059525, -0.05756118521094322, 0.012364253401756287, 0.03667672723531723, -0.02698824182152748, 0.010902993381023407, 0.03244519978761673, 0.0035240352153778076, 0.03331027925014496, -0.023867040872573853, -0.04409147799015045, 0.04139241576194763, -0.06945371627807617, -0.035056546330451965, 0.053729765117168427, -0.013380385935306549, 0.05610067397356033, -0.0011399537324905396, -0.022107526659965515, 0.0350947231054306, -0.029953207820653915, 0.056700192391872406, 0.049814336001873016, 0.06679437309503555, 0.04450083523988724, -0.06618496775627136, -0.0040735527873039246, 0.027006633579730988, -0.056873224675655365, 0.07525942474603653, 0.042550019919872284, 0.01013626903295517, 0.048366136848926544, -0.007853031158447266, -0.0396910086274147, 0.014508001506328583, -0.0017801448702812195, -0.032782576978206635, 0.05369146913290024, -0.07946900278329849, 0.03780008852481842, -0.077187180519104, 0.03355658799409866, -0.04230630025267601, 0.003108382225036621, -0.0019760429859161377, -0.0760059803724289, 0.054685063660144806, 0.06711830943822861, 0.035069771111011505, -0.06536051630973816, 0.01827852427959442, -0.013888925313949585, 0.047471173107624054, 0.02698957920074463, -0.041338901966810226, 0.049497686326503754, -0.0028945952653884888, 0.04311118274927139, -0.047283612191677094, -0.011527016758918762, -0.06855945289134979, -0.07222344726324081, -0.07364335656166077, -0.02394396811723709, 0.029312610626220703, 0.05601929873228073, -0.029087763279676437, -0.00042173266410827637, 0.056617043912410736, -0.03450329974293709, -0.013601958751678467, -0.0800376683473587, -0.03509729355573654, 0.03598529100418091, -0.0056184157729148865, 0.05424942821264267, -0.077707439661026, 0.0453166738152504, -0.06509163230657578, -0.07843838632106781, 0.02863350510597229, 0.054212771356105804, 0.0013988539576530457, -0.005178794264793396, -0.08075994998216629, -0.05996648222208023, -0.0428524911403656, 0.027691788971424103, -0.06689624488353729, 0.0031274259090423584, 0.06594762951135635, 0.056684710085392, 0.04373826086521149, 0.05567478388547897, -0.0749550387263298, -0.040143080055713654, 0.010063551366329193, -0.016087472438812256, 0.07118745893239975, -0.03451642766594887, -0.04199010133743286, 0.028683878481388092, 0.07182212918996811, 0.03489420562982559, 0.03675872087478638, -0.07817675918340683, -0.044002559036016464, 0.03424244374036789, -0.02922612801194191, -0.03479538485407829, -0.0011746063828468323, 0.02332177758216858, -0.08079510927200317, 0.02678656578063965, 0.017611585557460785], [-0.06498552858829498, -0.06933165341615677, 0.0401831716299057, -0.00263049453496933, -0.049546949565410614, 0.008547604084014893, -0.03336872160434723, 0.03736604005098343, 0.06445237249135971, 0.00312235951423645, 0.07049842923879623, 0.027113378047943115, -0.03894018009305, -0.04298155754804611, 0.0790596678853035, -0.03444715961813927, 0.0745830312371254, 0.06561628729104996, 0.03554605692625046, 0.03616807609796524, -0.04317669942975044, 0.02606479823589325, 0.028290562331676483, -0.03892579302191734, -0.028844021260738373, 0.03903514891862869, 0.029082059860229492, -0.035757578909397125, -0.014095589518547058, -0.0195864699780941, 0.06397687643766403, 0.030912697315216064, -0.03867240250110626, -0.0006095990538597107, 0.020233839750289917, -0.022359095513820648, 0.03376711159944534, 0.043881215155124664, -0.010184533894062042, 0.05035639554262161, 0.014212995767593384, -0.003926098346710205, 0.055635593831539154, -0.04737577959895134, -0.034312546253204346, 0.08041102439165115, 0.07291125506162643, -0.024775631725788116, -0.05644196271896362, 0.00838133692741394, 0.004028841853141785, -0.018006183207035065, 0.011170558631420135, -0.010890908539295197, -0.05119805037975311, 0.043788544833660126, 0.06111174076795578, 0.03051869571208954, -0.07374370843172073, -0.06420060247182846, -0.07730653882026672, -0.056765373796224594, 0.025755807757377625, -0.035636696964502335, -0.013281330466270447, 0.010560527443885803, 0.036780476570129395, -0.04911593720316887, 0.01292417198419571, -0.04650331288576126, -0.033273614943027496, -0.0265648290514946, 0.03400682657957077, 0.06046382337808609, 0.009073436260223389, -0.042975250631570816, 0.008837290108203888, 0.05614691227674484, -0.04373108968138695, 0.061202310025691986, -0.028962042182683945, -0.06865137070417404, 0.012986809015274048, 0.005493588745594025, 0.009423337876796722, -0.07399357855319977, -0.015625715255737305, -0.02654257044196129, 0.044672928750514984, 0.07851991802453995, 0.0358700305223465, 0.00035078078508377075, 0.05779125541448593, 0.07393411546945572, -0.06391896307468414, -0.048714105039834976, -0.07426588237285614, -0.015735380351543427, 0.058311544358730316, 0.04162319749593735, 0.0009933486580848694, 0.03354862332344055, 0.0799688771367073, 0.0029342174530029297, -0.07705732434988022, 0.04350724816322327, -0.016388744115829468, -0.00818072259426117, 0.042326509952545166, 0.007699020206928253, -0.06773065775632858, 0.0005137771368026733, 0.04305295646190643, 0.05492834001779556, 0.06424351781606674, 0.05250207334756851, -0.012089475989341736, -0.04418526962399483, 0.001453407108783722, 0.06499718874692917, 0.023782044649124146, 0.07861127704381943, -0.016095727682113647, -0.07415506988763809, -0.01356380432844162, -0.03396602347493172, 0.0436662882566452, -0.02406933903694153], [0.043059177696704865, 0.05145309120416641, 0.0059065744280815125, -0.0007012486457824707, 0.008149892091751099, 0.06469471007585526, 0.01769106090068817, -0.008095420897006989, 0.008474215865135193, 0.0036588460206985474, -0.027465779334306717, 0.018228374421596527, -0.0791449323296547, 0.03360506892204285, 0.0392552986741066, -0.042034540325403214, 0.06855381280183792, -0.004461884498596191, -0.06301102787256241, -0.037873249500989914, -0.046503640711307526, -0.061023980379104614, 0.04974230378866196, 0.0015237629413604736, 0.00776807963848114, 0.0019164606928825378, -0.0008995756506919861, 0.02631053328514099, 0.008473560214042664, -0.047843728214502335, -0.049194566905498505, -0.03455284237861633, -0.040531355887651443, 0.024103298783302307, -0.01166696846485138, -0.048301368951797485, -0.013194791972637177, 0.012968569993972778, 0.041721783578395844, 0.06245409697294235, 0.03282322734594345, 0.054142870008945465, -0.00483480840921402, -0.028835706412792206, -0.057073451578617096, -0.068407341837883, 0.03871173411607742, 0.01680564135313034, -0.05395091697573662, -0.01919705420732498, -0.07097715139389038, 0.02058691531419754, 0.06426917761564255, -0.060446981340646744, -0.0026231855154037476, -0.07614318281412125, 0.04096052795648575, 0.07738315314054489, -0.07006588578224182, -0.03163919970393181, 0.0054714009165763855, 0.026690103113651276, 0.041335515677928925, 0.05997564643621445, 0.06860216706991196, 0.06623948365449905, -0.07384612411260605, 0.01502969115972519, -0.055503763258457184, -0.018124394118785858, -0.07233450561761856, -0.019186899065971375, -0.013812422752380371, 0.011867895722389221, 0.05597362667322159, 0.04470457881689072, 0.058270491659641266, -0.019686874002218246, 0.06971574574708939, 0.03771968185901642, 0.0029822587966918945, 0.0006910189986228943, -0.06193939596414566, -0.05648539215326309, -0.07273289561271667, -0.06349995732307434, 0.06879469007253647, 0.06678152829408646, 0.015177510678768158, -0.04410891979932785, 0.03467503935098648, -0.028772935271263123, -0.0645219087600708, -0.0520990788936615, -0.06865011155605316, 0.007915958762168884, -0.053862735629081726, 0.021545730531215668, 0.07661115378141403, 0.04818984121084213, -0.01175563782453537, -0.06145239621400833, 0.04707954078912735, 0.07580605894327164, 0.0065045952796936035, 0.07548440247774124, -0.08026868104934692, -0.0680074468255043, -0.04992613196372986, 0.027533195912837982, -0.04869689419865608, -0.04403425753116608, 0.03391825407743454, -0.04201309382915497, 0.03699006885290146, 0.019348062574863434, -0.028340432792901993, -0.06898105144500732, -0.07458960264921188, 0.033702999353408813, 0.06702298671007156, 0.015267066657543182, -0.0466490276157856, 0.061829574406147, -0.04796428233385086, 0.04710730165243149, 0.011879093945026398, 0.0157717764377594], [-0.01924806833267212, -0.04069296643137932, 0.059665121138095856, -0.02367502823472023, 0.0592447891831398, 0.06656122952699661, -0.04982644319534302, -0.021296262741088867, 0.004358656704425812, -0.04662199318408966, 0.0538778230547905, 0.005528703331947327, 0.0637015625834465, 0.07510868459939957, -0.07416978478431702, -0.023971233516931534, -0.06729885190725327, -0.028203535825014114, -0.0679178535938263, -0.016179159283638, -0.0416029691696167, 0.05855318158864975, -0.05095529928803444, -0.047733113169670105, 0.06328660994768143, -0.05778084695339203, -0.0612882524728775, 0.02560935914516449, 0.04229292273521423, -0.06658561527729034, -0.03255560249090195, -0.04024310037493706, -0.056378453969955444, 0.02403373271226883, 0.05865616351366043, 0.017101943492889404, -0.07283701002597809, 0.02512315660715103, -0.06448017805814743, -0.04273104667663574, -0.07447237521409988, 0.034106187522411346, -0.009399361908435822, 0.010934650897979736, -0.034135136753320694, -0.0701269805431366, 0.04546200484037399, 0.056023500859737396, -0.004785299301147461, 0.04122838377952576, 0.06156303733587265, 0.017370276153087616, -0.035121407359838486, 0.007428772747516632, 0.037540435791015625, -0.05766885727643967, -0.011249922215938568, -0.05136844143271446, 0.06517206877470016, 0.009638845920562744, -0.04580177739262581, -0.05712541565299034, 0.0679992064833641, -0.04177767038345337, -0.055707141757011414, -0.08008475601673126, -0.015943653881549835, 0.01981613039970398, 0.009837470948696136, 0.003168255090713501, 0.0344400629401207, -0.07435734570026398, -0.014795832335948944, -0.008095033466815948, 0.008223652839660645, 0.003587096929550171, -0.06132635101675987, 0.023741960525512695, 0.017340421676635742, -0.061100073158741, 0.00557766854763031, 0.009331464767456055, 0.039076440036296844, 0.0015312284231185913, -0.06035429239273071, -0.028027057647705078, 0.04032163321971893, -0.02969161793589592, -0.05312882736325264, 0.044898711144924164, 0.0007749423384666443, 0.07712502032518387, -0.04959121346473694, -0.020644620060920715, 0.06087783724069595, 0.03976254165172577, -0.019790273159742355, -0.013133235275745392, 0.03083927184343338, 0.029876187443733215, -0.03249269351363182, 0.04935867339372635, 0.05101872235536575, -0.026840630918741226, 0.003268226981163025, -0.04346729442477226, -0.03515731915831566, 0.05181386321783066, 0.06675373762845993, 0.05746925622224808, 0.02829759567975998, 0.02364209294319153, 0.05813171714544296, -0.05576794594526291, -0.017552658915519714, -0.055093638598918915, -0.04282128065824509, 0.07029268890619278, 0.022481702268123627, 0.07189735025167465, -0.03606703132390976, 0.0452834889292717, -0.05821346491575241, 0.017313674092292786, 0.030397683382034302, 0.027615457773208618, -0.06953791528940201, 0.07632573693990707], [-0.06364961713552475, 0.011896364390850067, 0.04923281818628311, -0.051396407186985016, 0.0751352533698082, 0.031523361802101135, -0.04475501552224159, -0.04766475036740303, 0.07397492974996567, -0.0100029855966568, -0.031064853072166443, -0.07370491325855255, -0.037106599658727646, -0.05227966234087944, 0.003247499465942383, -0.007494054734706879, 0.026577919721603394, 0.06049367040395737, -0.056219495832920074, -0.06936626881361008, 0.06304391473531723, -0.04767743870615959, 0.004594452679157257, -0.004423558712005615, -0.0499265193939209, -0.0701947808265686, 0.0781906321644783, 0.03960975259542465, 0.07250074297189713, 0.00899774581193924, 0.06682314723730087, -0.042660366743803024, -0.04071704298257828, -0.00419403612613678, 0.01744966208934784, 0.06522312015295029, 0.020410530269145966, -0.07211864739656448, -0.06179124489426613, -0.05996054410934448, 0.07781701534986496, 0.01025349646806717, -0.03955715149641037, -0.004266127943992615, 0.04260241240262985, -0.029859166592359543, 0.0009954795241355896, -0.03366660699248314, -0.04485149309039116, -0.0061849504709243774, 0.05117625743150711, 0.07019377499818802, 0.02901802957057953, 0.045996032655239105, 0.06793264299631119, -0.02191847562789917, -0.05761788412928581, 0.08081042021512985, 0.004032038152217865, 0.012856312096118927, -0.04518498107790947, -0.004134722054004669, 0.04052338749170303, -0.0800829529762268, 0.00026019662618637085, 0.041966795921325684, 0.009852111339569092, 0.03825048357248306, 0.02190762758255005, 0.03033057600259781, -0.028045080602169037, 0.046089254319667816, -0.020631104707717896, -0.002326957881450653, -0.01924118399620056, -0.0032536908984184265, 0.05927859991788864, -0.033558428287506104, -0.07631543278694153, 0.005757085978984833, 0.07730302959680557, 0.04767123609781265, 0.040561288595199585, -0.06567296385765076, -0.06676236540079117, 0.07933660596609116, 0.053347520530223846, 0.0777028426527977, -0.07534700632095337, -0.05014844611287117, 0.06700017303228378, -0.04639697074890137, -0.0734439268708229, -0.07608752697706223, -0.024154871702194214, -0.0592765286564827, -0.07749032974243164, 0.04776648432016373, 0.062149353325366974, -0.08039870858192444, -0.0016913637518882751, -0.020916171371936798, -0.010633818805217743, -0.06380552053451538, 0.057989396154880524, 0.07845016568899155, 0.0625796690583229, 0.06683569401502609, 0.01687701791524887, 0.026184499263763428, 0.058815740048885345, -0.0003079026937484741, -0.08110594749450684, 0.05593981593847275, 0.018835388123989105, 0.011558599770069122, -0.03416886180639267, 0.015027113258838654, 0.013275548815727234, -0.07758096605539322, -0.034178510308265686, -0.02090388908982277, -0.05369696766138077, 0.06392849236726761, 0.030435003340244293, 0.03534016013145447, 0.01396043598651886, -0.02765195071697235], [-0.012885712087154388, 0.06150706857442856, -0.06985661387443542, 0.04432601481676102, 0.014707185328006744, -0.016712523996829987, 0.07259208709001541, 0.0509682223200798, 0.04056765139102936, 0.0218915194272995, -0.06854669004678726, 0.008610397577285767, 0.021990008652210236, 0.02343107759952545, -0.06345263868570328, -0.07269506901502609, 0.046041809022426605, -0.06024230271577835, -0.0396558903157711, -0.04612300544977188, -0.02697768062353134, -0.010324522852897644, -0.009823083877563477, 0.054211728274822235, -0.056754060089588165, 0.009085752069950104, 0.04802194982767105, 0.047258161008358, 0.07178560644388199, 0.009853079915046692, 0.03365980088710785, -0.04139084741473198, -0.030337944626808167, 0.005120106041431427, -0.05479128286242485, 0.0777403935790062, -0.040517933666706085, 0.005999013781547546, 0.02480606734752655, -0.0032773613929748535, 0.04037223756313324, -0.004743106663227081, -0.00587046891450882, 0.07209642976522446, 0.001982256770133972, -0.08045487105846405, -0.07602005451917648, -0.07054909318685532, 0.07911361008882523, -0.026065707206726074, -0.06472906470298767, 0.03452404588460922, 0.06032717972993851, 0.012066945433616638, -0.05946709215641022, -0.022032957524061203, 0.052757374942302704, -0.0001329481601715088, 0.009848743677139282, -0.07956209778785706, -0.05788303166627884, 0.008748918771743774, -0.008953072130680084, -0.0008789077401161194, -0.01995782181620598, 0.038167230784893036, -0.06369180977344513, -0.02012418955564499, -0.07181801646947861, -0.040663182735443115, -0.009252391755580902, -0.07203754782676697, 0.03183014690876007, -0.023046594113111496, -0.035560134798288345, 0.017138279974460602, -0.051007647067308426, 0.07477041333913803, -0.03405240550637245, -0.022770345211029053, -0.06560512632131577, 0.06980863958597183, -0.038047369569540024, -0.03547607362270355, -0.021194949746131897, -0.03237918019294739, 0.08080903440713882, -0.019788186997175217, -0.057248927652835846, 0.020772814750671387, 0.05824048072099686, 0.06206163018941879, 0.027840733528137207, 0.010674357414245605, 0.015500552952289581, -0.05574100464582443, -0.06286633759737015, -0.01669442653656006, -0.0402178056538105, 0.028290152549743652, -0.032944515347480774, 0.026473432779312134, 0.0022022873163223267, 0.008985422551631927, 0.046253494918346405, 0.0342499241232872, -0.06112045794725418, -0.04586555436253548, -0.03322445601224899, 0.01601412147283554, 0.07342135161161423, 0.009239241480827332, 0.038491204380989075, 0.06562895327806473, 0.018335528671741486, -0.047351084649562836, -0.06606777012348175, -0.04405038431286812, -0.06549404561519623, 0.021810874342918396, -0.052589982748031616, 0.031958647072315216, -0.004433341324329376, -0.004140526056289673, 0.027735494077205658, -0.019573085010051727, 0.042748451232910156, -0.055018529295921326], [-0.030144289135932922, 0.052421487867832184, 0.02084067463874817, 0.07327742129564285, 0.07612045854330063, -0.0010647103190422058, -0.010574199259281158, 0.06746477633714676, 0.07687781006097794, 0.012610696256160736, 0.07165244966745377, 0.0418146476149559, 0.022916674613952637, 0.04381776601076126, -0.03457620367407799, -0.018344387412071228, 0.03169752657413483, -0.000982619822025299, -0.0205518938601017, -0.0796336680650711, -0.07143716514110565, 0.027590475976467133, 0.06856460124254227, -0.026326969265937805, 0.05374086648225784, -0.05908595025539398, 0.0013793781399726868, 0.028978481888771057, -0.0612918883562088, -0.011296465992927551, 0.021893449127674103, -0.03115268424153328, 0.07255927473306656, 0.06000172346830368, -0.015075713396072388, -0.01640699803829193, -0.024385247379541397, 0.043799176812171936, -0.06652816385030746, 0.061173953115940094, -0.07113993912935257, 0.06986302882432938, 0.020697996020317078, -0.006237700581550598, -0.07841282337903976, -0.07256399095058441, -0.048464544117450714, -0.07712338119745255, 0.020803526043891907, 0.0031245052814483643, 0.009244464337825775, -0.018696848303079605, 0.023587234318256378, 0.023695141077041626, 0.024920456111431122, 0.03125157952308655, -0.02193303406238556, 0.004478573799133301, 0.06581131368875504, -0.028449077159166336, -0.04018378630280495, 0.04899018257856369, 0.0035011619329452515, -0.05662399157881737, -0.04524972662329674, -0.024791914969682693, 0.024669021368026733, -0.07201723754405975, -0.0038700178265571594, 0.00043667852878570557, 0.05216021090745926, -0.04093947261571884, 0.010523706674575806, 0.00233430415391922, 0.06295674294233322, 0.06909842044115067, 0.043017446994781494, 0.01320018619298935, -0.04673156142234802, -0.020452242344617844, 0.03420134633779526, -0.07863749563694, -0.006610311567783356, -0.020652413368225098, -0.07950249314308167, 0.0026226043701171875, -0.06847875565290451, -0.07433924823999405, -0.024563122540712357, -0.0008184164762496948, 0.07257694751024246, 0.022034674882888794, -0.07301399111747742, -0.0764545276761055, -0.05538123846054077, 0.07272552698850632, 0.0011358708143234253, -0.051076896488666534, -0.04820560663938522, 0.07616987079381943, 0.040603697299957275, 0.07947301119565964, -0.02886730432510376, 0.07469054311513901, -0.06002641096711159, 0.020770497620105743, 0.06778249889612198, 0.03709536790847778, -0.007895074784755707, 0.034209854900836945, -0.07685071229934692, -0.04099885746836662, 0.03690873086452484, 0.04373127967119217, -0.0279136560857296, -0.013126663863658905, 0.046532101929187775, 0.04281602054834366, 0.02695561945438385, -0.04332622140645981, 0.07547365874052048, -0.06691186875104904, -0.07443872094154358, 0.0007530748844146729, -0.020623408257961273, 0.005044490098953247, -0.03345823660492897, -0.045764241367578506], [-0.001525387167930603, -0.01381240040063858, 0.0412442609667778, 0.0007015541195869446, 0.047140948474407196, 0.03892708569765091, -0.020265746861696243, 0.04967813938856125, 0.04323090612888336, 0.04074870049953461, 0.003922216594219208, 0.07299252599477768, 0.011477664113044739, 0.07589917629957199, -0.0414409339427948, 0.029466234147548676, 0.04511960595846176, -0.07566896826028824, -0.06213902682065964, 0.06955201178789139, -0.023140866309404373, 0.011781804263591766, -0.012879543006420135, -0.051063358783721924, 0.042230069637298584, -0.07646412402391434, 0.03691849857568741, -0.002789124846458435, -0.06194527447223663, -0.051166974008083344, 0.054730676114559174, 0.022187814116477966, 0.00030013173818588257, -0.0589112862944603, -0.02702227607369423, 0.05509345978498459, 0.03898832947015762, 0.08091001957654953, 0.03938097506761551, -0.0041960254311561584, -0.0027942880988121033, -0.004302427172660828, 0.05938125401735306, 0.04888414591550827, 0.01040910929441452, 0.051231108605861664, -0.019534893333911896, -0.07844968140125275, -0.0602940171957016, 0.03584444522857666, -0.02534516155719757, -0.04214856028556824, 0.037040576338768005, -0.04319915175437927, 0.045493848621845245, 0.06104614585638046, 0.06549396365880966, 0.05772452801465988, -0.052298419177532196, 0.0310729518532753, -0.058141447603702545, 0.06417065113782883, -0.012893714010715485, -0.03069009631872177, -0.06891997903585434, -0.001960963010787964, -0.018016181886196136, -0.03557775169610977, -0.015563271939754486, -0.016929462552070618, 0.01121489703655243, 0.0717071071267128, 0.02677024155855179, 0.06876344233751297, 0.050120316445827484, 0.04661748558282852, -0.0373113751411438, 0.06791684776544571, -0.04965754225850105, -0.05921716243028641, -0.04101964831352234, 0.01833854615688324, 0.03241077810525894, 0.024945884943008423, 0.07579255849123001, -0.03727012500166893, -0.03600112721323967, -0.026364445686340332, 0.012143366038799286, -0.050672806799411774, -0.0541052371263504, -0.04574326053261757, -0.06674103438854218, 0.04302655905485153, -0.024300120770931244, 0.01020762324333191, -0.0801323652267456, -0.004767008125782013, -0.07961057871580124, 0.05849326401948929, -0.025772366672754288, 0.06805800646543503, -0.01806475967168808, 0.00891120731830597, -0.05904565006494522, -0.03788386657834053, 0.0016129091382026672, 0.018192410469055176, 0.08066285401582718, -0.0486827977001667, 0.051395125687122345, 0.07286340743303299, 0.007130980491638184, 0.030204705893993378, 0.06826876848936081, 0.006803274154663086, -0.05943365395069122, -0.029479246586561203, 0.0005675181746482849, -0.007015779614448547, -0.05125794559717178, 0.024189718067646027, 0.07748938351869583, -0.05798863619565964, 0.027247123420238495, 0.06152323633432388, 0.02924542874097824, -0.06522803008556366], [0.017780929803848267, 0.06546894460916519, -0.0633552074432373, 0.07464876025915146, -0.0421733520925045, -0.06975063681602478, 0.018155433237552643, 0.058833591639995575, 0.034080907702445984, -0.03939805179834366, -0.053746819496154785, 0.02244757115840912, -0.04012526944279671, -0.009205259382724762, -0.05045321583747864, 0.00648430734872818, -0.0740501806139946, -0.010399751365184784, -0.054796252399683, 0.06326747685670853, 0.010981619358062744, 0.004269778728485107, -0.030240904539823532, -0.008488528430461884, 0.07532844692468643, -0.04957359656691551, 0.004448562860488892, 0.038796015083789825, -0.029918670654296875, -0.044022150337696075, 0.061615727841854095, 0.05849183350801468, 0.03308021277189255, -0.06866016983985901, -0.05611526221036911, 0.013532131910324097, 0.008506126701831818, 0.06919365376234055, -0.052644673734903336, -0.04171362146735191, -0.055149950087070465, -0.03795982524752617, 0.07583708316087723, 0.05349002033472061, 0.07742232829332352, 0.025431141257286072, 0.03076663613319397, 0.03138018399477005, -0.050832364708185196, 0.06405342370271683, 0.05241701751947403, -0.027506276965141296, -0.015994243323802948, 0.06366976350545883, 0.033617354929447174, -0.02993551269173622, -0.0044388547539711, 0.07292801886796951, 0.05405338853597641, -0.04263298213481903, 0.0445697084069252, -0.07160883396863937, -0.06700720638036728, 0.04850005358457565, -0.042537763714790344, -0.05470184236764908, -0.055655550211668015, 0.022753968834877014, -0.040275394916534424, -0.04511371999979019, -0.047549087554216385, 0.0015067607164382935, -0.07336409389972687, 0.04075751453638077, 0.023829713463783264, -0.009841032326221466, -0.014551855623722076, 0.05553371459245682, 0.037851281464099884, 0.07225248962640762, -0.07335403561592102, -0.008473865687847137, 0.029969781637191772, -0.0005973577499389648, 0.023064792156219482, -0.06992097198963165, -0.04717400297522545, -0.051040541380643845, 0.009254418313503265, -0.05417686700820923, -0.03217477351427078, -0.046825334429740906, 0.07331309467554092, -0.05632045865058899, -0.05483870208263397, -0.07908423244953156, -0.019408710300922394, 0.02640913426876068, 0.01976683735847473, 0.031110428273677826, 0.023392364382743835, 0.04277854412794113, 0.07243763655424118, 0.019533328711986542, -0.07472334802150726, 0.04248661547899246, -0.05297098681330681, 0.04616145044565201, -0.03791418671607971, 0.0037322938442230225, -0.0307442806661129, -0.039677973836660385, 0.07036475092172623, 0.07327976077795029, 0.028433799743652344, -0.03968820720911026, -0.07860705256462097, 0.03229036182165146, -0.0289720818400383, 0.016318567097187042, 0.038778938353061676, -0.07070140540599823, -0.036637142300605774, 0.0448218509554863, -0.040003690868616104, -0.07594212144613266, -0.03936386480927467, 0.0660221204161644], [0.017007239162921906, -0.0158613920211792, -0.05182262137532234, -0.040589600801467896, 0.03537164628505707, -0.013555765151977539, -0.052743956446647644, 0.037173837423324585, -0.0762195885181427, -0.061557210981845856, -0.028277620673179626, 0.040608979761600494, 0.0374903678894043, 0.03721533715724945, -0.06769029796123505, 0.07375090569257736, 0.04207805544137955, 0.04241989552974701, -0.043053824454545975, -0.001671023666858673, -0.00454411655664444, -0.06241113319993019, -0.050613515079021454, -0.010887794196605682, 0.019766181707382202, -0.0012193173170089722, 0.08020973950624466, 0.062275566160678864, -0.04876169562339783, -0.029389962553977966, 0.011415667831897736, -0.03192710876464844, 0.049751974642276764, -0.06885598599910736, -0.06981368362903595, 0.0015753582119941711, -0.03174035623669624, -0.01947478950023651, 0.06360390037298203, 0.02704492211341858, -0.05116111785173416, 0.05719143897294998, 0.012391366064548492, 0.02466236799955368, -0.037819333374500275, 0.024451017379760742, -0.07945948839187622, -0.0621752068400383, -0.013067543506622314, -0.06396171450614929, 0.049520961940288544, 0.012187458574771881, -0.007284469902515411, -0.003082193434238434, -0.07106120884418488, 0.008655592799186707, -0.04388192668557167, -0.04020140692591667, -0.046953123062849045, -0.06636852025985718, -0.04298084229230881, 0.07804260402917862, 0.06725011020898819, -0.05400953069329262, -0.02769474685192108, 0.04464266449213028, 0.0017484351992607117, -0.057556793093681335, 0.057105980813503265, 0.05910707265138626, -0.006223820149898529, -0.004842020571231842, -0.03997106850147247, -0.0348396860063076, -0.0011851117014884949, 0.07718200236558914, 0.08070496469736099, 0.03766520321369171, -0.07399703562259674, 0.054553426802158356, 0.05810483545064926, -0.07943841069936752, 0.029833540320396423, -0.07036682963371277, 0.027293726801872253, -0.03664718195796013, 0.011569350957870483, -0.026638932526111603, 0.015775680541992188, 0.06183715909719467, 0.05964260548353195, -0.06705740839242935, 0.07859276980161667, -0.05296596139669418, -0.030161093920469284, -0.03716519474983215, -0.04097876697778702, -0.057847894728183746, 0.017305590212345123, -0.05884816497564316, -0.004936836659908295, 0.030833490192890167, 0.07486722618341446, -0.02737409994006157, -0.07103683054447174, -0.07514090090990067, -0.020931273698806763, -0.031858958303928375, -0.04238121956586838, 0.059394605457782745, -0.005971841514110565, -0.002346508204936981, 0.02784246951341629, 0.03494689613580704, 0.07424811273813248, 0.06120152026414871, 0.012110844254493713, 0.07655290514230728, 0.027287542819976807, 0.047865040600299835, -0.041869644075632095, 0.06427855044603348, 0.06419574469327927, 0.03965701162815094, -0.05844276025891304, 0.0481262281537056, 0.0184292271733284, -0.05263008922338486], [-0.022833969444036484, -0.03803052753210068, -0.06082937866449356, -0.0657518059015274, -0.0561799630522728, 0.009244404733181, 0.08052472025156021, -0.03135304898023605, 0.005146116018295288, 0.0725516602396965, -0.03849108889698982, 0.01626511663198471, -0.04888058826327324, 0.02530772238969803, 0.05034346133470535, 0.04076952487230301, 0.06642096489667892, 0.07488761097192764, 0.07180171459913254, 0.022046513855457306, -0.06335605680942535, 0.031674183905124664, -0.057497911155223846, 0.0024749934673309326, -0.02498539164662361, 0.04713886231184006, -0.04473092034459114, -0.0750386193394661, 0.029077142477035522, 0.04516545683145523, -0.04766885191202164, 0.06068236380815506, 0.04845946282148361, 0.041509754955768585, 0.04503098875284195, -0.009401433169841766, -0.0206843800842762, -0.0361412912607193, 0.08057741075754166, 0.0757315531373024, -0.07974354922771454, 0.057012028992176056, -0.06287490576505661, -0.05349983274936676, 0.013163313269615173, 0.06318619102239609, 0.044994957745075226, -0.06237698346376419, -0.02877691760659218, -0.0300331711769104, -0.06560935825109482, 0.02505934238433838, -0.015409782528877258, -0.0014163777232170105, -0.07233180105686188, 0.0650954619050026, 0.04638538509607315, 0.06075754016637802, -0.01723071187734604, -0.0608549602329731, 0.008699700236320496, 0.017788797616958618, 0.006555140018463135, 0.06616870313882828, 0.01993411034345627, -0.067369744181633, 0.03394254297018051, 0.07448763400316238, -0.06174088642001152, -0.07870865613222122, -0.06562688201665878, 0.023251153528690338, -0.03902873024344444, -0.04343732073903084, -0.00022316724061965942, 0.07319421321153641, -0.0014941766858100891, -0.046896789222955704, -0.01962032914161682, 0.015333645045757294, -0.07339124381542206, -0.03287068009376526, 0.07234085351228714, -0.04015698656439781, -0.0044726356863975525, -0.03364771232008934, -0.07532372325658798, 0.005088135600090027, 0.05558639019727707, -0.055773839354515076, -0.07750634104013443, -0.06031224876642227, 0.06250987201929092, -0.010518349707126617, 0.044432081282138824, 0.073361836373806, 0.05665319412946701, 0.0024000778794288635, 0.008039511740207672, 0.043032631278038025, -0.07737652212381363, 0.033975422382354736, 0.050862111151218414, 0.08050259202718735, 0.002290986478328705, 0.025461792945861816, 0.019068509340286255, 0.06470663100481033, -0.01803555339574814, -0.02419169247150421, 0.04229079186916351, -0.0340663306415081, 0.023474082350730896, 0.0047659799456596375, 0.05020526796579361, 0.0358709990978241, -0.013765446841716766, -0.06222904473543167, 0.034069888293743134, -0.005639009177684784, 0.07461857050657272, -0.05140667408704758, 0.07280062884092331, 0.05188757926225662, -0.037660855799913406, 0.060233138501644135, 0.03598656505346298, 0.04755055159330368], [-0.0488194040954113, -0.03263448178768158, -0.025504685938358307, 0.013292007148265839, -0.07963860034942627, 0.04695584625005722, 0.0006573498249053955, 0.03250029683113098, 0.041598498821258545, 0.0054901838302612305, -0.0455084927380085, -0.018982745707035065, -0.05518195405602455, -0.005517259240150452, -0.042869530618190765, -0.07037141919136047, -0.029498644173145294, 0.009629331529140472, 0.06198004633188248, -0.023744627833366394, -0.06804116815328598, -0.02086024358868599, 0.024697311222553253, 0.01194760948419571, -0.05673433840274811, -0.07508829981088638, 0.027787163853645325, 0.014560945332050323, 0.05393334478139877, -0.02842799574136734, -0.006544582545757294, 0.01542045921087265, -0.010079950094223022, 0.050585515797138214, -0.05074555426836014, 0.056818149983882904, -0.032380569726228714, 0.005702652037143707, -0.014792442321777344, 0.06917241960763931, 0.019541509449481964, 0.028068557381629944, -0.041171375662088394, -0.0714230090379715, -0.015482768416404724, 0.05815928429365158, 0.0030764341354370117, -0.002631843090057373, 0.05539374798536301, 0.0170462504029274, -0.015091069042682648, -0.07649625837802887, -0.04764624312520027, 0.06507962197065353, -0.011846102774143219, 0.02951040118932724, 0.026566199958324432, 0.06063603609800339, -0.02075164020061493, 0.07300231605768204, 0.028134845197200775, -0.07769088447093964, 0.019136793911457062, -0.028598349541425705, -0.005144201219081879, 0.025670550763607025, 0.031777523458004, -0.031212054193019867, -0.003051541745662689, 0.023839369416236877, -0.006527349352836609, 0.04753132909536362, -0.009233400225639343, -0.021996676921844482, -0.034514185041189194, 0.031849272549152374, -0.011114358901977539, -0.04825107008218765, 0.07040495425462723, -0.022933561354875565, 0.06195148080587387, 0.0121331587433815, -0.04491712525486946, -0.011510349810123444, 0.015500985085964203, -0.06018954887986183, 0.040664464235305786, 0.06315317004919052, -0.05876839905977249, 0.07260260730981827, -0.06612410396337509, -0.005319058895111084, 0.04401960223913193, 0.04549097269773483, 0.059440307319164276, 0.06213574856519699, 0.037773311138153076, 0.07623737305402756, 0.07232595235109329, 0.06012151390314102, 0.021920636296272278, -0.013272032141685486, -0.04735448956489563, -0.0396854393184185, -0.027867302298545837, 0.07195272296667099, -0.04766421020030975, -0.07185698300600052, 0.06649739295244217, 0.010725736618041992, 0.07201998680830002, -0.07576508074998856, 0.03582268953323364, 0.05471160262823105, 0.04032675921916962, 0.03130878508090973, 0.012095369398593903, -0.06677164882421494, -0.018931131809949875, -0.0149378702044487, -0.006632901728153229, 0.004001401364803314, 0.02690666913986206, 0.06772851198911667, 0.06997769325971603, -0.004318550229072571, -0.05604080855846405, 0.07936952263116837], [-0.038981642574071884, -0.01217823475599289, -0.07697776705026627, 0.02190648764371872, 0.02953457087278366, -0.04035969078540802, -0.07102540135383606, -0.012555330991744995, -0.02054058015346527, -0.05700195953249931, -0.02706410363316536, -0.05544895678758621, -0.03695935755968094, 0.06589867919683456, -0.03146697208285332, 0.06115870922803879, 0.012196220457553864, 0.05774760991334915, -0.025054894387722015, -0.056183524429798126, -0.01917073503136635, 0.04181835800409317, -0.008613429963588715, -0.0019027143716812134, -0.06446301937103271, -0.04857082664966583, -0.0710892528295517, 0.016257554292678833, -0.03878064081072807, 0.04066256433725357, -0.07405700534582138, 0.06580530852079391, -0.037807710468769073, 0.012926936149597168, 0.02276705950498581, -0.06385909020900726, -0.0040466561913490295, 0.06686981767416, 0.0682276114821434, 0.031232841312885284, -0.00689079612493515, -0.047078415751457214, -0.07076603174209595, -0.051063358783721924, 0.06782462447881699, -0.055370815098285675, -0.07130168378353119, -0.04269556328654289, -0.0603252649307251, -0.07398897409439087, 0.025721043348312378, 0.044418059289455414, 0.010893106460571289, -0.053703851997852325, -0.04197820648550987, 0.07878897339105606, 0.010531485080718994, -0.06028392165899277, 0.005473919212818146, -0.03466380760073662, 0.0441688671708107, 0.0560767725110054, 0.029053278267383575, 0.04677058011293411, -0.07428784668445587, -0.07054708153009415, -0.06022898107767105, -0.04285901039838791, -0.012109644711017609, -0.019313663244247437, -0.014137186110019684, -0.06616821885108948, -0.006813541054725647, 0.06949987262487411, -0.07869517803192139, 0.039378173649311066, 0.01858820766210556, -0.020222138613462448, 0.019152633845806122, -0.04510068520903587, -0.03987959772348404, -0.01650456339120865, -0.07820737361907959, 0.026927538216114044, 0.040048107504844666, 0.03653720021247864, -0.02871408686041832, -0.03965650871396065, 0.06451701372861862, -0.062349773943424225, -0.005125671625137329, 0.06819344311952591, -0.05371854826807976, 0.051572658121585846, -0.03217380493879318, 0.03573433309793472, -0.026662856340408325, 0.039178408682346344, -0.02700578048825264, 0.028411537408828735, 0.0008559897541999817, 0.044648922979831696, -0.013229019939899445, -0.016191691160202026, 0.07239953428506851, 0.01871984452009201, -0.06286763399839401, -0.045204803347587585, -0.028874613344669342, -0.026835855096578598, 0.05091068893671036, -0.05577372759580612, -0.024712879210710526, -0.03508364036679268, -0.0020362287759780884, -0.038218650966882706, -0.04886944964528084, -0.08102335780858994, -0.07790109515190125, -0.04349585995078087, 0.030787460505962372, 0.0672956183552742, 0.025858595967292786, -0.033734582364559174, 0.01726613938808441, 0.07173682004213333, -0.04732122644782066, 0.01411498337984085], [0.013911157846450806, -0.06355957686901093, -0.021625731140375137, -0.020788170397281647, 0.029908649623394012, 0.045562393963336945, 0.012166596949100494, -0.06424161791801453, 0.04820922762155533, -0.05187841132283211, 0.06456998735666275, 0.0012900009751319885, -0.032912760972976685, -0.07439291477203369, -0.07228053361177444, 0.049691639840602875, 0.039127275347709656, 0.06048455089330673, 0.03039725124835968, -0.021118950098752975, -0.034082960337400436, 0.06260935217142105, -0.059775400906801224, 0.06335432082414627, 0.07227013260126114, 0.0710756704211235, 0.0007382556796073914, -0.040428996086120605, -0.0706048458814621, 0.014778248965740204, -0.05487462878227234, 0.03252731263637543, 0.06794656068086624, 0.0068940669298172, -0.04060182347893715, -0.07693030685186386, 0.06786199659109116, 0.04598521441221237, 0.002945028245449066, -0.014315985143184662, 0.04185299575328827, -0.019400358200073242, -0.05317268520593643, 0.0776226744055748, 0.0030478686094284058, 0.025191694498062134, -0.04819589853286743, -0.07416733354330063, 0.0028177276253700256, -0.049358729273080826, 0.07847071439027786, -0.06376089155673981, 0.03911229223012924, -0.06773170083761215, 0.06698129326105118, -0.05612904578447342, 0.0758509561419487, -0.023894846439361572, -0.07092588394880295, 0.04391949623823166, 0.008427150547504425, -0.01640757918357849, 0.07765448838472366, 0.0778188481926918, 0.007517009973526001, -0.06120844557881355, -0.023655131459236145, 0.05152551084756851, 0.058772943913936615, -0.03564766049385071, -0.06321319192647934, 0.023767076432704926, 0.066590316593647, 0.07083184272050858, 0.036286383867263794, 0.04525972157716751, -0.06777255982160568, 0.020811662077903748, 0.06703685969114304, -0.0641539990901947, -0.042503707110881805, -0.06464211642742157, -0.04297126829624176, -0.022090990096330643, -0.01283266395330429, 